svm_type c_svc
kernel_type rbf
gamma 0.5
nr_class 2
total_sv 2720
rho -0.562816
label 1 0
probA -1.81899
probB -0.153281
nr_sv 1359 1361
SV
8 1:-0.983329 2:-0.303263 3:-0.982877 4:-0.167808 5:-0.982658 6:-0.136895 7:-0.982692 8:-0.143577 9:-0.983748 10:-0.170773 11:-0.0812651 12:1 13:1 14:0.333333 
3.43446704768566 1:-0.914953 2:0.130518 3:-0.909313 4:0.238014 5:-0.909324 6:0.257095 7:-0.909413 8:0.252729 9:-0.910829 10:0.238743 11:-0.701111 12:0.501976 13:0.615385 14:-0.165837 
8 1:-0.997066 2:-0.694818 3:-0.996209 4:-0.511986 5:-0.9961 6:-0.474124 7:-0.996131 8:-0.482788 9:-0.995895 10:-0.485132 11:-0.370958 12:1 13:1 14:0.892789 
8 1:-0.984936 2:-0.328215 3:-0.983538 4:-0.17637 5:-0.984423 6:-0.161937 7:-0.98441 8:-0.167086 9:-0.983979 10:-0.174172 11:-0.408749 12:1 13:0.78022 14:0.257542 
8 1:-0.982805 2:-0.295585 3:-0.982964 4:-0.169521 5:-0.982784 6:-0.138564 7:-0.98296 8:-0.146935 9:-0.982674 10:-0.15548 11:-0.303636 12:1 13:0.648352 14:-0.0140106 
8 1:-0.960581 2:-0.0786948 3:-0.959016 4:0.0428082 5:-0.95851 6:0.0701169 7:-0.95856 8:0.0646516 9:-0.956802 10:0.0637213 11:-0.315027 12:1 13:1 14:1 
8 1:-0.965689 2:-0.115163 3:-0.962637 4:0.0205479 5:-0.961343 6:0.0534224 7:-0.96139 8:0.0478589 9:-0.959586 10:0.046729 11:-0.165131 12:1 13:0.787798 14:0.190541 
8 1:-0.969903 2:-0.149712 3:-0.958689 4:0.0445205 5:-0.958541 6:0.0701169 7:-0.958571 8:0.0646516 9:-0.961047 10:0.0382328 11:-0.210107 12:1 13:0.440559 14:0.757968 
8 1:-0.991637 2:-0.472169 3:-0.990944 4:-0.316781 5:-0.990069 6:-0.265442 7:-0.990196 8:-0.276238 9:-0.989575 10:-0.276126 11:-0.273857 12:1 13:0.430199 14:0.419592 
8 1:-0.957657 2:-0.059501 3:-0.958384 4:0.0462329 5:-0.957794 6:0.0734558 7:-0.958384 8:0.0646516 9:-0.95351 10:0.0807137 11:-0.350223 12:1 13:0.300699 14:-0.365853 
8 1:-0.979548 2:-0.24952 3:-0.978098 4:-0.107877 5:-0.978174 6:-0.081803 7:-0.978211 8:-0.0881612 9:-0.987336 10:-0.230246 11:-0.865469 12:1 13:1 14:0.63093 
8 1:-0.97452 2:-0.193858 3:-0.971369 4:-0.0445205 5:-0.970365 6:-0.0100167 7:-0.970207 8:-0.0142737 9:-0.965586 10:0.00764656 11:-0.091579 12:1 13:0.81352 14:-0.0140106 
8 1:-0.972193 2:-0.170825 3:-0.96928 4:-0.0273973 5:-0.966548 6:0.0183639 7:-0.966698 8:0.0125945 9:-0.965654 10:0.00764656 11:-0.180551 12:0.756286 13:0.474672 14:-0.526652 
8 1:-0.979681 2:-0.25144 3:-0.980199 4:-0.133562 5:-0.97999 6:-0.103506 7:-0.980073 8:-0.109992 9:-0.979677 10:-0.118097 11:-0.248963 12:0.847273 13:0.476268 14:-0.555583 
8 1:-0.977318 2:-0.224568 3:-0.973237 4:-0.0599315 5:-0.972437 6:-0.0267112 7:-0.972468 8:-0.0327456 9:-0.973642 10:-0.0552251 11:-0.186752 12:1 13:0.535559 14:-0.123023 
8 1:-0.976735 2:-0.216891 3:-0.975431 4:-0.0804795 5:-0.97429 6:-0.0434057 7:-0.973697 8:-0.0445004 9:-0.972329 10:-0.0450297 11:-0.294353 12:0.809091 13:0.83368 14:-0.128757 
8 1:-0.983209 2:-0.301344 3:-0.980363 4:-0.135274 5:-0.980239 6:-0.106845 7:-0.980277 8:-0.111671 9:-0.980119 10:-0.123195 11:-0.20801 12:1 13:0.72028 14:0.419592 
8 1:-0.984333 2:-0.318618 3:-0.982878 4:-0.167808 5:-0.98207 6:-0.128548 7:-0.982109 8:-0.135181 9:-0.982074 10:-0.148683 11:-0.198299 12:1 13:0.70696 14:-0.255465 
8 1:-0.970598 2:-0.15547 3:-0.968019 4:-0.0171233 5:-0.96697 6:0.015025 7:-0.967412 8:0.00755668 9:-0.966433 10:0.00254885 11:-0.151475 12:0.69697 13:0.230769 14:-0.616081 
8 1:-0.991404 2:-0.466411 3:-0.989973 4:-0.294521 5:-0.990958 6:-0.287145 7:-0.990821 8:-0.291352 9:-0.988835 10:-0.259133 11:-0.243231 12:1 13:0.638009 14:0.518209 
5.224335010988368 1:-0.972946 2:-0.176583 3:-0.970172 4:-0.0342466 5:-0.969016 7:-0.969046 8:-0.00587741 9:-0.966854 10:-0.000849618 11:-0.389945 12:1 13:0.18552 14:0.13093 
8 1:-0.968405 2:-0.136276 3:-0.965607 5:-0.965507 6:0.0250417 7:-0.965553 8:0.0193115 9:-0.963988 10:0.0195412 11:-0.205093 12:1 13:0.72028 14:0.257542 
8 1:-0.996586 2:-0.666027 3:-0.996148 4:-0.508562 5:-0.995664 6:-0.450751 7:-0.995689 8:-0.459278 9:-0.995423 10:-0.461342 11:-0.156643 12:1 13:1 14:0.892789 
8 1:-0.93537 2:0.0556622 3:-0.932961 4:0.162671 5:-0.93287 6:0.183639 7:-0.932949 8:0.178841 9:-0.935896 10:0.158879 11:-0.35046 12:1 13:1 14:0.257542 
8 1:-0.977633 2:-0.226488 3:-0.978659 4:-0.114726 5:-0.978131 6:-0.081803 7:-0.978175 8:-0.0881612 9:-0.979125 10:-0.1113 11:-0.272723 12:1 13:0.681698 14:0.13093 
2.489289433284623 1:-0.970122 2:-0.151631 3:-0.967872 4:-0.015411 5:-0.966909 6:0.015025 7:-0.967401 8:0.00755668 9:-0.968136 10:-0.011045 11:0.133863 12:1 13:1 14:-0.18195 
8 1:-0.976415 2:-0.213052 3:-0.975503 4:-0.0821918 5:-0.975912 6:-0.0601002 7:-0.975954 8:-0.0663308 9:-0.974433 10:-0.0637213 11:-0.208189 12:1 13:0.239412 14:-0.44522 
8 1:-0.984073 2:-0.314779 3:-0.978018 4:-0.107877 5:-0.976755 6:-0.0684474 7:-0.976789 8:-0.0747271 9:-0.97606 10:-0.0790144 11:-0.149704 12:1 13:1 14:0.757968 
8 1:-0.986671 2:-0.358925 3:-0.986266 4:-0.219178 5:-0.986214 6:-0.190317 7:-0.986277 8:-0.197313 9:-0.983194 10:-0.163976 11:-0.540281 12:1 13:0.261538 14:0.0775619 
8 1:-0.989465 2:-0.416507 3:-0.989476 4:-0.282534 5:-0.989159 6:-0.245409 7:-0.989103 8:-0.25105 9:-0.988159 10:-0.24554 11:-0.347017 12:1 13:0.846154 14:0.63093 
8 1:-0.980287 2:-0.259117 3:-0.978277 4:-0.111301 5:-0.97752 6:-0.0751252 7:-0.977412 8:-0.0797649 9:-0.977254 10:-0.0909091 11:-0.0792936 12:0.706294 13:0.408284 14:-0.555753 
8 1:-0.978928 2:-0.241843 3:-0.978196 4:-0.109589 5:-0.97852 6:-0.0868114 7:-0.978564 8:-0.093199 9:-0.977266 10:-0.0909091 11:-0.251732 12:1 13:1 14:0.892789 
8 1:-0.979521 2:-0.24952 3:-0.97874 4:-0.116438 5:-0.978807 6:-0.0901503 7:-0.978878 8:-0.0965575 9:-0.979103 10:-0.1113 11:-0.279113 12:1 13:0.838057 14:0.63093 
8 1:-0.984501 2:-0.320537 3:-0.983007 4:-0.169521 5:-0.982498 6:-0.135225 7:-0.982462 8:-0.140218 9:-0.983382 10:-0.165675 11:-0.309632 12:0.768595 13:0.393283 14:-0.384843 
8 1:-0.968229 2:-0.134357 3:-0.969294 4:-0.0273973 5:-0.968473 6:0.00500835 7:-0.968432 8:-0.000839631 9:-0.967785 10:-0.00764656 11:-0.254831 12:1 13:0.801489 14:0.257542 
8 1:-0.968711 2:-0.140115 3:-0.967735 4:-0.015411 5:-0.967642 6:0.0100167 7:-0.967693 8:0.00419815 9:-0.965728 10:0.00764656 11:-0.547927 12:1 13:1 14:0.757968 
8 1:-0.939523 2:0.0364683 3:-0.935534 4:0.15411 5:-0.935416 6:0.175292 7:-0.935491 8:0.170445 9:-0.929308 10:0.182668 11:-0.155666 12:1 13:1 14:0.333333 
8 1:-0.963554 2:-0.0978887 3:-0.961982 4:0.0239726 5:-0.962198 6:0.0467446 7:-0.962252 8:0.0411419 9:-0.9613 10:0.0365336 11:-0.240182 12:1 13:0.728507 14:-0.0140106 
8 1:-0.976824 2:-0.21881 3:-0.976154 4:-0.0873288 5:-0.97615 6:-0.0617696 7:-0.975908 8:-0.0646516 9:-0.975567 10:-0.0739167 11:-0.351754 12:0.675048 13:0.160839 14:-0.5193 
8 1:-0.891434 2:0.195777 3:-0.880563 4:0.304795 5:-0.87955 6:0.323873 7:-0.879596 8:0.319899 9:-0.868989 10:0.332201 11:-0.0973598 12:1 13:0.728507 14:-0.123023 
8 1:-0.989919 2:-0.428023 3:-0.988839 4:-0.268836 5:-0.988495 6:-0.232053 7:-0.988597 8:-0.240974 9:-0.988484 10:-0.252336 11:-0.294708 12:1 13:0.728507 14:0.333333 
8 1:-0.973609 2:-0.184261 3:-0.972264 4:-0.0513699 5:-0.971854 6:-0.0233723 7:-0.971835 8:-0.0277078 9:-0.970462 10:-0.0280374 11:-0.36326 12:0.761364 13:0.320679 14:-0.370137 
8 1:-0.941988 2:0.0268714 3:-0.940407 4:0.133562 5:-0.940019 6:0.156928 7:-0.940072 8:0.151973 9:-0.937209 10:0.153781 11:-0.440665 12:1 13:0.763314 14:0.63093 
8 1:-0.987586 2:-0.3762 3:-0.986872 4:-0.231164 5:-0.986999 6:-0.203673 7:-0.987004 8:-0.210747 9:-0.987128 10:-0.226848 11:-0.0960336 12:0.727273 13:0.587242 14:-0.482691 
8 1:-0.985762 2:-0.34357 3:-0.985817 4:-0.212329 5:-0.985476 6:-0.178631 7:-0.985512 8:-0.185558 9:-0.985523 10:-0.197961 11:-0.233306 12:1 13:0.726496 14:-0.0897993 
8 1:-0.974513 2:-0.193858 3:-0.97238 4:-0.0530822 5:-0.972242 6:-0.0250417 7:-0.972283 8:-0.0310663 9:-0.971237 10:-0.0348343 11:-0.348527 12:0.813747 13:0.433198 14:-0.479789 
8 1:-0.994757 2:-0.577735 3:-0.993903 4:-0.407534 5:-0.993799 6:-0.372287 7:-0.993834 8:-0.380353 9:-0.993448 10:-0.381478 11:-0.370958 12:1 13:1 14:-1 
8 1:-0.994555 2:-0.570058 3:-0.993309 4:-0.386986 5:-0.99176 6:-0.308848 7:-0.99184 8:-0.31822 9:-0.991555 10:-0.323704 11:-0.192209 12:1 13:0.881657 14:0.257542 
8 1:-0.974294 2:-0.190019 3:-0.97309 4:-0.0582192 5:-0.972095 6:-0.0250417 7:-0.972133 8:-0.0310663 9:-0.969356 10:-0.0195412 11:-0.347716 12:1 13:1 14:0.419592 
8 1:-0.961536 2:-0.084453 3:-0.960401 4:0.0342466 5:-0.96031 6:0.0584307 7:-0.960361 8:0.0528967 9:-0.958563 10:0.0535259 11:-0.408723 12:1 13:1 14:0.63093 
8 1:-0.974916 2:-0.197697 3:-0.973957 4:-0.0667808 5:-0.974081 6:-0.0417362 7:-0.974034 8:-0.0478589 9:-0.972919 10:-0.0501274 11:-0.286503 12:1 13:0.347319 14:-0.232658 
8 1:-0.992962 2:-0.512476 3:-0.99078 4:-0.313356 5:-0.990621 6:-0.278798 7:-0.990646 8:-0.286314 9:-0.992668 10:-0.35599 11:-0.237636 12:1 13:1 14:0.892789 
8 1:-0.969201 2:-0.143954 3:-0.967579 4:-0.0136986 5:-0.968416 6:0.00500835 7:-0.968178 8:0.000839631 9:-0.969091 10:-0.017842 11:-0.330513 12:1 13:0.838057 14:0.0295029 
8 1:-0.9834 2:-0.303263 3:-0.982966 4:-0.169521 5:-0.982858 6:-0.138564 7:-0.982879 8:-0.145256 9:-0.981505 10:-0.140187 11:-0.353963 12:1 13:0.81352 14:-0.0140106 
8 1:-0.967643 2:-0.130518 3:-0.965723 5:-0.965266 6:0.0267112 7:-0.965316 8:0.0209908 9:-0.964749 10:0.0144435 11:-0.1957 12:0.844156 13:0.289941 14:-0.547242 
8 1:-0.965797 2:-0.115163 3:-0.964855 4:0.00513699 5:-0.964756 6:0.0300501 7:-0.96482 8:0.0243493 9:-0.962018 10:0.0314359 11:-0.370958 12:1 13:1 14:-1 
8 1:-0.979119 2:-0.245681 3:-0.978009 4:-0.107877 5:-0.977768 6:-0.0784641 7:-0.977732 8:-0.0831234 9:-0.977211 10:-0.0909091 11:-0.190138 12:0.830303 13:0.274311 14:-0.51612 
7.636470717712002 1:-0.89544 2:0.18618 3:-0.894567 4:0.273973 5:-0.894504 6:0.292154 7:-0.894601 8:0.287993 9:-0.877608 10:0.316907 11:-0.420689 12:1 13:1 14:1 
8 1:-0.967595 2:-0.130518 3:-0.967177 4:-0.010274 5:-0.965995 6:0.0217028 7:-0.965669 8:0.0193115 9:-0.96359 10:0.0212404 11:-0.249756 12:1 13:0.64497 14:0.257542 
8 1:-0.971167 2:-0.161228 3:-0.966932 4:-0.00856164 5:-0.966256 6:0.0200334 7:-0.966304 8:0.0142737 9:-0.970143 10:-0.0263381 11:-0.375613 12:0.787879 13:0.85348 14:-0.0607469 
8 1:-0.97882 2:-0.241843 3:-0.974552 4:-0.0719178 5:-0.974721 6:-0.048414 7:-0.974816 8:-0.054576 9:-0.976161 10:-0.0807137 11:-0.339803 12:0.720621 13:-0.0558069 14:-0.470845 
8 1:-0.997066 2:-0.694818 3:-0.996209 4:-0.511986 5:-0.9961 6:-0.474124 7:-0.996131 8:-0.482788 9:-0.995895 10:-0.485132 11:-0.370958 12:1 13:1 14:-1 
8 1:-0.979423 2:-0.24952 3:-0.978687 4:-0.114726 5:-0.97798 6:-0.0801336 7:-0.977898 8:-0.0848027 9:-0.977272 10:-0.0909091 11:-0.262844 12:0.833992 13:0.10143 14:-0.525818 
8 1:-0.974816 2:-0.195777 3:-0.976743 4:-0.0941781 5:-0.976585 6:-0.066778 7:-0.976629 8:-0.0730479 9:-0.975702 10:-0.075616 11:-0.291916 12:1 13:0.82906 14:0.257542 
8 1:-0.97615 2:-0.211132 3:-0.973654 4:-0.0633562 5:-0.973221 6:-0.0350584 7:-0.973321 8:-0.0411419 9:-0.971745 10:-0.039932 11:-0.206131 12:0.818182 13:0.630769 14:-0.158819 
7.311993002767856 1:-0.962828 2:-0.0940499 3:-0.962425 4:0.0222603 5:-0.962322 6:0.0467446 7:-0.962372 8:0.0411419 9:-0.952966 10:0.0841121 11:-0.267003 12:1 13:1 14:0.757968 
8 1:-0.982177 2:-0.285988 3:-0.980685 4:-0.138699 5:-0.980456 6:-0.108514 7:-0.980486 8:-0.115029 9:-0.982829 10:-0.158879 11:-0.346829 12:1 13:1 14:1 
8 1:-0.967258 2:-0.126679 3:-0.965478 4:0.00171233 5:-0.964751 6:0.0300501 7:-0.964903 8:0.0243493 9:-0.962404 10:0.0297366 11:-0.399594 12:0.727273 13:0.402985 14:-0.306667 
8 1:-0.98696 2:-0.364683 3:-0.983417 4:-0.174658 5:-0.984691 6:-0.165275 7:-0.984732 8:-0.172124 9:-0.984195 10:-0.17757 11:-0.272901 12:1 13:1 14:1 
8 1:-0.988097 2:-0.387716 3:-0.983974 4:-0.183219 5:-0.983783 6:-0.15192 7:-0.983825 8:-0.15869 9:-0.982778 10:-0.157179 11:-0.370958 12:1 13:1 14:-1 
8 1:-0.959949 2:-0.0729367 3:-0.956516 4:0.0582192 5:-0.956406 6:0.081803 7:-0.956456 8:0.0764064 9:-0.955051 10:0.0722175 11:-0.00850967 12:1 13:0.794872 14:-0.153639 
8 1:-0.993973 2:-0.547025 3:-0.992174 4:-0.351027 5:-0.992688 6:-0.335559 7:-0.992705 8:-0.343409 9:-0.992529 10:-0.352591 11:-0.336912 12:1 13:0.794872 14:0.63093 
8 1:-0.989916 2:-0.428023 3:-0.989017 4:-0.27226 5:-0.988654 6:-0.235392 7:-0.988747 8:-0.244332 9:-0.988712 10:-0.257434 11:-0.353953 12:0.761364 13:0.384615 14:0.0203641 
8 1:-0.992945 2:-0.512476 3:-0.992841 4:-0.371575 5:-0.992338 6:-0.325543 7:-0.992371 8:-0.333333 9:-0.99189 10:-0.3339 11:-0.370958 12:1 13:0.56044 14:0.892789 
8 1:-0.98596 2:-0.345489 3:-0.984938 4:-0.19863 5:-0.985345 6:-0.175292 7:-0.985251 8:-0.180521 9:-0.984359 10:-0.180969 11:-0.379034 12:0.775401 13:0.413919 14:-0.0220589 
8 1:-0.99529 2:-0.600768 3:-0.992163 4:-0.351027 5:-0.992006 6:-0.315526 7:-0.994051 8:-0.388749 9:-0.993676 10:-0.389975 11:-0.370958 12:1 13:1 14:-1 
8 1:-0.942146 2:0.024952 3:-0.941918 4:0.128425 5:-0.941518 6:0.15192 7:-0.941587 8:0.146935 9:-0.936877 10:0.15548 11:-0.29687 12:1 13:0.65812 14:0.0295029 
8 1:-0.986973 2:-0.364683 3:-0.974499 4:-0.0719178 5:-0.98156 6:-0.12187 7:-0.981587 8:-0.128463 9:-0.980365 10:-0.126593 11:-0.307817 12:1 13:1 14:0.63093 
8 1:-0.988804 2:-0.403071 3:-0.990068 4:-0.296233 5:-0.989771 6:-0.258765 7:-0.989816 8:-0.266163 9:-0.99057 10:-0.298216 11:-0.221943 12:1 13:0.90676 14:0.13093 
8 1:-0.990743 2:-0.449136 3:-0.988872 4:-0.268836 5:-0.989164 6:-0.245409 7:-0.989206 8:-0.252729 9:-0.988882 10:-0.260833 11:-0.197957 12:1 13:1 14:0.757968 
8 1:-0.986679 2:-0.358925 3:-0.985021 4:-0.19863 5:-0.982978 6:-0.140234 7:-0.983017 8:-0.146935 9:-0.986136 10:-0.208156 11:-0.370958 12:1 13:1 14:-1 
8 1:-0.975535 2:-0.203455 3:-0.973323 4:-0.0616438 5:-0.972325 6:-0.0267112 7:-0.972101 8:-0.0293871 9:-0.970526 10:-0.0297366 11:-0.341555 12:0.809091 13:0.416446 14:-0.128757 
8 1:-0.983436 2:-0.305182 3:-0.981156 4:-0.145548 5:-0.982734 6:-0.136895 7:-0.982811 8:-0.145256 9:-0.980776 10:-0.131691 11:-0.163716 12:1 13:0.448909 14:-0.408503 
8 1:-0.977784 2:-0.228407 3:-0.973509 4:-0.0633562 5:-0.973991 6:-0.0417362 7:-0.974027 8:-0.0478589 9:-0.97483 10:-0.0671198 11:-0.345439 12:0.636364 13:0.373219 14:-0.133118 
8 1:-0.985135 2:-0.332054 3:-0.983345 4:-0.174658 5:-0.982835 6:-0.138564 7:-0.983039 8:-0.148615 9:-0.982559 10:-0.153781 11:-0.293535 12:0.595041 13:-0.101399 14:-0.622502 
8 1:-0.977115 2:-0.220729 3:-0.966672 4:-0.00684932 5:-0.965614 6:0.0250417 7:-0.965647 8:0.0193115 9:-0.968584 10:-0.0144435 11:-0.11241 12:1 13:0.807692 14:0.518209 
8 1:-0.975332 2:-0.201536 3:-0.974388 4:-0.0702055 5:-0.974461 6:-0.0450751 7:-0.974435 8:-0.0512175 9:-0.973573 10:-0.0552251 11:-0.301859 12:0.876833 13:0.487179 14:-0.368171 
8 1:-0.957753 2:-0.059501 3:-0.957003 4:0.0547945 5:-0.956533 6:0.0801336 7:-0.956566 8:0.0747271 9:-0.959258 10:0.0484282 11:-0.224019 12:0.872727 13:0.604396 14:-0.352529 
8 1:-0.996207 2:-0.644914 3:-0.995629 4:-0.481164 5:-0.995407 6:-0.439065 7:-0.995438 8:-0.447523 9:-0.995155 10:-0.449448 11:-0.362037 12:1 13:0.74359 14:1 
8 1:-0.960799 2:-0.0786948 3:-0.957946 4:0.0496575 5:-0.957396 6:0.0751252 7:-0.957458 8:0.0696893 9:-0.950418 10:0.0960068 11:-0.215422 12:1 13:0.769231 14:-0.18195 
8 1:-0.978575 2:-0.238004 3:-0.976156 4:-0.0890411 5:-0.97596 6:-0.0601002 7:-0.976314 8:-0.0696893 9:-0.976042 10:-0.0790144 11:-0.259325 12:0.522727 13:-0.0150674 14:-0.669091 
8 1:-0.50719 2:0.612284 3:-0.50683 4:0.65411 5:-0.506534 6:0.662771 7:-0.506951 8:0.660789 9:-0.458022 10:0.680544 11:-0.508114 12:1 13:1 14:1 
8 1:-0.910844 2:0.142035 3:-0.910022 4:0.234589 5:-0.90997 6:0.253756 7:-0.91007 8:0.25105 9:-0.918348 10:0.218352 11:-0.221307 12:1 13:1 14:0.757968 
2.209502558284091 1:-0.989063 2:-0.408829 3:-0.984454 4:-0.190068 5:-0.984297 6:-0.160267 7:-0.984318 8:-0.167086 9:-0.971235 10:-0.0348343 11:0.416242 12:1 13:1 14:0.419592 
8 1:-0.978775 2:-0.239923 3:-0.977789 4:-0.104452 5:-0.976951 6:-0.0701169 7:-0.9774 8:-0.0797649 9:-0.974813 10:-0.0671198 11:-0.348254 12:0.840909 13:0.242604 14:-0.236586 
8 1:-0.981078 2:-0.270633 3:-0.978218 4:-0.109589 5:-0.97832 6:-0.0834725 7:-0.978355 8:-0.0898405 9:-0.978839 10:-0.107901 11:-0.347618 12:1 13:0.65812 14:0.419592 
8 1:-0.974802 2:-0.195777 3:-0.972688 4:-0.0547945 5:-0.972447 6:-0.0283806 7:-0.972496 8:-0.0344249 9:-0.971249 10:-0.0348343 11:-0.195017 12:1 13:1 14:0.257542 
8 1:-0.982996 2:-0.297505 3:-0.981466 4:-0.148973 5:-0.981189 6:-0.116861 7:-0.981305 8:-0.125105 9:-0.983522 10:-0.167375 11:-0.22741 12:1 13:0.824176 14:0.13093 
8 1:-0.980995 2:-0.268714 3:-0.977555 4:-0.10274 5:-0.977437 6:-0.0751252 7:-0.977477 8:-0.0814442 9:-0.97722 10:-0.0909091 11:-0.52253 12:1 13:0.692308 14:0.419592 
8 1:-0.989001 2:-0.40691 3:-0.987296 4:-0.238014 5:-0.985469 6:-0.178631 7:-0.985494 8:-0.183879 9:-0.985129 10:-0.192863 11:-0.358097 12:1 13:0.78022 14:1 
8 1:-0.989923 2:-0.428023 3:-0.988273 4:-0.256849 5:-0.987591 6:-0.215359 7:-0.987876 8:-0.225861 9:-0.987124 10:-0.226848 11:-0.314458 12:0.618182 13:0.487179 14:0.394845 
8 1:-0.984149 2:-0.314779 3:-0.982052 4:-0.155822 5:-0.981463 6:-0.1202 7:-0.981497 8:-0.126784 9:-0.980462 10:-0.128292 11:-0.241545 12:1 13:0.384615 14:0.518209 
8 1:-0.82691 2:0.324376 3:-0.809824 4:0.419521 5:-0.809805 6:0.434057 7:-0.809958 8:0.43073 9:-0.803654 10:0.432455 11:-0.322192 12:1 13:1 14:0.63093 
8 1:-0.984117 2:-0.314779 3:-0.983297 4:-0.172945 5:-0.98223 6:-0.130217 7:-0.982067 8:-0.135181 9:-0.980403 10:-0.126593 11:-0.365472 12:1 13:0.86014 14:0.63093 
8 1:-0.991176 2:-0.460653 3:-0.991314 4:-0.327055 5:-0.991248 6:-0.295492 7:-0.991274 8:-0.301427 9:-0.990719 10:-0.301614 11:-0.39994 12:1 13:1 14:1 
8 1:-0.817979 2:0.337812 3:-0.786365 4:0.44863 5:-0.786411 6:0.462437 7:-0.786624 8:0.459278 9:-0.776321 10:0.463042 11:-0.297798 12:1 13:1 14:0.892789 
8 1:-0.982815 2:-0.295585 3:-0.980645 4:-0.138699 5:-0.980107 6:-0.105175 7:-0.980228 8:-0.111671 9:-0.979638 10:-0.118097 11:-0.237571 12:0.805855 13:0.111111 14:-0.603923 
8 1:-0.983263 2:-0.301344 3:-0.982953 4:-0.167808 5:-0.982767 6:-0.138564 7:-0.982773 8:-0.143577 9:-0.982865 10:-0.158879 11:-0.310869 12:1 13:-0.032666 14:-0.513975 
8 1:-0.961497 2:-0.084453 3:-0.957812 4:0.0496575 5:-0.957665 6:0.0751252 7:-0.957708 8:0.0696893 9:-0.94599 10:0.118097 11:-0.184455 12:1 13:1 14:0.518209 
8 1:-0.98287 2:-0.295585 3:-0.98068 4:-0.138699 5:-0.980622 6:-0.110184 7:-0.98066 8:-0.116709 9:-0.979668 10:-0.118097 11:-0.259584 12:1 13:1 14:0.892789 
8 1:-0.989847 2:-0.426104 3:-0.987987 4:-0.251712 5:-0.987333 6:-0.210351 7:-0.987389 8:-0.217464 9:-0.986443 10:-0.213254 11:-0.357166 12:1 13:1 14:0.892789 
8 1:-0.987452 2:-0.37428 3:-0.984516 4:-0.191781 5:-0.981326 6:-0.118531 7:-0.981364 8:-0.125105 9:-0.983024 10:-0.160578 11:-0.313644 12:1 13:1 14:0.892789 
8 1:-0.962534 2:-0.0921305 3:-0.96223 4:0.0239726 5:-0.962011 6:0.048414 7:-0.960335 8:0.0528967 9:-0.958661 10:0.0518267 11:-0.308847 12:0.863636 13:0.440559 14:-0.318477 
8 1:-0.988395 2:-0.393474 3:-0.987471 4:-0.241438 5:-0.987593 6:-0.215359 7:-0.987625 8:-0.220823 9:-0.986291 10:-0.211555 11:-0.173811 12:1 13:0.807692 14:0.419592 
8 1:-0.976232 2:-0.211132 3:-0.976442 4:-0.0907534 5:-0.978003 6:-0.0801336 7:-0.978456 8:-0.0915197 9:-0.979325 10:-0.114698 11:-0.268662 12:1 13:0.787798 14:0.190541 
8 1:-0.985505 2:-0.337812 3:-0.980749 4:-0.140411 5:-0.980972 6:-0.115192 7:-0.980972 8:-0.120067 9:-0.979978 10:-0.121495 11:-0.283433 12:1 13:0.838057 14:0.190541 
8 1:-0.971402 2:-0.163148 3:-0.970765 4:-0.0393836 5:-0.969919 6:-0.0066778 7:-0.969968 8:-0.0125945 9:-0.969669 10:-0.0229397 11:-0.412863 12:1 13:0.909502 14:-0.0536054 
8 1:-0.964839 2:-0.107486 3:-0.962493 4:0.0222603 5:-0.962625 6:0.0450751 7:-0.962678 8:0.0394626 9:-0.960989 10:0.0382328 11:-0.350694 12:0.876833 13:0.354839 14:-0.368171 
8 1:-0.959039 2:-0.0671785 3:-0.957999 4:0.0496575 5:-0.957546 6:0.0751252 7:-0.957602 8:0.0696893 9:-0.955154 10:0.0722175 11:-0.404609 12:0.876833 13:0.732441 14:-0.368171 
8 1:-0.960041 2:-0.074856 3:-0.960212 4:0.0359589 5:-0.958639 6:0.0684474 7:-0.958641 8:0.0629723 9:-0.957239 10:0.0603229 11:-0.325441 12:0.804196 13:0.397993 14:-0.461312 
8 1:-0.972549 2:-0.174664 3:-0.971894 4:-0.0479452 5:-0.971793 6:-0.0217028 7:-0.971841 8:-0.0277078 9:-0.971941 10:-0.0416313 11:-0.276372 12:1 13:1 14:0.892789 
8 1:-0.968459 2:-0.136276 3:-0.969168 4:-0.0256849 5:-0.967779 6:0.0100167 7:-0.967545 8:0.00587741 9:-0.956957 10:0.0620221 11:-0.34394 12:1 13:0.67033 14:0.257542 
8 1:-0.980565 2:-0.262956 3:-0.980429 4:-0.135274 5:-0.979191 6:-0.0934891 7:-0.979234 8:-0.099916 9:-0.974916 10:-0.0671198 11:-0.322176 12:1 13:1 14:0.892789 
8 1:-0.968898 2:-0.140115 3:-0.970456 4:-0.0359589 5:-0.969676 6:-0.00500835 7:-0.969163 8:-0.00587741 9:-0.966753 10:-0.000849618 11:-0.163229 12:1 13:0.784076 14:-0.333333 
8 1:-0.986063 2:-0.347409 3:-0.98715 4:-0.236301 5:-0.987134 6:-0.207012 7:-0.987021 8:-0.210747 9:-0.986552 10:-0.216653 11:-0.287253 12:1 13:0.56044 14:-0.123023 
4.670289377780248 1:-0.983754 2:-0.309021 3:-0.983184 4:-0.171233 5:-0.98355 6:-0.148581 7:-0.983632 8:-0.157011 9:-0.98384 10:-0.172472 11:-0.120296 12:0.793612 13:0.615385 14:-0.436749 
8 1:-0.992399 2:-0.495202 3:-0.991032 4:-0.320205 5:-0.99107 6:-0.290484 7:-0.990999 8:-0.29471 9:-0.990817 10:-0.305013 11:-0.297176 12:1 13:0.267399 14:0.13093 
8 1:-0.981932 2:-0.28215 3:-0.981093 4:-0.143836 5:-0.980207 6:-0.105175 7:-0.980239 8:-0.111671 9:-0.980612 10:-0.129992 11:-0.314555 12:0.876833 13:0.72028 14:-0.368171 
8 1:-0.997066 2:-0.694818 3:-0.996209 4:-0.511986 5:-0.9961 6:-0.474124 7:-0.996131 8:-0.482788 9:-0.995895 10:-0.485132 11:-0.370958 12:1 13:1 14:-1 
8 1:-0.988328 2:-0.391555 3:-0.986595 4:-0.226027 5:-0.986338 6:-0.191987 7:-0.986334 8:-0.198992 9:-0.985605 10:-0.19966 11:-0.33919 12:0.587224 13:0.364548 14:-0.417171 
8 1:-0.997066 2:-0.694818 3:-0.996209 4:-0.511986 5:-0.9961 6:-0.474124 7:-0.996131 8:-0.482788 9:-0.995895 10:-0.485132 11:-0.370958 12:1 13:1 14:-1 
8 1:-0.984538 2:-0.322457 3:-0.982578 4:-0.162671 5:-0.982225 6:-0.130217 7:-0.982182 8:-0.13686 9:-0.981143 10:-0.135089 11:-0.198955 12:1 13:1 14:0.757968 
8 1:-0.981718 2:-0.28023 3:-0.978059 4:-0.107877 5:-0.977782 6:-0.0784641 7:-0.977821 8:-0.0848027 9:-0.97939 10:-0.114698 11:-0.367649 12:1 13:0.413919 14:0.757968 
8 1:-0.931613 2:0.0710173 3:-0.930741 4:0.171233 5:-0.930683 6:0.191987 7:-0.930764 8:0.187238 9:-0.930461 10:0.179269 11:-0.370958 12:1 13:1 14:-1 
3.905369729600231 1:-0.971386 2:-0.163148 3:-0.969455 4:-0.0291096 5:-0.969213 6:-0.00166945 7:-0.969258 8:-0.00755668 9:-0.972727 10:-0.0484282 11:-0.359299 12:0.727273 13:0.519231 14:0.118826 
8 1:-0.993831 2:-0.543186 3:-0.99243 4:-0.359589 5:-0.992327 6:-0.325543 7:-0.992231 8:-0.328296 9:-0.991763 10:-0.330501 11:-0.0172244 12:1 13:0.58042 14:0.333333 
8 1:-0.889166 2:0.201536 3:-0.885737 4:0.294521 5:-0.885678 6:0.312187 7:-0.885786 8:0.308144 9:-0.87746 10:0.316907 11:-0.292204 12:1 13:1 14:-0.0897993 
8 1:-0.988524 2:-0.395393 3:-0.988591 4:-0.263699 5:-0.9875 6:-0.213689 7:-0.987576 8:-0.220823 9:-0.986931 10:-0.223449 11:-0.224139 12:1 13:0.801489 14:0.257542 
8 1:-0.966145 2:-0.119002 3:-0.964193 4:0.010274 5:-0.964558 6:0.0317195 7:-0.964518 8:0.0277078 9:-0.964813 10:0.0144435 11:-0.280535 12:0.575758 13:0.244927 14:-0.67593 
8 1:-0.98519 2:-0.332054 3:-0.983024 4:-0.169521 5:-0.982698 6:-0.136895 7:-0.982469 8:-0.140218 9:-0.982133 10:-0.148683 11:0.00221348 12:0.904545 13:0.398762 14:-0.478574 
8 1:-0.981424 2:-0.274472 3:-0.977009 4:-0.0976027 5:-0.97602 6:-0.0601002 7:-0.976052 8:-0.0663308 9:-0.975005 10:-0.068819 11:-0.245764 12:1 13:1 14:0.757968 
8 1:-0.978915 2:-0.241843 3:-0.974937 4:-0.0753425 5:-0.974597 6:-0.0467446 7:-0.974638 8:-0.0528967 9:-0.973582 10:-0.0552251 11:-0.22007 12:0.863636 13:0.784076 14:-0.318477 
8 1:-0.962002 2:-0.0882917 3:-0.954886 4:0.0667808 5:-0.954619 6:0.0901503 7:-0.954655 8:0.0864819 9:-0.953723 10:0.0790144 11:-0.236849 12:1 13:0.78022 14:0.757968 
8 1:-0.991531 2:-0.47025 3:-0.990935 4:-0.316781 5:-0.990992 6:-0.288815 7:-0.99106 8:-0.29639 9:-0.988231 10:-0.247239 11:-0.253828 12:0.840909 13:0.454094 14:-0.236586 
8 1:-0.98874 2:-0.401152 3:-0.989179 4:-0.275685 5:-0.988885 6:-0.240401 7:-0.988873 8:-0.246012 9:-0.988224 10:-0.247239 11:-0.364862 12:1 13:0.427549 14:0.0775619 
8 1:-0.986249 2:-0.351248 3:-0.983936 4:-0.183219 5:-0.983531 6:-0.148581 7:-0.983505 8:-0.155332 9:-0.98377 10:-0.170773 11:-0.324626 12:0.768595 13:-0.0156833 14:-0.384843 
8 1:-0.984713 2:-0.324376 3:-0.98468 4:-0.193493 5:-0.985025 6:-0.170284 7:-0.985034 8:-0.177162 9:-0.984531 10:-0.182668 11:-0.370958 12:1 13:1 14:0.892789 
8 1:-0.984129 2:-0.314779 3:-0.980341 4:-0.135274 5:-0.98052 6:-0.110184 7:-0.980567 8:-0.116709 9:-0.980906 10:-0.13339 11:-0.387768 12:1 13:0.51417 14:0.190541 
8 1:-0.973272 2:-0.180422 3:-0.972936 4:-0.0582192 5:-0.971955 6:-0.0233723 7:-0.971258 8:-0.02267 9:-0.971188 10:-0.0348343 11:-0.347671 12:1 13:0.419448 14:-0.208216 
8 1:-0.97088 2:-0.15739 3:-0.969172 4:-0.0256849 5:-0.967437 6:0.0116861 7:-0.967509 8:0.00587741 9:-0.964262 10:0.017842 11:-0.291984 12:0.756286 13:0.252336 14:-0.525207 
8 1:-0.940058 2:0.0345489 3:-0.938164 4:0.143836 5:-0.938052 6:0.165275 7:-0.937995 8:0.160369 9:-0.93596 10:0.158879 11:-0.427462 12:1 13:0.767779 14:-0.276803 
8 1:-0.953511 2:-0.0345489 3:-0.95404 4:0.0702055 5:-0.954653 6:0.0901503 7:-0.954709 8:0.0848027 9:-0.953908 10:0.0790144 11:-0.212757 12:1 13:1 14:0.257542 
8 1:-0.990571 2:-0.443378 3:-0.98906 4:-0.273973 5:-0.988963 6:-0.24207 7:-0.989054 8:-0.24937 9:-0.989008 10:-0.262532 11:-0.287993 12:1 13:0.487179 14:0.13093 
8 1:-0.965037 2:-0.109405 3:-0.960095 4:0.0359589 5:-0.960365 6:0.0584307 7:-0.960006 8:0.0562552 9:-0.958652 10:0.0518267 11:-0.340957 12:0.618182 13:0.51417 14:-0.326596 
8 1:-0.981901 2:-0.28215 3:-0.978016 4:-0.107877 5:-0.977343 6:-0.0734558 7:-0.977377 8:-0.0797649 9:-0.976973 10:-0.0875106 11:-0.342099 12:1 13:0.538462 14:0.63093 
8 1:-0.983166 2:-0.301344 3:-0.980701 4:-0.138699 5:-0.979981 6:-0.103506 7:-0.980044 8:-0.109992 9:-0.978655 10:-0.106202 11:-0.243012 12:1 13:0.440559 14:-0.153639 
8 1:-0.992048 2:-0.483685 3:-0.991741 4:-0.339041 5:-0.99207 6:-0.317195 7:-0.99208 8:-0.324937 9:-0.991578 10:-0.325404 11:-0.370958 12:1 13:1 14:-1 
8 1:-0.982886 2:-0.295585 3:-0.981765 4:-0.152397 5:-0.982196 6:-0.130217 7:-0.982155 8:-0.135181 9:-0.983025 10:-0.160578 11:-0.124124 12:1 13:0.374185 14:-0.296813 
8 1:-0.992876 2:-0.510557 3:-0.992602 4:-0.364726 5:-0.991777 6:-0.308848 7:-0.991812 8:-0.316541 9:-0.99141 10:-0.320306 11:-0.26746 12:1 13:1 14:0.892789 
8 1:-0.960472 2:-0.0767754 3:-0.960509 4:0.0342466 5:-0.959907 6:0.0617696 7:-0.959975 8:0.0562552 9:-0.958103 10:0.0552251 11:-0.359416 12:0.613636 13:-0.0531136 14:-0.820534 
8 1:-0.972812 2:-0.176583 3:-0.970411 4:-0.0359589 5:-0.96987 6:-0.0066778 7:-0.969925 8:-0.0125945 9:-0.969299 10:-0.0195412 11:-0.340038 12:1 13:1 14:0.419592 
8 1:-0.984437 2:-0.320537 3:-0.983415 4:-0.174658 5:-0.98304 6:-0.141903 7:-0.983014 8:-0.146935 9:-0.98024 10:-0.124894 11:-0.316293 12:0.761364 13:0.237826 14:-0.534471 
8 1:-0.952166 2:-0.0268714 3:-0.955052 4:0.0650685 5:-0.954591 6:0.0918197 7:-0.954646 8:0.0864819 9:-0.959364 10:0.0484282 11:-0.399907 12:1 13:1 14:0.757968 
8 1:-0.980296 2:-0.259117 3:-0.979202 4:-0.121575 5:-0.978867 6:-0.0901503 7:-0.978922 8:-0.0965575 9:-0.980552 10:-0.128292 11:-0.2758 12:1 13:1 14:0.63093 
8 1:-0.971092 2:-0.159309 3:-0.969669 4:-0.0308219 5:-0.968974 7:-0.967488 8:0.00587741 9:-0.965635 10:0.00764656 11:-0.235728 12:1 13:0.547511 14:0.0295029 
8 1:-0.943593 2:0.0191939 3:-0.938939 4:0.140411 5:-0.936478 6:0.171953 7:-0.93655 8:0.167086 9:-0.922951 10:0.203059 11:-0.408296 12:1 13:0.6337 14:-0.276803 
8 1:-0.979978 2:-0.255278 3:-0.97959 4:-0.125 5:-0.97915 6:-0.0934891 7:-0.979185 8:-0.099916 9:-0.979352 10:-0.114698 11:-0.370958 12:1 13:1 14:0.892789 
8 1:-0.987747 2:-0.380038 3:-0.9869 4:-0.231164 5:-0.986866 6:-0.202003 7:-0.986904 8:-0.209068 9:-0.986064 10:-0.208156 11:-0.370958 12:1 13:1 14:-1 
8 1:-0.974841 2:-0.195777 3:-0.972735 4:-0.0565068 5:-0.974067 6:-0.0417362 7:-0.973826 8:-0.0461797 9:-0.97314 10:-0.0518267 11:-0.330068 12:1 13:0.51417 14:-0.123023 
8 1:-0.961766 2:-0.0863724 3:-0.961715 4:0.0256849 5:-0.96144 6:0.0517529 7:-0.96148 8:0.0461797 9:-0.960658 10:0.039932 11:-0.289145 12:1 13:0.42029 14:-0.31562 
8 1:-0.986183 2:-0.351248 3:-0.979899 4:-0.128425 5:-0.979737 6:-0.100167 7:-0.97978 8:-0.106633 9:-0.981943 10:-0.146984 11:-0.168695 12:1 13:0.638009 14:0.63093 
8 1:-0.82597 2:0.326296 3:-0.809992 4:0.419521 5:-0.809988 6:0.434057 7:-0.810143 8:0.43073 9:-0.778793 10:0.461342 11:-0.375518 12:1 13:1 14:0.63093 
8 1:-0.987536 2:-0.3762 3:-0.986717 4:-0.22774 5:-0.986414 6:-0.193656 7:-0.986434 8:-0.200672 9:-0.985601 10:-0.19966 11:-0.282567 12:1 13:1 14:0.892789 
8 1:-0.991369 2:-0.464491 3:-0.989554 4:-0.284247 5:-0.989331 6:-0.248748 7:-0.989358 8:-0.256087 9:-0.989804 10:-0.281223 11:-0.267956 12:1 13:0.732441 14:0.518209 
8 1:-0.972073 2:-0.168906 3:-0.969946 4:-0.0325342 5:-0.969492 6:-0.0033389 7:-0.969492 8:-0.00923594 9:-0.969318 10:-0.0195412 11:-0.308132 12:1 13:0.43662 14:-0.296813 
8 1:-0.987141 2:-0.368522 3:-0.985338 4:-0.203767 5:-0.985392 6:-0.176962 7:-0.985331 8:-0.1822 9:-0.983528 10:-0.167375 11:-0.276131 12:0.566116 13:0.209598 14:-0.484349 
8 1:-0.970684 2:-0.15547 3:-0.970654 4:-0.0376712 5:-0.970515 6:-0.0116861 7:-0.97079 8:-0.0193115 9:-0.972888 10:-0.0484282 11:-0.368389 12:1 13:0.487179 14:0.13093 
8 1:-0.98297 2:-0.297505 3:-0.978798 4:-0.116438 5:-0.97474 6:-0.048414 7:-0.974826 8:-0.054576 9:-0.97479 10:-0.0671198 11:-0.302229 12:1 13:0.82906 14:0.190541 
8 1:-0.988536 2:-0.397313 3:-0.984985 4:-0.19863 5:-0.985157 6:-0.173623 7:-0.985193 8:-0.180521 9:-0.984546 10:-0.182668 11:-0.400226 12:1 13:0.74359 14:1 
8 1:-0.986667 2:-0.358925 3:-0.987187 4:-0.236301 5:-0.986588 6:-0.196995 7:-0.986621 8:-0.20403 9:-0.989596 10:-0.276126 11:-0.328239 12:1 13:1 14:0.892789 
8 1:-0.98294 2:-0.297505 3:-0.981129 4:-0.143836 5:-0.980607 6:-0.110184 7:-0.980699 8:-0.116709 9:-0.979648 10:-0.118097 11:-0.144083 12:1 13:0.72028 14:-0.153639 
8 1:-0.972822 2:-0.176583 3:-0.967202 4:-0.010274 5:-0.966262 6:0.0200334 7:-0.966241 8:0.015953 9:-0.962553 10:0.0280374 11:-0.0139584 12:0.804196 13:0.376826 14:-0.461312 
8 1:-0.989882 2:-0.426104 3:-0.988984 4:-0.27226 5:-0.98897 6:-0.24207 7:-0.989003 8:-0.24937 9:-0.989337 10:-0.271028 11:-0.339316 12:1 13:0.72028 14:0.757968 
8 1:-0.970113 2:-0.151631 3:-0.971456 4:-0.0445205 5:-0.971299 6:-0.0183639 7:-0.970928 8:-0.0209908 9:-0.970081 10:-0.0246389 11:-0.289856 12:1 13:0.787798 14:-0.0140106 
8 1:-0.972219 2:-0.170825 3:-0.96959 4:-0.0291096 5:-0.969033 7:-0.969077 8:-0.00587741 9:-0.967051 10:-0.00254885 11:-0.374952 12:0.727273 13:0.56044 14:0.118826 
8 1:-0.995699 2:-0.619962 3:-0.9939 4:-0.407534 5:-0.994023 6:-0.380634 7:-0.994069 8:-0.388749 9:-0.993696 10:-0.389975 11:-0.3583 12:0.522727 13:0.692308 14:0.590978 
8 1:-0.993993 2:-0.548944 3:-0.993835 4:-0.405822 5:-0.993274 6:-0.353923 7:-0.993498 8:-0.368598 9:-0.993159 10:-0.372982 11:-0.370958 12:1 13:1 14:-1 
8 1:-0.983357 2:-0.303263 3:-0.982114 4:-0.157534 5:-0.982024 6:-0.128548 7:-0.98168 8:-0.130143 9:-0.979898 10:-0.121495 11:-0.266063 12:1 13:0.452991 14:0.190541 
8 1:-0.868752 2:0.247601 3:-0.860282 4:0.344178 5:-0.860077 6:0.360601 7:-0.860221 8:0.356843 9:-0.856599 10:0.354291 11:-0.501527 12:1 13:0.763314 14:0.63093 
8 1:-0.975128 2:-0.199616 3:-0.976401 4:-0.0907534 5:-0.975462 6:-0.0550918 7:-0.975131 8:-0.0579345 9:-0.975969 10:-0.0773152 11:-0.23932 12:1 13:1 14:0.757968 
8 1:-0.95634 2:-0.049904 3:-0.951991 4:0.0821918 5:-0.952297 6:0.103506 7:-0.952362 8:0.0982368 9:-0.943442 10:0.128292 11:-0.186403 12:1 13:1 14:0.333333 
8 1:-0.986961 2:-0.364683 3:-0.988015 4:-0.251712 5:-0.987779 6:-0.218698 7:-0.987816 8:-0.225861 9:-0.987283 10:-0.228547 11:-0.33818 12:1 13:1 14:1 
8 1:-0.957829 2:-0.059501 3:-0.951261 4:0.0856164 5:-0.949967 6:0.113523 7:-0.950023 8:0.108312 9:-0.953105 10:0.0824129 11:-0.0282973 12:0.858586 13:0.64497 14:-0.299893 
8 1:-0.983064 2:-0.299424 3:-0.981965 4:-0.155822 5:-0.981596 6:-0.123539 7:-0.981545 8:-0.128463 9:-0.979743 10:-0.118097 11:-0.167309 12:0.880682 13:0.502262 14:-0.382991 
8 1:-0.951014 2:-0.0191939 3:-0.946951 4:0.106164 5:-0.94685 6:0.128548 7:-0.946884 8:0.123426 9:-0.945447 10:0.119796 11:-0.352219 12:1 13:0.526627 14:0.0295029 
8 1:-0.978874 2:-0.241843 3:-0.980286 4:-0.133562 5:-0.979218 6:-0.0934891 7:-0.979207 8:-0.099916 9:-0.979407 10:-0.114698 11:-0.542278 12:1 13:1 14:0.63093 
8 1:-0.955001 2:-0.0422265 3:-0.958275 4:0.0479452 5:-0.958175 6:0.0717863 7:-0.958236 8:0.0663308 9:-0.955493 10:0.0705183 11:-0.370958 12:1 13:1 14:0.892789 
8 1:-0.984783 2:-0.326296 3:-0.985368 4:-0.205479 5:-0.98439 6:-0.161937 7:-0.98456 8:-0.170445 9:-0.984131 10:-0.17757 11:-0.365684 12:0.64482 13:0.237577 14:-0.48179 
8 1:-0.966177 2:-0.119002 3:-0.964714 4:0.00684932 5:-0.964826 6:0.0300501 7:-0.96481 8:0.0243493 9:-0.967117 10:-0.00254885 11:-0.330126 12:0.775401 13:0.472527 14:-0.398803 
8 1:-0.964952 2:-0.109405 3:-0.9611 4:0.0308219 5:-0.96101 6:0.0550918 7:-0.961054 8:0.0495382 9:-0.960873 10:0.039932 11:-0.261714 12:1 13:1 14:0.892789 
8 1:-0.940575 2:0.0326296 3:-0.939757 4:0.136986 5:-0.939692 6:0.158598 7:-0.939771 8:0.153652 9:-0.937337 10:0.153781 11:-0.370958 12:1 13:1 14:-1 
8 1:-0.842823 2:0.297505 3:-0.842037 4:0.373288 5:-0.841963 6:0.388982 7:-0.84208 8:0.38539 9:-0.838615 10:0.383178 11:-0.152638 12:1 13:1 14:0.892789 
8 1:-0.987756 2:-0.380038 3:-0.98613 4:-0.217466 5:-0.986076 6:-0.188648 7:-0.986113 8:-0.195634 9:-0.986136 10:-0.208156 11:-0.254233 12:1 13:0.692308 14:0.419592 
8 1:-0.978979 2:-0.243762 3:-0.97758 4:-0.10274 5:-0.978249 6:-0.0834725 7:-0.979324 8:-0.101595 9:-0.978592 10:-0.106202 11:-0.229113 12:0.840909 13:0.767779 14:-0.236586 
8 1:-0.997066 2:-0.694818 3:-0.996209 4:-0.511986 5:-0.9961 6:-0.474124 7:-0.996131 8:-0.482788 9:-0.995895 10:-0.485132 11:-0.370958 12:1 13:1 14:-1 
8 1:-0.980912 2:-0.268714 3:-0.980466 4:-0.135274 5:-0.98035 6:-0.106845 7:-0.98039 8:-0.11335 9:-0.979121 10:-0.1113 11:-0.370958 12:1 13:0.615385 14:-1 
8 1:-0.957479 2:-0.0575816 3:-0.955872 4:0.0616438 5:-0.955779 6:0.0851419 7:-0.955834 8:0.0797649 9:-0.955149 10:0.0722175 11:-0.347641 12:1 13:0.763314 14:0.190541 
8 1:-0.98281 2:-0.295585 3:-0.98145 4:-0.148973 5:-0.981918 6:-0.126878 7:-0.981841 8:-0.131822 9:-0.979752 10:-0.119796 11:-0.409747 12:0.887701 13:0.152276 14:-0.410421 
8 1:-0.962788 2:-0.0940499 3:-0.960937 4:0.0308219 5:-0.960802 6:0.0567613 7:-0.960834 8:0.0512175 9:-0.958477 10:0.0535259 11:-0.370958 12:1 13:0.316239 14:-1 
8 1:-0.975198 2:-0.199616 3:-0.974344 4:-0.0702055 5:-0.972658 6:-0.0300501 7:-0.972714 8:-0.0361041 9:-0.971222 10:-0.0348343 11:-0.374612 12:0.727273 13:0.567308 14:-0.302433 
8 1:-0.985888 2:-0.345489 3:-0.984237 4:-0.186644 5:-0.983483 6:-0.148581 7:-0.983512 8:-0.155332 9:-0.982779 10:-0.157179 11:-0.304492 12:0.717172 13:0.589744 14:-0.287434 
8 1:-0.982754 2:-0.293666 3:-0.981808 4:-0.152397 5:-0.981299 6:-0.118531 7:-0.98123 8:-0.123426 9:-0.980706 10:-0.129992 11:-0.316775 12:0.717172 13:0.329389 14:-0.287434 
8 1:-0.98071 2:-0.264875 3:-0.982896 4:-0.167808 5:-0.983091 6:-0.141903 7:-0.983231 8:-0.150294 9:-0.984288 10:-0.179269 11:-0.364448 12:1 13:0.763314 14:0.0775619 
8 1:-0.993718 2:-0.537428 3:-0.99287 4:-0.371575 5:-0.992765 6:-0.337229 7:-0.9928 8:-0.345088 9:-0.992346 10:-0.345794 11:-0.370958 12:1 13:1 14:-1 
8 1:-0.984675 2:-0.324376 3:-0.983831 4:-0.181507 5:-0.983884 6:-0.153589 7:-0.983924 8:-0.160369 9:-0.982889 10:-0.158879 11:-0.370958 12:1 13:1 14:-1 
8 1:-0.972197 2:-0.170825 3:-0.972662 4:-0.0547945 5:-0.972391 6:-0.0267112 7:-0.97244 8:-0.0327456 9:-0.97262 10:-0.046729 11:-0.282501 12:1 13:0.794872 14:0.518209 
8 1:-0.991251 2:-0.462572 3:-0.98902 4:-0.27226 5:-0.987394 6:-0.210351 7:-0.98709 8:-0.212427 9:-0.986692 10:-0.218352 11:-0.359889 12:1 13:0.838057 14:0.892789 
8 1:-0.984664 2:-0.324376 3:-0.983782 4:-0.179795 5:-0.983679 6:-0.15025 7:-0.983719 8:-0.157011 9:-0.984824 10:-0.187766 11:-0.370958 12:1 13:1 14:-1 
8 1:-0.977249 2:-0.222649 3:-0.976411 4:-0.0907534 5:-0.976317 6:-0.0634391 7:-0.976365 8:-0.0696893 9:-0.974834 10:-0.0671198 11:-0.370958 12:1 13:1 14:-1 
8 1:-0.995134 2:-0.59501 3:-0.994196 4:-0.419521 5:-0.994549 6:-0.400668 7:-0.99458 8:-0.4089 9:-0.994238 10:-0.410365 11:-0.448493 12:1 13:1 14:0.892789 
8 1:-0.996703 2:-0.673704 3:-0.995698 4:-0.484589 5:-0.995589 6:-0.447412 7:-0.995654 8:-0.457599 9:-0.995386 10:-0.459643 11:-0.370958 12:1 13:1 14:-1 
8 1:-0.971814 2:-0.166987 3:-0.970622 4:-0.0376712 5:-0.970519 6:-0.0116861 7:-0.970568 8:-0.0176322 9:-0.970397 10:-0.0280374 11:-0.154078 12:1 13:1 14:0.518209 
8 1:-0.990178 2:-0.433781 3:-0.988206 4:-0.255137 5:-0.988444 6:-0.230384 7:-0.988463 8:-0.237615 9:-0.984837 10:-0.187766 11:-0.13308 12:1 13:0.807692 14:0.13093 
8 1:-0.996043 2:-0.637236 3:-0.995188 4:-0.460616 5:-0.99508 6:-0.42404 7:-0.995113 8:-0.43241 9:-0.994811 10:-0.434155 11:-0.370958 12:1 13:1 14:-1 
8 1:-0.997066 2:-0.694818 3:-0.996209 4:-0.511986 5:-0.9961 6:-0.474124 7:-0.996131 8:-0.482788 9:-0.995895 10:-0.485132 11:-0.370958 12:1 13:1 14:-1 
8 1:-0.991 2:-0.454894 3:-0.988341 4:-0.258562 5:-0.98847 6:-0.232053 7:-0.988472 8:-0.237615 9:-0.988214 10:-0.247239 11:-0.015669 12:1 13:0.67033 14:0.0775619 
8 1:-0.952234 2:-0.0268714 3:-0.95055 4:0.0890411 5:-0.950548 6:0.111853 7:-0.950596 8:0.106633 9:-0.953057 10:0.0841121 11:-0.220148 12:1 13:0.62704 14:-0.0140106 
8 1:-0.980358 2:-0.261036 3:-0.977896 4:-0.106164 5:-0.977626 6:-0.0767947 7:-0.977665 8:-0.0831234 9:-0.977159 10:-0.0909091 11:-0.135797 12:1 13:0.65035 14:-0.0536054 
8 1:-0.985138 2:-0.332054 3:-0.983692 4:-0.179795 5:-0.98355 6:-0.148581 7:-0.98364 8:-0.157011 9:-0.983285 10:-0.163976 11:-0.291261 12:1 13:0.393283 14:-0.31562 
2.875669363423238 1:-0.99066 2:-0.447217 3:-0.990201 4:-0.299658 5:-0.990232 6:-0.270451 7:-0.990221 8:-0.276238 9:-0.990152 10:-0.28802 11:-0.000554194 12:-0.522282 13:-0.509615 14:-0.740918 
8 1:-0.9723 2:-0.170825 3:-0.968474 4:-0.0205479 5:-0.968144 6:0.0066778 7:-0.968193 8:0.000839631 9:-0.969052 10:-0.017842 11:-0.110254 12:1 13:1 14:0.419592 
8 1:-0.984185 2:-0.316699 3:-0.980819 4:-0.140411 5:-0.980339 6:-0.106845 7:-0.980372 8:-0.11335 9:-0.979733 10:-0.118097 11:-0.237579 12:0.775401 13:0.325606 14:-0.398803 
8 1:-0.997066 2:-0.694818 3:-0.996209 4:-0.511986 5:-0.9961 6:-0.474124 7:-0.996131 8:-0.482788 9:-0.995895 10:-0.485132 11:-0.370958 12:1 13:1 14:0.892789 
8 1:-0.992712 2:-0.504798 3:-0.993399 4:-0.390411 5:-0.99329 6:-0.355593 7:-0.993323 8:-0.36356 9:-0.992903 10:-0.364486 11:-0.370958 12:1 13:1 14:0.892789 
8 1:-0.993725 2:-0.539347 3:-0.989307 4:-0.27911 5:-0.988418 6:-0.230384 7:-0.988274 8:-0.234257 9:-0.985411 10:-0.196262 11:0.0903107 12:0.575758 13:0.423077 14:0.487192 
8 1:-0.906537 2:0.15547 3:-0.910079 4:0.234589 5:-0.908872 6:0.257095 7:-0.908963 8:0.252729 9:-0.908012 10:0.247239 11:-0.461396 12:0.799043 13:0.769231 14:-0.0961789 
8 1:-0.985603 2:-0.339731 3:-0.983297 4:-0.172945 5:-0.98311 6:-0.143573 7:-0.983156 8:-0.150294 9:-0.982487 10:-0.153781 11:-0.229621 12:0.840909 13:0.589744 14:-0.236586 
8 1:-0.990715 2:-0.447217 3:-0.990639 4:-0.309932 5:-0.989949 6:-0.263773 7:-0.989861 8:-0.267842 9:-0.98964 10:-0.276126 11:-0.235077 12:0.915152 13:0.0126292 14:-0.523371 
8 1:-0.975848 2:-0.207294 3:-0.97099 4:-0.0410959 5:-0.970604 6:-0.0116861 7:-0.97065 8:-0.0176322 9:-0.969443 10:-0.0195412 11:-0.321436 12:0.745455 13:0.399625 14:0.0670957 
8 1:-0.993054 2:-0.516315 3:-0.992713 4:-0.368151 5:-0.99276 6:-0.337229 7:-0.992721 8:-0.343409 9:-0.991457 10:-0.322005 11:-0.223153 12:1 13:0.801489 14:0.333333 
8 1:-0.986153 2:-0.349328 3:-0.975138 4:-0.0787671 5:-0.975033 6:-0.0517529 7:-0.975078 8:-0.0562552 9:-0.973187 10:-0.0518267 11:-0.370958 12:1 13:1 14:0.892789 
8 1:-0.976462 2:-0.213052 3:-0.975608 4:-0.0821918 5:-0.97527 6:-0.0534224 7:-0.975307 8:-0.0596138 9:-0.975323 10:-0.0722175 11:-0.223603 12:0.913223 13:0.230769 14:-0.515108 
8 1:-0.980286 2:-0.259117 3:-0.980997 4:-0.142123 5:-0.980293 6:-0.106845 7:-0.980296 8:-0.11335 9:-0.979665 10:-0.118097 11:-0.230549 12:0.874814 13:0.276018 14:-0.618817 
8 1:-0.926727 2:0.0882917 3:-0.92578 4:0.188356 5:-0.925712 6:0.208681 7:-0.925803 8:0.20403 9:-0.894194 10:0.281223 11:-0.494945 12:1 13:1 14:1 
8 1:-0.958202 2:-0.0614203 3:-0.958972 4:0.0428082 5:-0.957513 6:0.0751252 7:-0.957502 8:0.0696893 9:-0.956994 10:0.0620221 11:-0.42242 12:1 13:0.679487 14:-0.123023 
8 1:-0.953153 2:-0.0307102 3:-0.949 4:0.0958904 5:-0.948899 6:0.118531 7:-0.948965 8:0.11335 9:-0.946415 10:0.114698 11:-0.138308 12:1 13:1 14:0.63093 
8 1:-0.894943 2:0.1881 3:-0.894105 4:0.275685 5:-0.894153 6:0.293823 7:-0.894263 8:0.289673 9:-0.889894 10:0.291419 11:-0.260745 12:1 13:1 14:0.518209 
8 1:-0.975072 2:-0.199616 3:-0.973023 4:-0.0582192 5:-0.972006 6:-0.0233723 7:-0.972048 8:-0.0293871 9:-0.970631 10:-0.0297366 11:-0.238256 12:0.706294 13:0.324578 14:-0.449465 
8 1:-0.978078 2:-0.232246 3:-0.97392 4:-0.0667808 5:-0.973341 6:-0.0350584 7:-0.973386 8:-0.0411419 9:-0.970893 10:-0.0314359 11:-0.351478 12:1 13:0.711538 14:0.419592 
8 1:-0.989052 2:-0.40691 3:-0.984611 4:-0.193493 5:-0.984499 6:-0.163606 7:-0.984538 8:-0.170445 9:-0.983651 10:-0.169074 11:-0.341569 12:1 13:1 14:0.892789 
8 1:-0.973215 2:-0.180422 3:-0.971582 4:-0.0462329 5:-0.971204 6:-0.0166945 7:-0.971305 8:-0.0243493 9:-0.971033 10:-0.0331351 11:-0.19452 12:0.648325 13:0.252137 14:-0.664192 
8 1:-0.983345 2:-0.303263 3:-0.981428 4:-0.148973 5:-0.981578 6:-0.12187 7:-0.981596 8:-0.128463 9:-0.981036 10:-0.135089 11:-0.132496 12:0.775401 13:0.74359 14:-0.0220589 
8 1:-0.981006 2:-0.268714 3:-0.979683 4:-0.126712 5:-0.979646 6:-0.0984975 7:-0.979688 8:-0.104954 9:-0.975771 10:-0.075616 11:-0.359631 12:0.872727 13:0.269231 14:-0.352529 
8 1:-0.993258 2:-0.522073 3:-0.991376 4:-0.328767 5:-0.99196 6:-0.313856 7:-0.992333 8:-0.331654 9:-0.989425 10:-0.272727 11:-0.356503 12:1 13:1 14:0.63093 
8 1:-0.918141 2:0.119002 3:-0.913961 4:0.224315 5:-0.913896 6:0.24374 7:-0.913993 8:0.239295 9:-0.907723 10:0.247239 11:-0.370958 12:1 13:1 14:0.892789 
8 1:-0.957571 2:-0.0575816 3:-0.956477 4:0.0582192 5:-0.956173 6:0.081803 7:-0.956229 8:0.0780856 9:-0.956613 10:0.0637213 11:-0.314198 12:1 13:0.88604 14:0.0775619 
8 1:-0.961648 2:-0.084453 3:-0.964929 4:0.00513699 5:-0.964798 6:0.0300501 7:-0.964857 8:0.0243493 9:-0.954512 10:0.075616 11:-0.443078 12:1 13:0.72028 14:0.892789 
8 1:-0.968818 2:-0.140115 3:-0.968907 4:-0.0239726 5:-0.971351 6:-0.0183639 7:-0.97167 8:-0.0260285 9:-0.970586 10:-0.0297366 11:-0.304276 12:1 13:0.866221 14:0.190541 
8 1:-0.959205 2:-0.0690979 3:-0.95653 4:0.0582192 5:-0.956499 6:0.0801336 7:-0.956617 8:0.0747271 9:-0.957707 10:0.0586236 11:-0.337364 12:1 13:0.352227 14:-0.408503 
8 1:-0.972211 2:-0.170825 3:-0.969155 4:-0.0256849 5:-0.969205 6:-0.00166945 7:-0.969341 8:-0.00755668 9:-0.968052 10:-0.00934579 11:-0.303753 12:1 13:0.24894 14:-0.566226 
8 1:-0.964001 2:-0.101727 3:-0.961015 4:0.0308219 5:-0.960897 6:0.0550918 7:-0.960934 8:0.0495382 9:-0.962356 10:0.0297366 11:-0.292536 12:1 13:1 14:0.518209 
8 1:-0.990417 2:-0.439539 3:-0.988171 4:-0.255137 5:-0.988195 6:-0.225376 7:-0.988335 8:-0.235936 9:-0.987872 10:-0.240442 11:-0.370958 12:1 13:1 14:0.892789 
8 1:-0.962644 2:-0.0921305 3:-0.960405 4:0.0342466 5:-0.959176 6:0.0651085 7:-0.959229 8:0.0596138 9:-0.966885 10:-0.000849618 11:-0.260876 12:0.818182 13:0.665552 14:-0.158819 
8 1:-0.972523 2:-0.172745 3:-0.972403 4:-0.0530822 5:-0.972002 6:-0.0233723 7:-0.972062 8:-0.0293871 9:-0.97123 10:-0.0348343 11:-0.323092 12:1 13:0.423077 14:-0.232658 
8 1:-0.957341 2:-0.0575816 3:-0.955594 4:0.0633562 5:-0.955489 6:0.0868114 7:-0.955554 8:0.0814442 9:-0.954585 10:0.075616 11:-0.388268 12:1 13:1 14:0.757968 
8 1:-0.975609 2:-0.205374 3:-0.971225 4:-0.0428082 5:-0.971507 6:-0.0200334 7:-0.971551 8:-0.0260285 9:-0.971186 10:-0.0348343 11:-0.301168 12:1 13:1 14:0.757968 
8 1:-0.982816 2:-0.295585 3:-0.974315 4:-0.0702055 5:-0.973795 6:-0.0400668 7:-0.973843 8:-0.0461797 9:-0.972238 10:-0.0433305 11:-0.448281 12:0.575758 13:0.807692 14:0.487192 
8 1:-0.963979 2:-0.101727 3:-0.960242 4:0.0359589 5:-0.960131 6:0.0601002 7:-0.960165 8:0.054576 9:-0.961035 10:0.0382328 11:-0.370958 12:1 13:1 14:0.892789 
8 1:-0.970949 2:-0.159309 3:-0.970117 4:-0.0342466 5:-0.970029 6:-0.00834725 7:-0.970081 8:-0.0142737 9:-0.968138 10:-0.011045 11:-0.370958 12:1 13:1 14:1 
8 1:-0.974387 2:-0.191939 3:-0.973669 4:-0.0650685 5:-0.972675 6:-0.0300501 7:-0.972723 8:-0.0361041 9:-0.969407 10:-0.0195412 11:-0.393517 12:1 13:0.85348 14:0.190541 
8 1:-0.994114 2:-0.552783 3:-0.995803 4:-0.489726 5:-0.995692 6:-0.452421 7:-0.995722 8:-0.460957 9:-0.995458 10:-0.463042 11:-0.370958 12:1 13:1 14:-1 
8 1:-0.855228 2:0.274472 3:-0.846416 4:0.366438 5:-0.846319 6:0.382304 7:-0.846435 8:0.378673 9:-0.844645 10:0.374681 11:-0.233742 12:1 13:0.81352 14:-0.123023 
8 1:-0.995048 2:-0.591171 3:-0.993773 4:-0.402397 5:-0.993665 6:-0.367279 7:-0.993696 8:-0.375315 9:-0.991078 10:-0.31181 11:-0.337013 12:1 13:1 14:0.892789 
8 1:-0.989555 2:-0.418426 3:-0.988779 4:-0.267123 5:-0.987967 6:-0.222037 7:-0.988002 8:-0.229219 9:-0.987233 10:-0.228547 11:-0.281185 12:1 13:0.72028 14:0.892789 
8 1:-0.945473 2:0.00959693 3:-0.944663 4:0.116438 5:-0.944588 6:0.138564 7:-0.944652 8:0.133501 9:-0.91251 10:0.235344 11:-0.370958 12:1 13:1 14:-1 
8 1:-0.943845 2:0.0172745 3:-0.939729 4:0.136986 5:-0.939654 6:0.158598 7:-0.939706 8:0.153652 9:-0.937112 10:0.153781 11:-0.14965 12:1 13:1 14:0.63093 
8 1:-0.992333 2:-0.493282 3:-0.990839 4:-0.315068 5:-0.990728 6:-0.282137 7:-0.991262 8:-0.301427 9:-0.990753 10:-0.303314 11:-0.137048 12:1 13:0.472527 14:-0.0140106 
8 1:-0.983049 2:-0.299424 3:-0.982313 4:-0.159247 5:-0.981888 6:-0.126878 7:-0.982552 8:-0.141898 9:-0.983282 10:-0.163976 11:-0.373966 12:1 13:0.497645 14:-0.153639 
8 1:-0.997066 2:-0.694818 3:-0.996209 4:-0.511986 5:-0.9961 6:-0.474124 7:-0.996131 8:-0.482788 9:-0.995895 10:-0.485132 11:-0.370958 12:1 13:1 14:-1 
8 1:-0.997461 2:-0.721689 3:-0.996456 4:-0.525685 5:-0.996474 6:-0.495826 7:-0.996735 8:-0.518052 9:-0.996541 10:-0.520816 11:-0.263844 12:1 13:1 14:0.757968 
8 1:-0.959954 2:-0.0729367 3:-0.957224 4:0.0530822 5:-0.957504 6:0.0751252 7:-0.957562 8:0.0696893 9:-0.957521 10:0.0586236 11:-0.286413 12:1 13:1 14:0.63093 
8 1:-0.97319 2:-0.180422 3:-0.973108 4:-0.0599315 5:-0.972593 6:-0.0283806 7:-0.972474 8:-0.0327456 9:-0.971985 10:-0.0416313 11:-0.381246 12:0.826446 13:0.331104 14:-0.186653 
8 1:-0.98937 2:-0.414587 3:-0.987218 4:-0.236301 5:-0.986435 6:-0.193656 7:-0.988236 8:-0.232578 9:-0.989834 10:-0.281223 11:-0.0246092 12:0.694545 13:0.83368 14:-0.239736 
8 1:-0.987572 2:-0.3762 3:-0.98728 4:-0.238014 5:-0.987149 6:-0.207012 7:-0.987182 8:-0.214106 9:-0.987158 10:-0.226848 11:-0.133581 12:1 13:0.698341 14:-0.208216 
8 1:-0.987333 2:-0.372361 3:-0.984973 4:-0.19863 5:-0.984921 6:-0.168614 7:-0.984908 8:-0.175483 9:-0.983226 10:-0.163976 11:-0.284423 12:0.475936 13:0.026956 14:-0.527784 
8 1:-0.938821 2:0.0403071 3:-0.925039 4:0.190068 5:-0.924971 6:0.210351 7:-0.925063 8:0.205709 9:-0.925646 10:0.194562 11:-0.370958 12:1 13:1 14:0.892789 
8 1:-0.986806 2:-0.362764 3:-0.98236 4:-0.160959 5:-0.982188 6:-0.130217 7:-0.982228 8:-0.13686 9:-0.981303 10:-0.138488 11:-0.322126 12:1 13:0.866221 14:0.333333 
8 1:-0.989913 2:-0.428023 3:-0.987212 4:-0.236301 5:-0.987385 6:-0.210351 7:-0.987419 8:-0.217464 9:-0.987774 10:-0.238743 11:-0.345585 12:1 13:0.497645 14:-0.0536054 
8 1:-0.984681 2:-0.324376 3:-0.981798 4:-0.152397 5:-0.981523 6:-0.12187 7:-0.981394 8:-0.126784 9:-0.980964 10:-0.13339 11:-0.386929 12:1 13:0.452991 14:0.13093 
8 1:-0.981141 2:-0.270633 3:-0.979249 4:-0.121575 5:-0.978706 6:-0.0884808 7:-0.97879 8:-0.0948783 9:-0.977635 10:-0.0960068 11:-0.314217 12:0.706294 13:0.598662 14:0.176384 
8 1:-0.981993 2:-0.284069 3:-0.98082 4:-0.140411 5:-0.980016 6:-0.103506 7:-0.980046 8:-0.109992 9:-0.978785 10:-0.107901 11:-0.351698 12:1 13:0.467456 14:0.13093 
8 1:-0.991878 2:-0.479846 3:-0.992858 4:-0.371575 5:-0.99175 6:-0.308848 7:-0.991767 8:-0.314861 9:-0.99166 10:-0.327103 11:-0.312977 12:1 13:0.56044 14:1 
8 1:-0.983162 2:-0.299424 3:-0.982688 4:-0.164384 5:-0.982873 6:-0.140234 7:-0.982823 8:-0.145256 9:-0.98223 10:-0.150382 11:-0.332548 12:1 13:1 14:1 
8 1:-0.974613 2:-0.193858 3:-0.971473 4:-0.0445205 5:-0.971372 6:-0.0183639 7:-0.971421 8:-0.0243493 9:-0.957715 10:0.0586236 11:-0.370958 12:1 13:1 14:-1 
8 1:-0.872891 2:0.239923 3:-0.872282 4:0.321918 5:-0.871781 6:0.338898 7:-0.87185 8:0.335013 9:-0.82575 10:0.401869 11:-0.370958 12:1 13:1 14:-1 
8 1:-0.988968 2:-0.40691 3:-0.987849 4:-0.248288 5:-0.987742 6:-0.217028 7:-0.987778 8:-0.224181 9:-0.98699 10:-0.223449 11:-0.370958 12:1 13:1 14:0.892789 
8 1:-0.984612 2:-0.322457 3:-0.982187 4:-0.157534 5:-0.98218 6:-0.130217 7:-0.981546 8:-0.128463 9:-0.981239 10:-0.136788 11:-0.26934 12:0.559441 13:0.615385 14:-0.255986 
8 1:-0.976669 2:-0.216891 3:-0.977256 4:-0.0993151 5:-0.977675 6:-0.0767947 7:-0.977714 8:-0.0831234 9:-0.978495 10:-0.104503 11:-0.289247 12:1 13:1 14:0.892789 
8 1:-0.993718 2:-0.537428 3:-0.99287 4:-0.371575 5:-0.992765 6:-0.337229 7:-0.9928 8:-0.345088 9:-0.992346 10:-0.345794 11:-0.370958 12:1 13:1 14:-1 
8 1:-0.997632 2:-0.733205 3:-0.996698 4:-0.541096 5:-0.996168 6:-0.477462 7:-0.996174 8:-0.484467 9:-0.995941 10:-0.486831 11:-0.412544 12:1 13:1 14:0.892789 
8 1:-0.884734 2:0.213052 3:-0.876386 4:0.313356 5:-0.876261 6:0.330551 7:-0.87636 8:0.326616 9:-0.871096 10:0.328802 11:-0.370958 12:1 13:1 14:0.892789 
8 1:-0.891263 2:0.197697 3:-0.890393 4:0.284247 5:-0.890294 6:0.30217 7:-0.890382 8:0.298069 9:-0.887646 10:0.294817 11:-0.529674 12:1 13:1 14:1 
7.378398664294627 1:-0.982644 2:-0.291747 3:-0.980974 4:-0.142123 5:-0.980896 6:-0.113523 7:-0.981026 8:-0.121746 9:-0.979234 10:-0.112999 11:-0.137447 12:0.512573 13:0.1417 14:-0.709648 
8 1:-0.988846 2:-0.403071 3:-0.987038 4:-0.232877 5:-0.986689 6:-0.198664 7:-0.986955 8:-0.209068 9:-0.973868 10:-0.0586236 11:-0.237953 12:0.448485 13:0.0393996 14:-0.693261 
8 1:-0.98153 2:-0.276392 3:-0.97911 4:-0.119863 5:-0.97961 6:-0.0984975 7:-0.979354 8:-0.101595 9:-0.975638 10:-0.075616 11:-0.259042 12:0.681818 13:0.144014 14:-0.527391 
8 1:-0.977792 2:-0.228407 3:-0.97411 4:-0.0684932 5:-0.974612 6:-0.0467446 7:-0.974643 8:-0.0528967 9:-0.972847 10:-0.0484282 11:-0.370958 12:1 13:1 14:0.892789 
8 1:-0.976031 2:-0.209213 3:-0.975247 4:-0.0787671 5:-0.975364 6:-0.0534224 7:-0.975635 8:-0.0629723 9:-0.978422 10:-0.104503 11:-0.337678 12:1 13:0.807692 14:0.63093 
8 1:-0.986214 2:-0.351248 3:-0.981239 4:-0.145548 5:-0.98155 6:-0.12187 7:-0.981733 8:-0.130143 9:-0.981658 10:-0.141886 11:0.0437046 12:1 13:1 14:0.518209 
8 1:-0.967294 2:-0.126679 3:-0.965063 4:0.00342466 5:-0.963567 6:0.0383973 7:-0.963623 8:0.0327456 9:-0.962969 10:0.0263381 11:-0.370382 12:0.799043 13:0.893899 14:-0.0961789 
8 1:-0.946129 2:0.00575816 3:-0.943135 4:0.123288 5:-0.943619 6:0.141903 7:-0.943698 8:0.13686 9:-0.925821 10:0.194562 11:-0.165502 12:1 13:0.686028 14:-0.333333 
8 1:-0.973317 2:-0.180422 3:-0.968546 4:-0.0205479 5:-0.968552 6:0.0033389 7:-0.968602 8:-0.00251889 9:-0.971186 10:-0.0348343 11:-0.220722 12:1 13:0.85348 14:0.518209 
8 1:-0.980588 2:-0.262956 3:-0.974007 4:-0.0667808 5:-0.972471 6:-0.0283806 7:-0.97222 8:-0.0310663 9:-0.973272 10:-0.0518267 11:-0.229481 12:0.305785 13:0.56044 14:0.346927 
8 1:-0.986524 2:-0.357006 3:-0.984617 4:-0.193493 5:-0.985589 6:-0.180301 7:-0.985699 8:-0.187238 9:-0.98453 10:-0.182668 11:-0.236129 12:1 13:0.51417 14:-0.208216 
7.080416437475237 1:-0.854351 2:0.276392 3:-0.853994 4:0.354452 5:-0.853958 6:0.370618 7:-0.85408 8:0.366919 9:-0.846804 10:0.371283 11:-0.370958 12:1 13:1 14:1 
8 1:-0.997066 2:-0.694818 3:-0.996209 4:-0.511986 5:-0.9961 6:-0.474124 7:-0.996131 8:-0.482788 9:-0.995895 10:-0.485132 11:-0.370958 12:1 13:1 14:-1 
8 1:-0.986837 2:-0.362764 3:-0.984571 4:-0.191781 5:-0.985137 6:-0.171953 7:-0.985083 8:-0.178841 9:-0.98465 10:-0.184367 11:-0.304803 12:1 13:0.648352 14:0.0775619 
8 1:-0.981965 2:-0.28215 3:-0.981997 4:-0.155822 5:-0.982241 6:-0.131886 7:-0.982304 8:-0.138539 9:-0.982567 10:-0.153781 11:-0.237761 12:1 13:0.871795 14:0.518209 
8 1:-0.993718 2:-0.537428 3:-0.99287 4:-0.371575 5:-0.992765 6:-0.337229 7:-0.9928 8:-0.345088 9:-0.992346 10:-0.345794 11:-0.370958 12:1 13:1 14:-1 
8 1:-0.994709 2:-0.575816 3:-0.995581 4:-0.479452 5:-0.993688 6:-0.368948 7:-0.993711 8:-0.376994 9:-0.993681 10:-0.389975 11:0.119196 12:1 13:1 14:0.333333 
8 1:-0.956728 2:-0.0537428 3:-0.955945 4:0.0599315 5:-0.953728 6:0.0951586 7:-0.953142 8:0.093199 9:-0.947415 10:0.1113 11:-0.260099 12:0.840909 13:0.615385 14:-0.236586 
6.313982424072824 1:-0.989566 2:-0.420345 3:-0.987226 4:-0.236301 5:-0.986806 6:-0.200334 7:-0.986552 8:-0.202351 9:-0.987994 10:-0.242141 11:-0.10515 12:0.277641 13:0.267399 14:-0.381371 
8 1:-0.988286 2:-0.391555 3:-0.98772 4:-0.246575 5:-0.987157 6:-0.207012 7:-0.987157 8:-0.212427 9:-0.98648 10:-0.214953 11:-0.280518 12:0.667984 13:0.503722 14:-0.190338 
8 1:-0.989338 2:-0.414587 3:-0.98714 4:-0.236301 5:-0.987296 6:-0.208681 7:-0.987541 8:-0.220823 9:-0.985825 10:-0.203059 11:-0.356751 12:1 13:0.78022 14:0.13093 
8 1:-0.979564 2:-0.25144 3:-0.978713 4:-0.114726 5:-0.978749 6:-0.0884808 7:-0.97878 8:-0.0948783 9:-0.9771 10:-0.0892099 11:-0.370958 12:1 13:1 14:1 
8 1:-0.981986 2:-0.28215 3:-0.979517 4:-0.125 5:-0.979409 6:-0.096828 7:-0.979447 8:-0.103275 9:-0.979084 10:-0.1113 11:-0.246888 12:1 13:1 14:0.892789 
8 1:-0.982062 2:-0.284069 3:-0.981086 4:-0.143836 5:-0.981424 6:-0.1202 7:-0.981464 8:-0.126784 9:-0.981614 10:-0.141886 11:-0.339293 12:1 13:0.838057 14:0.63093 
8 1:-0.997132 2:-0.698656 3:-0.99606 4:-0.503425 5:-0.995364 6:-0.437396 7:-0.995104 8:-0.43241 9:-0.994799 10:-0.434155 11:-0.370958 12:1 13:0.56044 14:0.892789 
8 1:-0.989536 2:-0.418426 3:-0.986878 4:-0.231164 5:-0.98608 6:-0.188648 7:-0.986109 8:-0.193955 9:-0.985177 10:-0.192863 11:-0.315695 12:0.706294 13:0.34359 14:-0.262 
8 1:-0.981344 2:-0.274472 3:-0.979286 4:-0.121575 5:-0.976794 6:-0.0684474 7:-0.976822 8:-0.0747271 9:-0.976038 10:-0.0790144 11:-0.221046 12:1 13:0.74359 14:0.757968 
8 1:-0.984718 2:-0.324376 3:-0.984074 4:-0.184932 5:-0.984782 6:-0.166945 7:-0.9848 8:-0.173804 9:-0.983908 10:-0.174172 11:-0.215771 12:1 13:0.454094 14:-0.276803 
8 1:-0.991075 2:-0.456814 3:-0.990099 4:-0.296233 5:-0.990674 6:-0.280467 7:-0.990621 8:-0.286314 9:-0.989978 10:-0.284622 11:-0.263108 12:1 13:0.838057 14:0.518209 
8 1:-0.981218 2:-0.272553 3:-0.980781 4:-0.140411 5:-0.980636 6:-0.110184 7:-0.980313 8:-0.11335 9:-0.980619 10:-0.129992 11:-0.223602 12:1 13:0.538462 14:-0.232658 
8 1:-0.969871 2:-0.149712 3:-0.965941 4:-0.00171233 5:-0.965785 6:0.0233723 7:-0.965837 8:0.0176322 9:-0.964224 10:0.017842 11:-0.2115 12:1 13:0.871795 14:0.190541 
8 1:-0.968463 2:-0.136276 3:-0.964619 4:0.00684932 5:-0.964217 6:0.0350584 7:-0.964255 8:0.0293871 9:-0.964704 10:0.0144435 11:-0.337974 12:1 13:0.692308 14:0.892789 
8 1:-0.957612 2:-0.0575816 3:-0.956791 4:0.0565068 5:-0.956714 6:0.0801336 7:-0.956778 8:0.0747271 9:-0.953964 10:0.0790144 11:-0.370958 12:1 13:1 14:1 
8 1:-0.961024 2:-0.0806142 3:-0.962816 4:0.0188356 5:-0.962434 6:0.0450751 7:-0.962487 8:0.0411419 9:-0.967741 10:-0.00764656 11:-0.285081 12:1 13:1 14:1 
8 1:-0.96623 2:-0.119002 3:-0.961177 4:0.0291096 5:-0.961092 6:0.0534224 7:-0.961149 8:0.0495382 9:-0.955314 10:0.0722175 11:-0.238506 12:0.787879 13:0.5842 14:-0.0607469 
8 1:-0.990933 2:-0.452975 3:-0.989684 4:-0.287671 5:-0.989169 6:-0.245409 7:-0.98919 8:-0.252729 9:-0.982906 10:-0.158879 11:-0.222593 12:0.694545 13:0.103297 14:-0.663914 
8 1:-0.994261 2:-0.558541 3:-0.993357 4:-0.388699 5:-0.993152 6:-0.350584 7:-0.993179 8:-0.358522 9:-0.992762 10:-0.359388 11:-0.343121 12:1 13:1 14:1 
8 1:-0.991383 2:-0.464491 3:-0.990457 4:-0.304795 5:-0.990169 6:-0.268781 7:-0.990113 8:-0.27288 9:-0.98965 10:-0.277825 11:-0.146522 12:0.880682 13:0.267399 14:-0.382991 
8 1:-0.996739 2:-0.675624 3:-0.996017 4:-0.501712 5:-0.995245 6:-0.430718 7:-0.995274 8:-0.439127 9:-0.994981 10:-0.440952 11:-0.285288 12:0.454545 13:0.615385 14:0.704744 
8 1:-0.978338 2:-0.236084 3:-0.975048 4:-0.0770548 5:-0.974941 6:-0.0500835 7:-0.974983 8:-0.0562552 9:-0.973725 10:-0.0569244 11:-0.226558 12:1 13:0.72028 14:0.757968 
8 1:-0.970683 2:-0.15547 3:-0.966991 4:-0.010274 5:-0.967275 6:0.0133556 7:-0.967313 8:0.00755668 9:-0.968831 10:-0.0161427 11:-0.220111 12:1 13:0.753846 14:0.257542 
8 1:-0.99121 2:-0.460653 3:-0.990232 4:-0.299658 5:-0.989852 6:-0.260434 7:-0.989681 8:-0.264484 9:-0.989507 10:-0.274427 11:-0.299636 12:1 13:0.487179 14:0.0775619 
8 1:-0.965903 2:-0.117083 3:-0.965155 4:0.00342466 5:-0.96506 6:0.0283806 7:-0.965113 8:0.02267 9:-0.956451 10:0.0654206 11:-0.479661 12:1 13:1 14:0.757968 
8 1:-0.961239 2:-0.0825336 3:-0.955157 4:0.0650685 5:-0.954695 6:0.0901503 7:-0.954749 8:0.0848027 9:-0.954526 10:0.075616 11:-0.254168 12:1 13:1 14:0.419592 
8 1:-0.970279 2:-0.153551 3:-0.967915 4:-0.0171233 5:-0.968112 6:0.0066778 7:-0.968111 8:0.000839631 9:-0.967728 10:-0.00764656 11:-0.209223 12:1 13:0.577677 14:-0.208216 
0.2791388904808675 1:-0.895248 2:0.18618 3:-0.893015 4:0.277397 5:-0.892651 6:0.297162 7:-0.892751 8:0.293031 9:-0.884081 10:0.303314 11:-0.229675 12:0.876833 13:0.709724 14:-0.368171 
8 1:-0.976753 2:-0.216891 3:-0.97595 4:-0.0856164 5:-0.975743 6:-0.0584307 7:-0.97579 8:-0.0646516 9:-0.976262 10:-0.0807137 11:-0.342417 12:1 13:0.367756 14:-0.208216 
8 1:-0.925455 2:0.0940499 3:-0.919779 4:0.207192 5:-0.919719 6:0.227045 7:-0.919813 8:0.222502 9:-0.910967 10:0.238743 11:-0.445469 12:1 13:1 14:1 
8 1:-0.96162 2:-0.084453 3:-0.959015 4:0.0428082 5:-0.958917 6:0.066778 7:-0.958966 8:0.061293 9:-0.951056 10:0.0926083 11:-0.327693 12:1 13:1 14:0.419592 
8 1:-0.985683 2:-0.341651 3:-0.982517 4:-0.162671 5:-0.982257 6:-0.131886 7:-0.982293 8:-0.138539 9:-0.980355 10:-0.126593 11:-0.185577 12:0.490909 13:0.67033 14:0.110954 
8 1:-0.975112 2:-0.199616 3:-0.972159 4:-0.0513699 5:-0.97411 6:-0.0417362 7:-0.974275 8:-0.0495382 9:-0.973691 10:-0.0569244 11:-0.282712 12:1 13:0.457014 14:-0.153639 
8 1:-0.989842 2:-0.426104 3:-0.988848 4:-0.268836 5:-0.989006 6:-0.24207 7:-0.989049 8:-0.24937 9:-0.988197 10:-0.247239 11:-0.289654 12:1 13:0.871795 14:0.757968 
8 1:-0.963439 2:-0.0978887 3:-0.959637 4:0.0393836 5:-0.960819 6:0.0550918 7:-0.960875 8:0.0512175 9:-0.961419 10:0.0365336 11:-0.20237 12:1 13:1 14:0.518209 
8 1:-0.993754 2:-0.539347 3:-0.991602 4:-0.335616 5:-0.991176 6:-0.293823 7:-0.991333 8:-0.303107 9:-0.990752 10:-0.303314 11:-0.242133 12:0.727273 13:0.56044 14:0.118826 
8 1:-0.981723 2:-0.28023 3:-0.980404 4:-0.135274 5:-0.980437 6:-0.108514 7:-0.981183 8:-0.123426 9:-0.977765 10:-0.0960068 11:-0.227298 12:0.722314 13:0.237127 14:-0.575505 
8 1:-0.998192 2:-0.777351 3:-0.997206 4:-0.575342 5:-0.997313 6:-0.552588 7:-0.99694 8:-0.531486 9:-0.996756 10:-0.53441 11:-0.163553 12:1 13:1 14:0.892789 
8 1:-0.990004 2:-0.429942 3:-0.987445 4:-0.241438 5:-0.987157 6:-0.207012 7:-0.987194 8:-0.214106 9:-0.987136 10:-0.226848 11:-0.238822 12:1 13:0.538462 14:0.518209 
8 1:-0.959923 2:-0.0729367 3:-0.955762 4:0.0616438 5:-0.953721 6:0.0951586 7:-0.953734 8:0.0898405 9:-0.951398 10:0.0909091 11:-0.298086 12:1 13:1 14:-0.0140106 
8 1:-0.978773 2:-0.239923 3:-0.975097 4:-0.0770548 5:-0.974827 6:-0.048414 7:-0.975311 8:-0.0596138 9:-0.976199 10:-0.0807137 11:-0.298773 12:0.840909 13:0.526627 14:-0.236586 
8 1:-0.983213 2:-0.301344 3:-0.981591 4:-0.150685 5:-0.981491 6:-0.12187 7:-0.981533 8:-0.128463 9:-0.980308 10:-0.124894 11:-0.354731 12:1 13:1 14:0.892789 
8 1:-0.839783 2:0.303263 3:-0.835849 4:0.383562 5:-0.835862 6:0.398998 7:-0.836024 8:0.395466 9:-0.837267 10:0.386576 11:-0.426396 12:1 13:0.763314 14:0.419592 
8 1:-0.977518 2:-0.226488 3:-0.975717 4:-0.0839041 5:-0.975613 6:-0.0567613 7:-0.975662 8:-0.0629723 9:-0.977342 10:-0.0926083 11:-0.148423 12:1 13:1 14:0.757968 
8 1:-0.957077 2:-0.0556622 3:-0.953608 4:0.0736301 5:-0.953619 6:0.096828 7:-0.953673 8:0.0915197 9:-0.952217 10:0.0875106 11:-0.0657622 12:0.858586 13:0.846154 14:-0.299893 
8 1:-0.979789 2:-0.253359 3:-0.977093 4:-0.0976027 5:-0.976994 6:-0.0701169 7:-0.977028 8:-0.0764064 9:-0.977368 10:-0.0926083 11:-0.266738 12:1 13:0.589744 14:0.63093 
8 1:-0.985401 2:-0.335893 3:-0.985197 4:-0.202055 5:-0.985095 6:-0.171953 7:-0.985129 8:-0.178841 9:-0.984168 10:-0.17757 11:-0.370958 12:1 13:0.72028 14:0.892789 
8 1:-0.986519 2:-0.357006 3:-0.985644 4:-0.208904 5:-0.985331 6:-0.175292 7:-0.985369 8:-0.1822 9:-0.98441 10:-0.180969 11:-0.354778 12:1 13:0.507692 14:0.63093 
8 1:-0.976716 2:-0.216891 3:-0.976561 4:-0.0924658 5:-0.9765 6:-0.0651085 7:-0.976536 8:-0.0713686 9:-0.974684 10:-0.0654206 11:-0.270432 12:1 13:1 14:0.892789 
8 1:-0.974033 2:-0.1881 3:-0.969767 4:-0.0308219 5:-0.969839 6:-0.0066778 7:-0.969889 8:-0.0125945 9:-0.970352 10:-0.0280374 11:-0.30547 12:1 13:0.638009 14:0.0295029 
8 1:-0.990045 2:-0.431862 3:-0.985513 4:-0.207192 5:-0.985411 6:-0.176962 7:-0.985436 8:-0.183879 9:-0.984492 10:-0.182668 11:-0.370958 12:1 13:1 14:-1 
8 1:-0.996407 2:-0.65643 3:-0.994318 4:-0.422945 5:-0.993756 6:-0.370618 7:-0.993723 8:-0.376994 9:-0.993326 10:-0.37808 11:-0.370958 12:1 13:1 14:-1 
8 1:-0.98955 2:-0.418426 3:-0.986731 4:-0.22774 5:-0.986195 6:-0.190317 7:-0.986206 8:-0.195634 9:-0.985606 10:-0.19966 11:-0.345277 12:1 13:0.692308 14:0.892789 
8 1:-0.992687 2:-0.502879 3:-0.991214 4:-0.325342 5:-0.990631 6:-0.278798 7:-0.990663 8:-0.286314 9:-0.990328 10:-0.293118 11:-0.256002 12:0.706294 13:0.681698 14:0.176384 
8 1:-0.972568 2:-0.174664 3:-0.971315 4:-0.0428082 5:-0.971056 6:-0.0166945 7:-0.971102 8:-0.02267 9:-0.971474 10:-0.0365336 11:-0.443058 12:0.826446 13:0.589744 14:-0.186653 
8 1:-0.992782 2:-0.506718 3:-0.992414 4:-0.357877 5:-0.991944 6:-0.313856 7:-0.992304 8:-0.331654 9:-0.992147 10:-0.340697 11:-0.286864 12:1 13:0.354839 14:-0.153639 
8 1:-0.970886 2:-0.15739 3:-0.967693 4:-0.015411 5:-0.966944 6:0.015025 7:-0.966989 8:0.00923594 9:-0.967573 10:-0.00594732 11:-0.323513 12:0.799043 13:0.856887 14:-0.0961789 
8 1:-0.962774 2:-0.0921305 3:-0.958555 4:0.0462329 5:-0.957604 6:0.0751252 7:-0.957655 8:0.0696893 9:-0.959326 10:0.0484282 11:-0.281706 12:1 13:0.82906 14:0.257542 
8 1:-0.950133 2:-0.0153551 3:-0.950109 4:0.0907534 5:-0.950011 6:0.113523 7:-0.950074 8:0.108312 9:-0.949623 10:0.101105 11:-0.424254 12:1 13:0.692308 14:0.892789 
8 1:-0.985741 2:-0.341651 3:-0.983599 4:-0.178082 5:-0.983367 6:-0.146912 7:-0.983404 8:-0.153652 9:-0.981853 10:-0.145285 11:-0.322045 12:1 13:0.541735 14:-0.153639 
8 1:-0.969822 2:-0.149712 3:-0.969168 4:-0.0256849 5:-0.968165 6:0.0066778 7:-0.968211 8:0.000839631 9:-0.96796 10:-0.00934579 11:-0.368129 12:0.818182 13:0.445145 14:-0.158819 
8 1:-0.990966 2:-0.454894 3:-0.990441 4:-0.304795 5:-0.989514 6:-0.253756 7:-0.990488 8:-0.282955 9:-0.989837 10:-0.281223 11:-0.290839 12:1 13:0.384615 14:0.892789 
8 1:-0.985794 2:-0.34357 3:-0.984038 4:-0.184932 5:-0.983961 6:-0.155259 7:-0.983049 8:-0.148615 9:-0.983119 10:-0.162277 11:-0.250915 12:1 13:0.90676 14:0.13093 
8 1:-0.972406 2:-0.172745 3:-0.973274 4:-0.0599315 5:-0.974469 6:-0.0450751 7:-0.974357 8:-0.0495382 9:-0.972992 10:-0.0501274 11:-0.362312 12:0.863636 13:0.567308 14:-0.318477 
8 1:-0.995411 2:-0.606526 3:-0.990105 4:-0.296233 5:-0.990429 6:-0.27379 7:-0.990438 8:-0.281276 9:-0.990047 10:-0.286321 11:-0.370958 12:1 13:1 14:0.892789 
8 1:-0.971719 2:-0.165067 3:-0.97416 4:-0.0684932 5:-0.974016 6:-0.0417362 7:-0.97406 8:-0.0478589 9:-0.976896 10:-0.0875106 11:-0.311909 12:1 13:0.794872 14:0.757968 
8 1:-0.997066 2:-0.694818 3:-0.996209 4:-0.511986 5:-0.9961 6:-0.474124 7:-0.996131 8:-0.482788 9:-0.995895 10:-0.485132 11:-0.370958 12:1 13:1 14:0.892789 
8 1:-0.992469 2:-0.497121 3:-0.991069 4:-0.320205 5:-0.990227 6:-0.270451 7:-0.990256 8:-0.276238 9:-0.989276 10:-0.269329 11:-0.289225 12:0.745455 13:0.570662 14:0.0670957 
8 1:-0.902803 2:0.166987 3:-0.902011 4:0.256849 5:-0.902026 6:0.275459 7:-0.90213 8:0.271201 9:-0.908882 10:0.24384 11:-0.370958 12:1 13:1 14:1 
8 1:-0.981066 2:-0.270633 3:-0.977484 4:-0.10274 5:-0.976873 6:-0.0684474 7:-0.976893 8:-0.0747271 9:-0.975444 10:-0.0722175 11:-0.329777 12:1 13:0.846154 14:0.518209 
8 1:-0.997066 2:-0.694818 3:-0.996209 4:-0.511986 5:-0.9961 6:-0.474124 7:-0.996131 8:-0.482788 9:-0.995895 10:-0.485132 11:-0.370958 12:1 13:1 14:-1 
8 1:-0.954237 2:-0.0383877 3:-0.953354 4:0.0753425 5:-0.953229 6:0.0984975 7:-0.95324 8:0.093199 9:-0.962816 10:0.0263381 11:-0.506668 12:1 13:0.72028 14:0.757968 
8 1:-0.98696 2:-0.364683 3:-0.986068 4:-0.215753 5:-0.985781 6:-0.183639 7:-0.985982 8:-0.192275 9:-0.98639 10:-0.213254 11:-0.204072 12:0.858586 13:0.263272 14:-0.299893 
8 1:-0.995908 2:-0.629559 3:-0.992988 4:-0.376712 5:-0.992866 6:-0.340568 7:-0.992713 8:-0.343409 9:-0.992251 10:-0.344095 11:-0.370958 12:1 13:1 14:-1 
8 1:-0.984086 2:-0.314779 3:-0.982075 4:-0.155822 5:-0.981969 6:-0.126878 7:-0.98201 8:-0.133501 9:-0.97918 10:-0.112999 11:-0.222239 12:1 13:1 14:0.892789 
8 1:-0.989292 2:-0.412668 3:-0.988149 4:-0.255137 5:-0.988252 6:-0.227045 7:-0.988289 8:-0.234257 9:-0.985213 10:-0.192863 11:-0.290771 12:1 13:1 14:0.419592 
8 1:-0.9859 2:-0.345489 3:-0.982553 4:-0.162671 5:-0.98246 6:-0.133556 7:-0.98299 8:-0.146935 9:-0.984136 10:-0.17757 11:-0.211199 12:1 13:0.676113 14:0.0295029 
8 1:-0.959386 2:-0.0690979 3:-0.957043 4:0.0547945 5:-0.956947 6:0.0784641 7:-0.957002 8:0.0730479 9:-0.953148 10:0.0824129 11:-0.345452 12:1 13:1 14:0.63093 
8 1:-0.971657 2:-0.165067 3:-0.970723 4:-0.0393836 5:-0.969857 6:-0.0066778 7:-0.9699 8:-0.0125945 9:-0.969154 10:-0.017842 11:-0.179714 12:1 13:1 14:0.518209 
8 1:-0.99517 2:-0.59501 3:-0.994535 4:-0.431507 5:-0.993994 6:-0.378965 7:-0.994117 8:-0.390428 9:-0.994079 10:-0.405268 11:-0.275977 12:1 13:0.168399 14:-0.255465 
8 1:-0.980902 2:-0.268714 3:-0.979126 4:-0.119863 5:-0.9778 6:-0.0784641 7:-0.977938 8:-0.0864819 9:-0.977591 10:-0.0943076 11:-0.337914 12:1 13:0.0339893 14:-0.296813 
8 1:-0.994435 2:-0.566219 3:-0.991923 4:-0.344178 5:-0.99146 6:-0.300501 7:-0.991484 8:-0.308144 9:-0.990891 10:-0.306712 11:-0.338085 12:1 13:0.86014 14:0.333333 
8 1:-0.973827 2:-0.18618 3:-0.971879 4:-0.0479452 5:-0.971777 6:-0.0217028 7:-0.971827 8:-0.0277078 9:-0.974769 10:-0.0671198 11:-0.41152 12:0.454545 13:0.807692 14:0.704744 
8 1:-0.988229 2:-0.389635 3:-0.986761 4:-0.229452 5:-0.985686 6:-0.18197 7:-0.98572 8:-0.188917 9:-0.98387 10:-0.172472 11:-0.0519031 12:1 13:0.753846 14:0.13093 
8 1:-0.99326 2:-0.522073 3:-0.994067 4:-0.414384 5:-0.993166 6:-0.350584 7:-0.993193 8:-0.358522 9:-0.992763 10:-0.359388 11:-0.370958 12:1 13:1 14:-1 
8 1:-0.985928 2:-0.345489 3:-0.985067 4:-0.200342 5:-0.984963 6:-0.170284 7:-0.984999 8:-0.177162 9:-0.983417 10:-0.165675 11:-0.370958 12:1 13:1 14:0.892789 
8 1:-0.995768 2:-0.6238 3:-0.995084 4:-0.455479 5:-0.995676 6:-0.452421 7:-0.995667 8:-0.457599 9:-0.995821 10:-0.481733 11:-0.274051 12:0.618182 13:0.598662 14:-0.100947 
8 1:-0.987248 2:-0.370441 3:-0.986157 4:-0.217466 5:-0.985863 6:-0.183639 7:-0.985898 8:-0.190596 9:-0.986905 10:-0.22175 11:-0.164741 12:1 13:0.457014 14:0.0775619 
8 1:-0.978389 2:-0.236084 3:-0.971525 4:-0.0445205 5:-0.971464 6:-0.0200334 7:-0.971507 8:-0.0260285 9:-0.973097 10:-0.0518267 11:-0.373678 12:1 13:1 14:0.518209 
8 1:-0.985896 2:-0.345489 3:-0.984986 4:-0.19863 5:-0.984229 6:-0.158598 7:-0.984185 8:-0.163728 9:-0.982837 10:-0.158879 11:-0.156382 12:0.550802 13:-0.077704 14:-0.727221 
8 1:-0.991377 2:-0.464491 3:-0.991073 4:-0.320205 5:-0.990584 6:-0.278798 7:-0.990733 8:-0.287993 9:-0.990348 10:-0.293118 11:-0.257222 12:1 13:0.819005 14:0.757968 
8 1:-0.984517 2:-0.322457 3:-0.983673 4:-0.178082 5:-0.983731 6:-0.15192 7:-0.983772 8:-0.15869 9:-0.982725 10:-0.157179 11:-0.370958 12:1 13:1 14:-1 
8 1:-0.98735 2:-0.372361 3:-0.987328 4:-0.239726 5:-0.987005 6:-0.203673 7:-0.987029 8:-0.210747 9:-0.985061 10:-0.191164 11:-0.17447 12:1 13:0.593614 14:-0.232658 
8 1:-0.975549 2:-0.203455 3:-0.971252 4:-0.0428082 5:-0.970875 6:-0.015025 7:-0.970924 8:-0.0209908 9:-0.972782 10:-0.0484282 11:-0.254436 12:0.833992 13:0.469496 14:-0.212505 
8 1:-0.985641 2:-0.339731 3:-0.984796 4:-0.195205 5:-0.984695 6:-0.165275 7:-0.984856 8:-0.173804 9:-0.98388 10:-0.172472 11:-0.370958 12:1 13:1 14:1 
8 1:-0.9927 2:-0.504798 3:-0.990658 4:-0.309932 5:-0.989294 6:-0.248748 7:-0.989297 8:-0.256087 9:-0.989134 10:-0.26593 11:-0.274369 12:1 13:0.384615 14:0.419592 
8 1:-0.98925 2:-0.412668 3:-0.988119 4:-0.253425 5:-0.986255 6:-0.190317 7:-0.986325 8:-0.198992 9:-0.98601 10:-0.206457 11:-0.352428 12:1 13:0.448909 14:-0.0897993 
8 1:-0.98236 2:-0.287908 3:-0.982387 4:-0.160959 5:-0.982273 6:-0.131886 7:-0.982058 8:-0.135181 9:-0.981233 10:-0.136788 11:-0.354546 12:0.694545 13:0.0402258 14:-0.541403 
8 1:-0.919383 2:0.115163 3:-0.918563 4:0.210616 5:-0.918484 6:0.230384 7:-0.918566 8:0.225861 9:-0.919335 10:0.214953 11:-0.370958 12:1 13:1 14:0.892789 
8 1:-0.955432 2:-0.0441459 3:-0.962463 4:0.0222603 5:-0.962392 6:0.0467446 7:-0.962446 8:0.0411419 9:-0.973447 10:-0.0535259 11:-0.341183 12:1 13:1 14:1 
8 1:-0.993254 2:-0.522073 3:-0.993554 4:-0.395548 5:-0.993206 6:-0.352254 7:-0.992926 8:-0.350126 9:-0.992829 10:-0.361088 11:-0.266893 12:1 13:0.819005 14:0.419592 
8 1:-0.922329 2:0.105566 3:-0.921539 4:0.202055 5:-0.921491 6:0.222037 7:-0.921585 8:0.217464 9:-0.904509 10:0.255735 11:-0.370958 12:1 13:1 14:-1 
8 1:-0.991196 2:-0.460653 3:-0.991047 4:-0.320205 5:-0.990783 6:-0.283806 7:-0.990178 8:-0.274559 9:-0.99 10:-0.284622 11:-0.336213 12:1 13:0.293821 14:-0.0536054 
8 1:-0.987209 2:-0.370441 3:-0.98754 4:-0.243151 5:-0.986683 6:-0.198664 7:-0.986766 8:-0.205709 9:-0.987268 10:-0.228547 11:-0.298224 12:1 13:0.738134 14:-0.0897993 
8 1:-0.974731 2:-0.195777 3:-0.972745 4:-0.0565068 5:-0.971773 6:-0.0217028 7:-0.971794 8:-0.0277078 9:-0.966488 10:0.00254885 11:-0.140674 12:0.717172 13:0.147609 14:-0.684266 
8 1:-0.952331 2:-0.0268714 3:-0.934736 4:0.155822 5:-0.93456 6:0.178631 7:-0.934524 8:0.173804 9:-0.941637 10:0.136788 11:-0.370958 12:1 13:1 14:-1 
8 1:-0.988006 2:-0.385797 3:-0.986332 4:-0.22089 5:-0.985578 6:-0.180301 7:-0.985654 8:-0.187238 9:-0.971315 10:-0.0348343 11:-0.252977 12:1 13:0.849906 14:-0.0897993 
8 1:-0.973431 2:-0.182342 3:-0.972045 4:-0.0496575 5:-0.971426 6:-0.0183639 7:-0.971379 8:-0.0243493 9:-0.964883 10:0.0127443 11:-0.284561 12:1 13:0.82906 14:-0.18195 
8 1:-0.98078 2:-0.266795 3:-0.981169 4:-0.145548 5:-0.981159 6:-0.116861 7:-0.981372 8:-0.125105 9:-0.979778 10:-0.119796 11:-0.2108 12:1 13:0.109981 14:-0.545437 
8 1:-0.966573 2:-0.120921 3:-0.965745 5:-0.96566 6:0.0250417 7:-0.965716 8:0.0193115 9:-0.963488 10:0.0229397 11:-0.370958 12:1 13:1 14:1 
8 1:-0.935964 2:0.0518234 3:-0.93731 4:0.14726 5:-0.934353 6:0.178631 7:-0.933971 8:0.175483 9:-0.942099 10:0.13339 11:-0.521104 12:0.681818 13:0.615385 14:0.240766 
8 1:-0.978641 2:-0.239923 3:-0.976559 4:-0.0924658 5:-0.976428 6:-0.0651085 7:-0.976402 8:-0.0696893 9:-0.976646 10:-0.0841121 11:-0.330788 12:0.809091 13:0.6337 14:-0.128757 
8 1:-0.997066 2:-0.694818 3:-0.996209 4:-0.511986 5:-0.9961 6:-0.474124 7:-0.996131 8:-0.482788 9:-0.995895 10:-0.485132 11:-0.370958 12:1 13:1 14:-1 
8 1:-0.98768 2:-0.378119 3:-0.985991 4:-0.215753 5:-0.986766 6:-0.200334 7:-0.986866 8:-0.207389 9:-0.987224 10:-0.228547 11:0.0152859 12:1 13:0.65812 14:-0.232658 
8 1:-0.975698 2:-0.205374 3:-0.969962 4:-0.0325342 5:-0.969043 7:-0.969088 8:-0.00587741 9:-0.969892 10:-0.0246389 11:-0.183608 12:1 13:0.871795 14:0.419592 
8 1:-0.97915 2:-0.245681 3:-0.97994 4:-0.130137 5:-0.979834 6:-0.101836 7:-0.979876 8:-0.108312 9:-0.978571 10:-0.106202 11:-0.370958 12:1 13:1 14:-1 
8 1:-0.986541 2:-0.357006 3:-0.986279 4:-0.22089 5:-0.985444 6:-0.176962 7:-0.985552 8:-0.185558 9:-0.984782 10:-0.186066 11:-0.298814 12:1 13:0.368836 14:-0.0536054 
8 1:-0.983017 2:-0.297505 3:-0.982397 4:-0.160959 5:-0.981596 6:-0.123539 7:-0.982073 8:-0.135181 9:-0.981535 10:-0.140187 11:-0.160122 12:0.887701 13:0.354226 14:-0.410421 
0.8642811174846071 1:-0.994242 2:-0.558541 3:-0.992591 4:-0.363014 5:-0.992693 6:-0.335559 7:-0.992822 8:-0.346767 9:-0.993949 10:-0.40017 11:-0.139464 12:-0.909091 13:0.340659 14:0.837805 
8 1:-0.978945 2:-0.243762 3:-0.978258 4:-0.109589 5:-0.978087 6:-0.081803 7:-0.97813 8:-0.0881612 9:-0.979481 10:-0.116398 11:-0.248477 12:1 13:0.638009 14:0.190541 
8 1:-0.998098 2:-0.769674 3:-0.996618 4:-0.535959 5:-0.996638 6:-0.505843 7:-0.996556 8:-0.507976 9:-0.996348 10:-0.51062 11:-0.288036 12:1 13:0.676113 14:0.63093 
8 1:-0.970758 2:-0.15739 3:-0.973029 4:-0.0582192 5:-0.973313 6:-0.0350584 7:-0.973266 8:-0.0411419 9:-0.973751 10:-0.0569244 11:-0.389941 12:0.872727 13:0.384615 14:-0.352529 
8 1:-0.993718 2:-0.537428 3:-0.99287 4:-0.371575 5:-0.992765 6:-0.337229 7:-0.9928 8:-0.345088 9:-0.992346 10:-0.345794 11:-0.370958 12:1 13:1 14:-1 
8 1:-0.97233 2:-0.170825 3:-0.969762 4:-0.0308219 5:-0.969664 6:-0.00500835 7:-0.969719 8:-0.0109152 9:-0.951405 10:0.0909091 11:-0.370958 12:1 13:1 14:1 
8 1:-0.990236 2:-0.435701 3:-0.989904 4:-0.292808 5:-0.989749 6:-0.258765 7:-0.989684 8:-0.264484 9:-0.989566 10:-0.274427 11:-0.402641 12:1 13:0.615385 14:0.518209 
8 1:-0.933917 2:0.0614203 3:-0.929704 4:0.174658 5:-0.92942 6:0.196995 7:-0.929493 8:0.192275 9:-0.925727 10:0.194562 11:-0.281445 12:0.853147 13:0.672668 14:-0.280132 
8 1:-0.912034 2:0.138196 3:-0.916809 4:0.215753 5:-0.919545 6:0.227045 7:-0.92037 8:0.220823 9:-0.917191 10:0.22175 11:-0.176859 12:1 13:0.835165 14:-0.380819 
8 1:-0.989284 2:-0.412668 3:-0.987594 4:-0.243151 5:-0.988871 6:-0.240401 7:-0.989272 8:-0.254408 9:-0.988721 10:-0.257434 11:-0.345163 12:1 13:0.648352 14:0.0295029 
8 1:-0.985588 2:-0.339731 3:-0.984241 4:-0.186644 5:-0.98376 6:-0.15192 7:-0.983802 8:-0.15869 9:-0.983469 10:-0.167375 11:-0.322011 12:1 13:0.569231 14:0.0295029 
8 1:-0.934943 2:0.0575816 3:-0.932138 4:0.166096 5:-0.931215 6:0.190317 7:-0.931299 8:0.185558 9:-0.931195 10:0.175871 11:-0.459374 12:1 13:1 14:0.518209 
8 1:-0.986331 2:-0.353167 3:-0.98525 4:-0.203767 5:-0.985145 6:-0.173623 7:-0.985183 8:-0.178841 9:-0.985045 10:-0.191164 11:-0.212475 12:1 13:1 14:0.757968 
8 1:-0.996823 2:-0.679463 3:-0.994849 4:-0.445205 5:-0.993951 6:-0.378965 7:-0.993922 8:-0.383711 9:-0.993541 10:-0.384877 11:-0.251976 12:1 13:0.457014 14:0.757968 
8 1:-0.985705 2:-0.341651 3:-0.985043 4:-0.200342 5:-0.985012 6:-0.170284 7:-0.985052 8:-0.177162 9:-0.974718 10:-0.0654206 11:-0.433316 12:1 13:0.85348 14:0.518209 
8 1:-0.997066 2:-0.694818 3:-0.996209 4:-0.511986 5:-0.9961 6:-0.474124 7:-0.996131 8:-0.482788 9:-0.995895 10:-0.485132 11:-0.370958 12:1 13:1 14:-1 
8 1:-0.974141 2:-0.190019 3:-0.971272 4:-0.0428082 5:-0.971064 6:-0.0166945 7:-0.971112 8:-0.02267 9:-0.969312 10:-0.0195412 11:-0.192491 12:0.775401 13:0.472527 14:-0.398803 
8 1:-0.987607 2:-0.378119 3:-0.984947 4:-0.19863 5:-0.984294 6:-0.160267 7:-0.984222 8:-0.165407 9:-0.983068 10:-0.162277 11:-0.0597117 12:0.507331 13:0.373219 14:-0.597468 
8 1:-0.958512 2:-0.0633397 3:-0.942942 4:0.123288 5:-0.951537 6:0.106845 7:-0.95157 8:0.101595 9:-0.954096 10:0.0773152 11:-0.222766 12:1 13:1 14:0.257542 
8 1:-0.981318 2:-0.274472 3:-0.980464 4:-0.135274 5:-0.980361 6:-0.106845 7:-0.980405 8:-0.11335 9:-0.979488 10:-0.116398 11:-0.459726 12:1 13:1 14:0.892789 
8 1:-0.937846 2:0.0441459 3:-0.911597 4:0.231164 5:-0.911514 6:0.250417 7:-0.911605 8:0.246012 9:-0.908358 10:0.24554 11:-0.370958 12:1 13:1 14:0.892789 
8 1:-0.974608 2:-0.193858 3:-0.968372 4:-0.0205479 5:-0.968582 6:0.0033389 7:-0.968393 8:-0.000839631 9:-0.968605 10:-0.0144435 11:-0.256854 12:0.681818 13:0.70696 14:-0.215908 
8 1:-0.973101 2:-0.178503 3:-0.971357 4:-0.0445205 5:-0.971431 6:-0.0183639 7:-0.971478 8:-0.0243493 9:-0.969479 10:-0.0212404 11:-0.177818 12:1 13:0.505495 14:-0.296813 
4.35170342864595 1:-0.951145 2:-0.0211132 3:-0.945278 4:0.113014 5:-0.943294 6:0.143573 7:-0.944947 8:0.131822 9:-0.943843 10:0.126593 11:-0.0107619 12:1 13:0.794872 14:0.518209 
8 1:-0.950924 2:-0.0191939 3:-0.945381 4:0.113014 5:-0.945257 6:0.135225 7:-0.945313 8:0.130143 9:-0.944868 10:0.121495 11:-0.435403 12:1 13:0.56044 14:0.190541 
8 1:-0.966386 2:-0.120921 3:-0.958443 4:0.0462329 5:-0.958353 6:0.0701169 7:-0.95841 8:0.0646516 9:-0.943669 10:0.128292 11:-0.370958 12:1 13:1 14:0.63093 
8 1:-0.992323 2:-0.493282 3:-0.989726 4:-0.287671 5:-0.987541 6:-0.213689 7:-0.987543 8:-0.220823 9:-0.987121 10:-0.226848 11:-0.370958 12:1 13:0.72028 14:0.63093 
8 1:-0.920426 2:0.111324 3:-0.920679 4:0.203767 5:-0.910905 6:0.252087 7:-0.910987 8:0.247691 9:-0.924829 10:0.197961 11:-0.350213 12:1 13:1 14:0.333333 
8 1:-0.98252 2:-0.291747 3:-0.982548 4:-0.162671 5:-0.982352 6:-0.131886 7:-0.982296 8:-0.138539 9:-0.981891 10:-0.145285 11:-0.333856 12:0.804196 13:0.353846 14:-0.459223 
8 1:-0.988987 2:-0.40691 3:-0.987058 4:-0.234589 5:-0.986581 6:-0.196995 7:-0.986617 8:-0.20403 9:-0.987306 10:-0.230246 11:-0.308343 12:1 13:1 14:1 
8 1:-0.990033 2:-0.429942 3:-0.991492 4:-0.332192 5:-0.984569 6:-0.163606 7:-0.984593 8:-0.170445 9:-0.983588 10:-0.169074 11:-0.370958 12:1 13:1 14:-1 
8 1:-0.984905 2:-0.328215 3:-0.982798 4:-0.166096 5:-0.982805 6:-0.138564 7:-0.982897 8:-0.145256 9:-0.981704 10:-0.143585 11:-0.244459 12:0.713636 13:0.474672 14:-0.460391 
8 1:-0.940406 2:0.0326296 3:-0.947916 4:0.101027 5:-0.947349 6:0.126878 7:-0.947415 8:0.121746 9:-0.947603 10:0.109601 11:-0.355823 12:1 13:0.807692 14:-0.296813 
8 1:-0.984929 2:-0.328215 3:-0.982511 4:-0.162671 5:-0.981742 6:-0.125209 7:-0.981777 8:-0.131822 9:-0.977027 10:-0.0892099 11:-0.306931 12:0.799043 13:0.384615 14:-0.0961789 
8 1:-0.984861 2:-0.328215 3:-0.982262 4:-0.159247 5:-0.981619 6:-0.123539 7:-0.981553 8:-0.128463 9:-0.980838 10:-0.131691 11:-0.35345 12:0.818182 13:0.60114 14:-0.158819 
8 1:-0.940658 2:0.0326296 3:-0.939483 4:0.138699 5:-0.93941 6:0.160267 7:-0.939491 8:0.155332 9:-0.936285 10:0.157179 11:-0.370958 12:1 13:1 14:-1 
8 1:-0.916754 2:0.12476 3:-0.913971 4:0.224315 5:-0.913895 6:0.24374 7:-0.913986 8:0.239295 9:-0.907973 10:0.247239 11:-0.370958 12:1 13:1 14:0.892789 
8 1:-0.989675 2:-0.422265 3:-0.985892 4:-0.214041 5:-0.985727 6:-0.18197 7:-0.987725 8:-0.224181 9:-0.985906 10:-0.204758 11:-0.271521 12:0.745455 13:0.681698 14:0.0670957 
8 1:-0.964281 2:-0.103647 3:-0.957053 4:0.0547945 5:-0.956983 6:0.0784641 7:-0.957038 8:0.0730479 9:-0.954792 10:0.0739167 11:-0.177337 12:1 13:0.903846 14:0.0775619 
8 1:-0.98988 2:-0.426104 3:-0.988022 4:-0.251712 5:-0.988176 6:-0.225376 7:-0.988212 8:-0.232578 9:-0.982623 10:-0.15548 11:-0.350517 12:1 13:0.464883 14:0.190541 
8 1:-0.97534 2:-0.201536 3:-0.972932 4:-0.0582192 5:-0.970382 6:-0.0100167 7:-0.970418 8:-0.015953 9:-0.96867 10:-0.0144435 11:-0.172089 12:1 13:1 14:0.518209 
7.006931513875985 1:-0.995021 2:-0.589251 3:-0.994533 4:-0.431507 5:-0.993474 6:-0.360601 7:-0.993221 8:-0.360202 9:-0.992727 10:-0.357689 11:-0.370958 12:0.236364 13:0.51417 14:0.892789 
8 1:-0.972647 2:-0.174664 3:-0.970156 4:-0.0342466 5:-0.969111 7:-0.969228 8:-0.00755668 9:-0.965558 10:0.00764656 11:-0.302609 12:0.826446 13:0.598662 14:-0.186653 
8 1:-0.973429 2:-0.182342 3:-0.970028 4:-0.0325342 5:-0.9696 6:-0.00500835 7:-0.969639 8:-0.0109152 9:-0.969425 10:-0.0195412 11:-0.35967 12:1 13:1 14:0.518209 
8 1:-0.993718 2:-0.537428 3:-0.99287 4:-0.371575 5:-0.992765 6:-0.337229 7:-0.9928 8:-0.345088 9:-0.992346 10:-0.345794 11:-0.370958 12:1 13:1 14:-1 
8 1:-0.973874 2:-0.18618 3:-0.970183 4:-0.0342466 5:-0.970421 6:-0.0100167 7:-0.970534 8:-0.0176322 9:-0.96937 10:-0.0195412 11:-0.295261 12:0.858586 13:0.521368 14:-0.299893 
8 1:-0.988997 2:-0.40691 3:-0.98618 4:-0.219178 5:-0.98467 6:-0.165275 7:-0.984706 8:-0.172124 9:-0.983825 10:-0.172472 11:-0.209073 12:1 13:1 14:0.419592 
8 1:-0.988478 2:-0.395393 3:-0.985569 4:-0.208904 5:-0.984976 6:-0.170284 7:-0.985115 8:-0.178841 9:-0.984619 10:-0.184367 11:-0.268754 12:1 13:0.74359 14:-0.208216 
8 1:-0.968685 2:-0.138196 3:-0.962434 4:0.0222603 5:-0.962315 6:0.0467446 7:-0.962369 8:0.0411419 9:-0.961026 10:0.0382328 11:-0.441154 12:1 13:1 14:0.892789 
6.966539996314289 1:-0.926517 2:0.0902111 3:-0.916076 4:0.217466 5:-0.91599 6:0.238731 7:-0.916076 8:0.234257 9:-0.92857 10:0.184367 11:-0.190815 12:1 13:0.65812 14:0.892789 
8 1:-0.959473 2:-0.0710173 3:-0.951705 4:0.0821918 5:-0.950042 6:0.113523 7:-0.950099 8:0.108312 9:-0.950138 10:0.097706 11:-0.35959 12:1 13:1 14:0.892789 
8 1:-0.967216 2:-0.126679 3:-0.964347 4:0.00856164 5:-0.963243 6:0.0400668 7:-0.963277 8:0.0361041 9:-0.963155 10:0.0246389 11:-0.340712 12:0.720621 13:0.157895 14:-0.470845 
8 1:-0.980346 2:-0.261036 3:-0.979983 4:-0.130137 5:-0.979707 6:-0.100167 7:-0.979749 8:-0.106633 9:-0.979297 10:-0.112999 11:-0.272276 12:1 13:0.753846 14:0.257542 
8 1:-0.973675 2:-0.184261 3:-0.971449 4:-0.0445205 5:-0.971037 6:-0.015025 7:-0.971005 8:-0.0209908 9:-0.970246 10:-0.0263381 11:-0.449809 12:0.727273 13:0.638009 14:0.118826 
8 1:-0.984976 2:-0.330134 3:-0.98413 4:-0.184932 5:-0.98403 6:-0.155259 7:-0.984071 8:-0.162049 9:-0.983044 10:-0.160578 11:-0.370958 12:1 13:1 14:1 
8 1:-0.998821 2:-0.836852 3:-0.998464 4:-0.690068 5:-0.998352 6:-0.647746 7:-0.998381 8:-0.657431 9:-0.998292 10:-0.661852 11:-0.370958 12:1 13:1 14:-1 
8 1:-0.990628 2:-0.445298 3:-0.990521 4:-0.306507 5:-0.990308 6:-0.27212 7:-0.99032 8:-0.277918 9:-0.989834 10:-0.281223 11:-0.220152 12:1 13:0.251559 14:-0.380819 
8 1:-0.980643 2:-0.264875 3:-0.980413 4:-0.135274 5:-0.980232 6:-0.105175 7:-0.98028 8:-0.111671 9:-0.981484 10:-0.140187 11:-0.244061 12:1 13:0.476268 14:-0.123023 
8 1:-0.989826 2:-0.426104 3:-0.989813 4:-0.289384 5:-0.989991 6:-0.263773 7:-0.990029 8:-0.271201 9:-0.989227 10:-0.26763 11:-0.304112 12:0.809091 13:0.849906 14:-0.128757 
8 1:-0.976233 2:-0.211132 3:-0.972295 4:-0.0513699 5:-0.972194 6:-0.0250417 7:-0.972246 8:-0.0310663 9:-0.972688 10:-0.046729 11:-0.162594 12:1 13:1 14:0.892789 
8 1:-0.986863 2:-0.362764 3:-0.985665 4:-0.210616 5:-0.985186 6:-0.173623 7:-0.98514 8:-0.178841 9:-0.984886 10:-0.187766 11:-0.183452 12:1 13:0.65812 14:-0.123023 
8 1:-0.981564 2:-0.276392 3:-0.981661 4:-0.150685 5:-0.980117 6:-0.105175 7:-0.980854 8:-0.120067 9:-0.980509 10:-0.128292 11:-0.358412 12:1 13:1 14:0.63093 
8 1:-0.964397 2:-0.105566 3:-0.963573 4:0.0136986 5:-0.963763 6:0.0367279 7:-0.963821 8:0.0310663 9:-0.968185 10:-0.011045 11:-0.330131 12:1 13:1 14:0.892789 
8 1:-0.997066 2:-0.694818 3:-0.996209 4:-0.511986 5:-0.9961 6:-0.474124 7:-0.996131 8:-0.482788 9:-0.995895 10:-0.485132 11:-0.370958 12:1 13:1 14:-1 
8 1:-0.992602 2:-0.50096 3:-0.990642 4:-0.309932 5:-0.991283 6:-0.295492 7:-0.991684 8:-0.313182 9:-0.989647 10:-0.277825 11:-0.356503 12:1 13:1 14:0.63093 
8 1:-0.984882 2:-0.328215 3:-0.983076 4:-0.169521 5:-0.982643 6:-0.136895 7:-0.982676 8:-0.143577 9:-0.980445 10:-0.126593 11:-0.259195 12:0.840909 13:0.344262 14:-0.236586 
8 1:-0.966573 2:-0.120921 3:-0.965745 5:-0.96566 6:0.0250417 7:-0.965716 8:0.0193115 9:-0.963488 10:0.0229397 11:-0.370958 12:1 13:1 14:1 
8 1:-0.997066 2:-0.694818 3:-0.996209 4:-0.511986 5:-0.9961 6:-0.474124 7:-0.996131 8:-0.482788 9:-0.995895 10:-0.485132 11:-0.370958 12:1 13:1 14:-1 
8 1:-0.928272 2:0.0825336 3:-0.927442 4:0.183219 5:-0.927477 6:0.202003 7:-0.927564 8:0.198992 9:-0.92074 10:0.209856 11:-0.335624 12:1 13:1 14:0.892789 
8 1:-0.994756 2:-0.577735 3:-0.994462 4:-0.429795 5:-0.994709 6:-0.407346 7:-0.994581 8:-0.4089 9:-0.993292 10:-0.376381 11:-0.36284 12:1 13:1 14:0.757968 
8 1:-0.989114 2:-0.408829 3:-0.986293 4:-0.22089 5:-0.985953 6:-0.185309 7:-0.986016 8:-0.193955 9:-0.985903 10:-0.204758 11:-0.22994 12:0.736677 13:0.395604 14:-0.320853 
8 1:-0.986145 2:-0.349328 3:-0.983768 4:-0.179795 5:-0.98251 6:-0.135225 7:-0.982198 8:-0.13686 9:-0.981308 10:-0.138488 11:-0.348014 12:0.454545 13:0.384615 14:-0.104393 
8 1:-0.997089 2:-0.696737 3:-0.99634 4:-0.518836 5:-0.995628 6:-0.449082 7:-0.995528 8:-0.450882 9:-0.995252 10:-0.452846 11:-0.370958 12:1 13:1 14:-1 
8 1:-0.991508 2:-0.46833 3:-0.990613 4:-0.309932 5:-0.990286 6:-0.270451 7:-0.990249 8:-0.276238 9:-0.989629 10:-0.276126 11:-0.35098 12:0.522727 13:0.681698 14:0.0600272 
8 1:-0.991131 2:-0.458733 3:-0.990806 4:-0.313356 5:-0.990236 6:-0.270451 7:-0.990395 8:-0.279597 9:-0.98991 10:-0.282923 11:-0.352836 12:1 13:1 14:0.892789 
8 1:-0.98815 2:-0.387716 3:-0.986007 4:-0.215753 5:-0.988889 6:-0.240401 7:-0.988925 8:-0.247691 9:-0.988246 10:-0.247239 11:-0.410452 12:1 13:1 14:1 
8 1:-0.988064 2:-0.385797 3:-0.984994 4:-0.19863 5:-0.985047 6:-0.171953 7:-0.985059 8:-0.177162 9:-0.98452 10:-0.182668 11:-0.343765 12:1 13:1 14:0.892789 
8 1:-0.980174 2:-0.259117 3:-0.978917 4:-0.118151 5:-0.978493 6:-0.0868114 7:-0.978604 8:-0.093199 9:-0.978583 10:-0.106202 11:-0.29493 12:0.652893 13:0.585799 14:-0.162821 
8 1:-0.985255 2:-0.333973 3:-0.984409 4:-0.190068 5:-0.984309 6:-0.160267 7:-0.98435 8:-0.167086 9:-0.983341 10:-0.165675 11:-0.370958 12:1 13:1 14:-1 
8 1:-0.982121 2:-0.284069 3:-0.984043 4:-0.184932 5:-0.983066 6:-0.141903 7:-0.982953 8:-0.146935 9:-0.982227 10:-0.150382 11:-0.364393 12:1 13:0.65812 14:0.892789 
8 1:-0.997066 2:-0.694818 3:-0.996209 4:-0.511986 5:-0.9961 6:-0.474124 7:-0.996131 8:-0.482788 9:-0.995895 10:-0.485132 11:-0.370958 12:1 13:1 14:-1 
8 1:-0.954586 2:-0.0403071 3:-0.949535 4:0.0941781 5:-0.949886 6:0.115192 7:-0.951687 8:0.101595 9:-0.930866 10:0.17757 11:-0.203641 12:1 13:1 14:0.518209 
8 1:-0.967421 2:-0.128599 3:-0.965534 4:0.00171233 5:-0.965176 6:0.0283806 7:-0.965227 8:0.02267 9:-0.963484 10:0.0229397 11:-0.311988 12:1 13:0.642218 14:-0.0140106 
8 1:-0.967937 2:-0.132438 3:-0.963576 4:0.0136986 5:-0.963435 6:0.0400668 7:-0.963481 8:0.0344249 9:-0.962499 10:0.0297366 11:-0.265892 12:1 13:0.763314 14:0.63093 
8 1:-0.970466 2:-0.153551 3:-0.967411 4:-0.0119863 5:-0.96718 6:0.0133556 7:-0.967234 8:0.00755668 9:-0.965006 10:0.0127443 11:-0.361216 12:0.727273 13:0.881657 14:0.118826 
8 1:-0.957441 2:-0.0575816 3:-0.953408 4:0.0736301 5:-0.954598 6:0.0918197 7:-0.954657 8:0.0864819 9:-0.959697 10:0.046729 11:-0.420784 12:0.706294 13:0.871795 14:0.176384 
8 1:-0.985199 2:-0.332054 3:-0.984139 4:-0.186644 5:-0.984234 6:-0.158598 7:-0.984114 8:-0.163728 9:-0.98452 10:-0.182668 11:-0.323758 12:1 13:0.615385 14:0.0775619 
8 1:-0.993718 2:-0.537428 3:-0.99287 4:-0.371575 5:-0.992765 6:-0.337229 7:-0.9928 8:-0.345088 9:-0.992346 10:-0.345794 11:-0.370958 12:1 13:1 14:-1 
8 1:-0.988261 2:-0.391555 3:-0.987413 4:-0.239726 5:-0.987311 6:-0.208681 7:-0.987349 8:-0.215785 9:-0.986536 10:-0.214953 11:-0.370958 12:1 13:1 14:-1 
8 1:-0.992239 2:-0.489443 3:-0.989642 4:-0.285959 5:-0.989309 6:-0.248748 7:-0.98934 8:-0.256087 9:-0.991398 10:-0.320306 11:-0.4186 12:1 13:1 14:0.757968 
8 1:-0.997353 2:-0.714012 3:-0.996433 4:-0.525685 5:-0.99612 6:-0.475793 7:-0.995943 8:-0.472712 9:-0.995781 10:-0.478335 11:-0.126974 12:1 13:0.526627 14:0.63093 
8 1:-0.963778 2:-0.0998081 3:-0.96198 4:0.0239726 5:-0.961678 6:0.0500835 7:-0.961668 8:0.0461797 9:-0.959438 10:0.0484282 11:-0.213083 12:0.880682 13:0.711538 14:-0.382991 
8 1:-0.984206 2:-0.316699 3:-0.985113 4:-0.200342 5:-0.98502 6:-0.170284 7:-0.985383 8:-0.1822 9:-0.985712 10:-0.201359 11:-0.353834 12:0.890909 13:0.364548 14:-0.423142 
8 1:-0.919306 2:0.115163 3:-0.918439 4:0.210616 5:-0.918365 6:0.230384 7:-0.918463 8:0.225861 9:-0.917922 10:0.218352 11:-0.370958 12:1 13:1 14:1 
8 1:-0.989499 2:-0.418426 3:-0.987694 4:-0.246575 5:-0.987643 6:-0.215359 7:-0.987707 8:-0.222502 9:-0.987194 10:-0.226848 11:-0.302964 12:0.761364 13:0.408284 14:0.0203641 
8 1:-0.997514 2:-0.725528 3:-0.996178 4:-0.510274 5:-0.995771 6:-0.457429 7:-0.99572 8:-0.460957 9:-0.995449 10:-0.463042 11:-0.370958 12:1 13:1 14:-1 
8 1:-0.972436 2:-0.172745 3:-0.964353 4:0.00856164 5:-0.964262 6:0.033389 7:-0.964314 8:0.0277078 9:-0.962431 10:0.0297366 11:-0.238711 12:0.694545 13:0.541735 14:-0.239736 
8 1:-0.981471 2:-0.276392 3:-0.981009 4:-0.142123 5:-0.980886 6:-0.113523 7:-0.980977 8:-0.121746 9:-0.981318 10:-0.138488 11:-0.237452 12:0.775401 13:0.856887 14:-0.0220589 
8 1:-0.971171 2:-0.161228 3:-0.966972 4:-0.00856164 5:-0.966275 6:0.0200334 7:-0.966391 8:0.0142737 9:-0.967798 10:-0.00764656 11:-0.315296 12:0.853147 13:0.293821 14:-0.280132 
8 1:-0.984514 2:-0.322457 3:-0.983825 4:-0.181507 5:-0.983405 6:-0.146912 7:-0.983226 8:-0.150294 9:-0.982349 10:-0.152082 11:-0.420858 12:1 13:0.70696 14:0.757968 
8 1:-0.987411 2:-0.37428 3:-0.987112 4:-0.234589 5:-0.987869 6:-0.220367 7:-0.987905 8:-0.22754 9:-0.988116 10:-0.24554 11:-0.346126 12:1 13:1 14:0.757968 
8 1:-0.987598 2:-0.378119 3:-0.985669 4:-0.210616 5:-0.984891 6:-0.168614 7:-0.98504 8:-0.177162 9:-0.983884 10:-0.172472 11:-0.0486274 12:1 13:0.54416 14:-0.276803 
8 1:-0.982063 2:-0.284069 3:-0.981752 4:-0.152397 5:-0.981393 6:-0.1202 7:-0.981441 8:-0.126784 9:-0.980444 10:-0.126593 11:-0.114385 12:1 13:0.912088 14:0.190541 
8 1:-0.987791 2:-0.381958 3:-0.987315 4:-0.238014 5:-0.986797 6:-0.200334 7:-0.987219 8:-0.214106 9:-0.985822 10:-0.203059 11:-0.203064 12:1 13:0.753846 14:0.419592 
8 1:-0.985824 2:-0.34357 3:-0.98385 4:-0.181507 5:-0.98355 6:-0.148581 7:-0.983584 8:-0.155332 9:-0.983284 10:-0.163976 11:-0.221691 12:0.681818 13:0.64497 14:0.240766 
8 1:-0.97941 2:-0.24952 3:-0.979554 4:-0.125 5:-0.979383 6:-0.096828 7:-0.979472 8:-0.103275 9:-0.978209 10:-0.101105 11:-0.352149 12:1 13:0.74359 14:0.0295029 
8 1:-0.984356 2:-0.318618 3:-0.982973 4:-0.169521 5:-0.981702 6:-0.123539 7:-0.98178 8:-0.131822 9:-0.98263 10:-0.15548 11:-0.238178 12:0.736677 13:0.363395 14:-0.320853 
8 1:-0.974358 2:-0.191939 3:-0.975449 4:-0.0804795 5:-0.975015 6:-0.0500835 7:-0.975057 8:-0.0562552 9:-0.973517 10:-0.0552251 11:-0.2613 12:1 13:0.471154 14:-0.31562 
8 1:-0.997066 2:-0.694818 3:-0.996209 4:-0.511986 5:-0.9961 6:-0.474124 7:-0.996131 8:-0.482788 9:-0.995895 10:-0.485132 11:-0.370958 12:1 13:1 14:0.892789 
8 1:-0.963027 2:-0.0940499 3:-0.962726 4:0.0205479 5:-0.962224 6:0.0467446 7:-0.962274 8:0.0411419 9:-0.965371 10:0.00934579 11:-0.270904 12:1 13:1 14:0.419592 
8 1:-0.976557 2:-0.214971 3:-0.97539 4:-0.0804795 5:-0.97564 6:-0.0567613 7:-0.97573 8:-0.0629723 9:-0.974359 10:-0.0620221 11:-0.319197 12:0.795455 13:0.111111 14:-0.58806 
8 1:-0.984308 2:-0.318618 3:-0.983639 4:-0.178082 5:-0.981919 6:-0.126878 7:-0.982088 8:-0.135181 9:-0.981318 10:-0.138488 11:-0.144204 12:1 13:0.78022 14:0.63093 
8 1:-0.991246 2:-0.462572 3:-0.990565 4:-0.308219 5:-0.990852 6:-0.285476 7:-0.990681 8:-0.287993 9:-0.992173 10:-0.340697 11:-0.222839 12:1 13:0.78022 14:0.757968 
8 1:-0.990224 2:-0.435701 3:-0.989155 4:-0.275685 5:-0.988317 6:-0.228715 7:-0.988575 8:-0.240974 9:-0.988668 10:-0.255735 11:-0.314853 12:0.681818 13:0.75052 14:0.240766 
8 1:-0.975502 2:-0.203455 3:-0.973247 4:-0.0599315 5:-0.971882 6:-0.0233723 7:-0.971923 8:-0.0293871 9:-0.97054 10:-0.0297366 11:-0.357299 12:0.818182 13:0.431953 14:-0.158819 
8 1:-0.89229 2:0.193858 3:-0.889399 4:0.285959 5:-0.889286 6:0.30384 7:-0.889384 8:0.299748 9:-0.88212 10:0.306712 11:0.0431918 12:1 13:1 14:0.419592 
8 1:-0.969787 2:-0.147793 3:-0.970324 4:-0.0359589 5:-0.971707 6:-0.0217028 7:-0.97175 8:-0.0277078 9:-0.973436 10:-0.0535259 11:-0.253014 12:1 13:1 14:0.757968 
8 1:-0.97719 2:-0.222649 3:-0.974242 4:-0.0702055 5:-0.974058 6:-0.0417362 7:-0.974098 8:-0.0478589 9:-0.972811 10:-0.0484282 11:-0.335799 12:1 13:1 14:0.419592 
8 1:-0.87348 2:0.238004 3:-0.872666 4:0.320205 5:-0.872505 6:0.337229 7:-0.872556 8:0.335013 9:-0.876019 10:0.320306 11:-0.370958 12:1 13:1 14:1 
8 1:-0.992792 2:-0.506718 3:-0.99235 4:-0.356164 5:-0.992274 6:-0.323873 7:-0.992096 8:-0.324937 9:-0.99213 10:-0.340697 11:-0.220229 12:1 13:0.732441 14:0.518209 
8 1:-0.987726 2:-0.380038 3:-0.98695 4:-0.232877 5:-0.98659 6:-0.196995 7:-0.986629 8:-0.20403 9:-0.986356 10:-0.213254 11:-0.181684 12:0.652893 13:0.89011 14:0.313145 
8 1:-0.996063 2:-0.637236 3:-0.994536 4:-0.431507 5:-0.994062 6:-0.382304 7:-0.99409 8:-0.390428 9:-0.993719 10:-0.391674 11:-0.370958 12:1 13:1 14:0.892789 
8 1:-0.994152 2:-0.554702 3:-0.993981 4:-0.410959 5:-0.992617 6:-0.33389 7:-0.99265 8:-0.34173 9:-0.992929 10:-0.364486 11:-0.262582 12:1 13:0.72028 14:0.757968 
8 1:-0.990087 2:-0.431862 3:-0.988974 4:-0.27226 5:-0.987949 6:-0.222037 7:-0.987932 8:-0.22754 9:-0.98731 10:-0.230246 11:-0.298187 12:0.826446 13:0.575597 14:-0.186653 
8 1:-0.987363 2:-0.372361 3:-0.986203 4:-0.219178 5:-0.986128 6:-0.188648 7:-0.986165 8:-0.195634 9:-0.985275 10:-0.194562 11:-0.370958 12:1 13:1 14:-1 
8 1:-0.980498 2:-0.262956 3:-0.979393 4:-0.123288 5:-0.978923 6:-0.0901503 7:-0.978893 8:-0.0965575 9:-0.979087 10:-0.1113 11:-0.244409 12:1 13:0.801489 14:-0.18195 
8 1:-0.977571 2:-0.226488 3:-0.973333 4:-0.0616438 5:-0.97271 6:-0.0300501 7:-0.972755 8:-0.0361041 9:-0.969033 10:-0.017842 11:-0.191741 12:0.636364 13:0.293139 14:-0.4737 
8 1:-0.982671 2:-0.293666 3:-0.982374 4:-0.160959 5:-0.982408 6:-0.133556 7:-0.982235 8:-0.13686 9:-0.982077 10:-0.148683 11:-0.216407 12:0.568379 13:-0.0294968 14:-0.752941 
8 1:-0.98708 2:-0.366603 3:-0.986702 4:-0.22774 5:-0.986899 6:-0.202003 7:-0.986936 8:-0.209068 9:-0.986417 10:-0.213254 11:-0.414719 12:1 13:0.72028 14:0.892789 
8 1:-0.997013 2:-0.690979 3:-0.996196 4:-0.511986 5:-0.99581 6:-0.459098 7:-0.996395 8:-0.497901 9:-0.996175 10:-0.500425 11:-0.370958 12:1 13:1 14:-1 
8 1:-0.98987 2:-0.426104 3:-0.989231 4:-0.277397 5:-0.989443 6:-0.252087 7:-0.989477 8:-0.259446 9:-0.988804 10:-0.259133 11:-0.370958 12:1 13:1 14:-1 
8 1:-0.984372 2:-0.318618 3:-0.983484 4:-0.17637 5:-0.983129 6:-0.143573 7:-0.983163 8:-0.150294 9:-0.982049 10:-0.146984 11:-0.40143 12:1 13:0.648352 14:0.0775619 
8 1:-0.982634 2:-0.291747 3:-0.981111 4:-0.143836 5:-0.980413 6:-0.108514 7:-0.980534 8:-0.115029 9:-0.980475 10:-0.128292 11:-0.335652 12:0.727273 13:0.375697 14:-0.302433 
8 1:-0.997344 2:-0.714012 3:-0.996476 4:-0.527397 5:-0.996224 6:-0.480801 7:-0.996254 8:-0.489505 9:-0.996026 10:-0.491929 11:-0.478559 12:1 13:1 14:0.892789 
8 1:-0.98202 2:-0.284069 3:-0.980439 4:-0.135274 5:-0.980424 6:-0.108514 7:-0.980469 8:-0.115029 9:-0.979206 10:-0.112999 11:-0.294033 12:1 13:1 14:0.892789 
8 1:-0.990018 2:-0.429942 3:-0.990966 4:-0.318493 5:-0.99041 6:-0.27379 7:-0.990107 8:-0.27288 9:-0.989414 10:-0.272727 11:-0.393159 12:1 13:1 14:0.757968 
8 1:-0.966432 2:-0.120921 3:-0.969049 4:-0.0256849 5:-0.968249 6:0.0066778 7:-0.968301 8:0.000839631 9:-0.97025 10:-0.0263381 11:-0.391838 12:1 13:0.82906 14:0.333333 
8 1:-0.929984 2:0.0767754 3:-0.92664 4:0.184932 5:-0.926512 6:0.205342 7:-0.926588 8:0.200672 9:-0.932647 10:0.170773 11:-0.406327 12:1 13:0.91453 14:0.0775619 
8 1:-0.964983 2:-0.109405 3:-0.964388 4:0.00856164 5:-0.963065 6:0.0417362 7:-0.962973 8:0.0377834 9:-0.956743 10:0.0637213 11:-0.385118 12:0.799043 13:0.605523 14:-0.0961789 
8 1:-0.983946 2:-0.31286 3:-0.980036 4:-0.130137 5:-0.979909 6:-0.101836 7:-0.979942 8:-0.108312 9:-0.980195 10:-0.124894 11:-0.264707 12:1 13:0.74359 14:0.257542 
8 1:-0.970308 2:-0.153551 3:-0.965716 5:-0.965426 6:0.0267112 7:-0.965472 8:0.0209908 9:-0.963837 10:0.0195412 11:-0.399823 12:1 13:0.85348 14:0.757968 
8 1:-0.979464 2:-0.24952 3:-0.978624 4:-0.114726 5:-0.978529 6:-0.0868114 7:-0.978574 8:-0.093199 9:-0.977187 10:-0.0909091 11:-0.370958 12:1 13:1 14:1 
8 1:-0.982089 2:-0.284069 3:-0.980327 4:-0.133562 5:-0.978873 6:-0.0901503 7:-0.978474 8:-0.0915197 9:-0.977841 10:-0.097706 11:-0.391227 12:1 13:0.476268 14:-0.0140106 
8 1:-0.770324 2:0.401152 3:-0.7562 4:0.481164 5:-0.755443 6:0.494157 7:-0.755619 8:0.491184 9:-0.761251 10:0.480034 11:-0.611678 12:1 13:0.74359 14:0.518209 
8 1:-0.99232 2:-0.493282 3:-0.990745 4:-0.311644 5:-0.991234 6:-0.293823 7:-0.991324 8:-0.303107 9:-0.991083 10:-0.31181 11:-0.10102 12:1 13:0.75052 14:0.0295029 
8 1:-0.952501 2:-0.0287908 3:-0.957124 4:0.0547945 5:-0.955717 6:0.0851419 7:-0.95578 8:0.0797649 9:-0.957242 10:0.0603229 11:-0.320354 12:1 13:0.838057 14:0.419592 
8 1:-0.995845 2:-0.627639 3:-0.994357 4:-0.424658 5:-0.993305 6:-0.355593 7:-0.99368 8:-0.375315 9:-0.993203 10:-0.372982 11:-0.166026 12:0.761364 13:0.452991 14:0.0203641 
8 1:-0.996022 2:-0.635317 3:-0.992756 4:-0.368151 5:-0.992228 6:-0.322204 7:-0.992261 8:-0.329975 9:-0.991771 10:-0.330501 11:-0.156625 12:0.236364 13:0.440559 14:0.892789 
8 1:-0.989346 2:-0.414587 3:-0.985377 4:-0.205479 5:-0.98546 6:-0.178631 7:-0.985487 8:-0.183879 9:-0.984713 10:-0.186066 11:-0.0729082 12:1 13:1 14:0.518209 
8 1:-0.967841 2:-0.132438 3:-0.967983 4:-0.0171233 5:-0.968903 6:0.00166945 7:-0.968954 8:-0.00419815 9:-0.966403 10:0.00254885 11:-0.352923 12:1 13:0.5338 14:0.190541 
8 1:-0.963904 2:-0.101727 3:-0.961744 4:0.0256849 5:-0.961749 6:0.0500835 7:-0.961804 8:0.0445004 9:-0.955617 10:0.0705183 11:-0.389497 12:1 13:0.630769 14:0.13093 
3.066585333001262 1:-0.984462 2:-0.320537 3:-0.979491 4:-0.125 5:-0.979298 6:-0.0951586 7:-0.979245 8:-0.099916 9:-0.981981 10:-0.146984 11:0.0284603 12:-0.527273 13:-0.538462 14:0.892789 
8 1:-0.992064 2:-0.485605 3:-0.990004 4:-0.294521 5:-0.990091 6:-0.267112 7:-0.990126 8:-0.274559 9:-0.990774 10:-0.303314 11:-0.360468 12:1 13:0.56044 14:0.892789 
8 1:-0.992505 2:-0.49904 3:-0.991713 4:-0.337329 5:-0.991583 6:-0.30384 7:-0.991265 8:-0.301427 9:-0.990582 10:-0.298216 11:-0.304778 12:0.761364 13:0.361393 14:0.0203641 
8 1:-0.989083 2:-0.408829 3:-0.990406 4:-0.304795 5:-0.9903 6:-0.27212 7:-0.990337 8:-0.279597 9:-0.989875 10:-0.282923 11:-0.315845 12:1 13:1 14:1 
8 1:-0.982837 2:-0.295585 3:-0.983053 4:-0.169521 5:-0.982713 6:-0.136895 7:-0.982771 8:-0.143577 9:-0.982317 10:-0.150382 11:-0.252463 12:1 13:0.417879 14:-0.296813 
8 1:-0.980677 2:-0.264875 3:-0.978811 4:-0.116438 5:-0.978629 6:-0.0868114 7:-0.978669 8:-0.093199 9:-0.978069 10:-0.0994053 11:-0.14304 12:1 13:0.602978 14:0.0775619 
8 1:-0.986603 2:-0.358925 3:-0.985674 4:-0.210616 5:-0.985593 6:-0.180301 7:-0.985631 8:-0.187238 9:-0.98099 10:-0.13339 11:-0.207989 12:1 13:1 14:0.63093 
8 1:-0.983216 2:-0.301344 3:-0.982412 4:-0.160959 5:-0.981707 6:-0.123539 7:-0.981747 8:-0.130143 9:-0.981401 10:-0.138488 11:-0.327463 12:1 13:0.217731 14:-0.0897993 
8 1:-0.993718 2:-0.537428 3:-0.99287 4:-0.371575 5:-0.992765 6:-0.337229 7:-0.9928 8:-0.345088 9:-0.992346 10:-0.345794 11:-0.370958 12:1 13:1 14:-1 
8 1:-0.971634 2:-0.165067 3:-0.973608 4:-0.0633562 5:-0.973897 6:-0.0400668 7:-0.973508 8:-0.0428212 9:-0.972758 10:-0.0484282 11:-0.394458 12:1 13:1 14:0.757968 
8 1:-0.998097 2:-0.769674 3:-0.99713 4:-0.570205 5:-0.996931 6:-0.524207 7:-0.996906 8:-0.529807 9:-0.99606 10:-0.493628 11:-0.258164 12:1 13:0.56044 14:0.63093 
8 1:-0.95691 2:-0.0537428 3:-0.955992 4:0.0599315 5:-0.955941 6:0.0834725 7:-0.955997 8:0.0780856 9:-0.955848 10:0.068819 11:-0.394253 12:1 13:1 14:0.190541 
8 1:-0.985833 2:-0.34357 3:-0.983198 4:-0.172945 5:-0.983047 6:-0.141903 7:-0.98308 8:-0.148615 9:-0.980033 10:-0.121495 11:-0.270436 12:0.745455 13:0.893899 14:0.0670957 
8 1:-0.974979 2:-0.197697 3:-0.971654 4:-0.0462329 5:-0.970989 6:-0.015025 7:-0.970963 8:-0.0209908 9:-0.971108 10:-0.0331351 11:-0.378377 12:0.706294 13:0.215686 14:-0.449465 
8 1:-0.993718 2:-0.537428 3:-0.99287 4:-0.371575 5:-0.992765 6:-0.337229 7:-0.9928 8:-0.345088 9:-0.992346 10:-0.345794 11:-0.370958 12:1 13:1 14:-1 
