svm_type c_svc
kernel_type rbf
gamma 0.5
nr_class 2
total_sv 3782
rho -1.08935
label 1 0
probA -1.85181
probB -0.33926
nr_sv 1888 1894
SV
8 1:-0.983329 2:-0.303263 3:-0.982877 4:-0.167808 5:-0.982658 6:-0.136895 7:-0.982692 8:-0.143577 9:-0.983748 10:-0.170773 11:-0.0812651 12:1 13:1 
8 1:-0.914953 2:0.130518 3:-0.909313 4:0.238014 5:-0.909324 6:0.257095 7:-0.909413 8:0.252729 9:-0.910829 10:0.238743 11:-0.701111 12:0.62416 13:0.615385 
8 1:-0.98167 2:-0.278311 3:-0.98397 4:-0.183219 5:-0.982409 6:-0.133556 7:-0.982319 8:-0.138539 9:-0.981622 10:-0.141886 11:-0.356613 12:0.691811 13:0.684418 
8 1:-0.997066 2:-0.694818 3:-0.996209 4:-0.511986 5:-0.9961 6:-0.474124 7:-0.996131 8:-0.482788 9:-0.995895 10:-0.485132 11:-0.370958 12:1 13:1 
8 1:-0.984936 2:-0.328215 3:-0.983538 4:-0.17637 5:-0.984423 6:-0.161937 7:-0.98441 8:-0.167086 9:-0.983979 10:-0.174172 11:-0.408749 12:0.787456 13:0.78022 
8 1:-0.982805 2:-0.295585 3:-0.982964 4:-0.169521 5:-0.982784 6:-0.138564 7:-0.98296 8:-0.146935 9:-0.982674 10:-0.15548 11:-0.303636 12:0.657568 13:0.648352 
8 1:-0.960581 2:-0.0786948 3:-0.959016 4:0.0428082 5:-0.95851 6:0.0701169 7:-0.95856 8:0.0646516 9:-0.956802 10:0.0637213 11:-0.315027 12:1 13:1 
8 1:-0.965689 2:-0.115163 3:-0.962637 4:0.0205479 5:-0.961343 6:0.0534224 7:-0.96139 8:0.0478589 9:-0.959586 10:0.046729 11:-0.165131 12:0.794541 13:0.787798 
8 1:-0.969903 2:-0.149712 3:-0.958689 4:0.0445205 5:-0.958541 6:0.0701169 7:-0.958571 8:0.0646516 9:-0.961047 10:0.0382328 11:-0.210107 12:0.486352 13:0.440559 
8 1:-0.991637 2:-0.472169 3:-0.990944 4:-0.316781 5:-0.990069 6:-0.265442 7:-0.990196 8:-0.276238 9:-0.989575 10:-0.276126 11:-0.273857 12:0.449663 13:0.430199 
8 1:-0.979548 2:-0.24952 3:-0.978098 4:-0.107877 5:-0.978174 6:-0.081803 7:-0.978211 8:-0.0881612 9:-0.987336 10:-0.230246 11:-0.865469 12:1 13:1 
8 1:-0.968987 2:-0.142035 3:-0.968526 4:-0.0205479 5:-0.969245 6:-0.00166945 7:-0.969492 8:-0.00923594 9:-0.963128 10:0.0246389 11:-0.385328 12:0.476661 13:0.467456 
8 1:-0.971246 2:-0.161228 3:-0.968236 4:-0.0188356 5:-0.967238 6:0.0133556 7:-0.967285 8:0.00755668 9:-0.964104 10:0.017842 11:-0.193927 12:0.513386 13:0.505495 
8 1:-0.97452 2:-0.193858 3:-0.971369 4:-0.0445205 5:-0.970365 6:-0.0100167 7:-0.970207 8:-0.0142737 9:-0.965586 10:0.00764656 11:-0.091579 12:0.818713 13:0.81352 
8 1:-0.972193 2:-0.170825 3:-0.96928 4:-0.0273973 5:-0.966548 6:0.0183639 7:-0.966698 8:0.0125945 9:-0.965654 10:0.00764656 11:-0.180551 12:0.480164 13:0.474672 
8 1:-0.965446 2:-0.113244 3:-0.964285 4:0.010274 5:-0.963793 6:0.0367279 7:-0.964458 8:0.0277078 9:-0.963113 10:0.0246389 11:-0.181015 12:0.669798 13:0.65812 
8 1:-0.977318 2:-0.224568 3:-0.973237 4:-0.0599315 5:-0.972437 6:-0.0267112 7:-0.972468 8:-0.0327456 9:-0.973642 10:-0.0552251 11:-0.186752 12:0.543424 13:0.535559 
8 1:-0.976735 2:-0.216891 3:-0.975431 4:-0.0804795 5:-0.97429 6:-0.0434057 7:-0.973697 8:-0.0445004 9:-0.972329 10:-0.0450297 11:-0.294353 12:0.837795 13:0.83368 
8 1:-0.983209 2:-0.301344 3:-0.980363 4:-0.135274 5:-0.980239 6:-0.106845 7:-0.980277 8:-0.111671 9:-0.980119 10:-0.123195 11:-0.20801 12:0.73201 13:0.72028 
8 1:-0.984333 2:-0.318618 3:-0.982878 4:-0.167808 5:-0.98207 6:-0.128548 7:-0.982109 8:-0.135181 9:-0.982074 10:-0.148683 11:-0.198299 12:0.711073 13:0.70696 
8 1:-0.991404 2:-0.466411 3:-0.989973 4:-0.294521 5:-0.990958 6:-0.287145 7:-0.990821 8:-0.291352 9:-0.988835 10:-0.259133 11:-0.243231 12:0.657568 13:0.638009 
8 1:-0.972946 2:-0.176583 3:-0.970172 4:-0.0342466 5:-0.969016 7:-0.969046 8:-0.00587741 9:-0.966854 10:-0.000849618 11:-0.389945 12:0.207515 13:0.18552 
8 1:-0.968405 2:-0.136276 3:-0.965607 5:-0.965507 6:0.0250417 7:-0.965553 8:0.0193115 9:-0.963988 10:0.0195412 11:-0.205093 12:0.73201 13:0.72028 
8 1:-0.996586 2:-0.666027 3:-0.996148 4:-0.508562 5:-0.995664 6:-0.450751 7:-0.995689 8:-0.459278 9:-0.995423 10:-0.461342 11:-0.156643 12:1 13:1 
8 1:-0.93537 2:0.0556622 3:-0.932961 4:0.162671 5:-0.93287 6:0.183639 7:-0.932949 8:0.178841 9:-0.935896 10:0.158879 11:-0.35046 12:1 13:1 
8 1:-0.977633 2:-0.226488 3:-0.978659 4:-0.114726 5:-0.978131 6:-0.081803 7:-0.978175 8:-0.0881612 9:-0.979125 10:-0.1113 11:-0.272723 12:0.691811 13:0.681698 
8 1:-0.97043 2:-0.153551 3:-0.967381 4:-0.0119863 5:-0.967755 6:0.0100167 7:-0.967825 8:0.00419815 9:-0.965799 10:0.00594732 11:-0.28995 12:0.219776 13:0.211045 
8 1:-0.97747 2:-0.224568 3:-0.976085 4:-0.0873288 5:-0.974697 6:-0.048414 7:-0.974994 8:-0.0562552 9:-0.973389 10:-0.0535259 11:-0.232401 12:0.351182 13:0.345336 
8 1:-0.984073 2:-0.314779 3:-0.978018 4:-0.107877 5:-0.976755 6:-0.0684474 7:-0.976789 8:-0.0747271 9:-0.97606 10:-0.0790144 11:-0.149704 12:1 13:1 
8 1:-0.986671 2:-0.358925 3:-0.986266 4:-0.219178 5:-0.986214 6:-0.190317 7:-0.986277 8:-0.197313 9:-0.983194 10:-0.163976 11:-0.540281 12:0.288796 13:0.261538 
8 1:-0.989465 2:-0.416507 3:-0.989476 4:-0.282534 5:-0.989159 6:-0.245409 7:-0.989103 8:-0.25105 9:-0.988159 10:-0.24554 11:-0.347017 12:0.853244 13:0.846154 
8 1:-0.978928 2:-0.241843 3:-0.978196 4:-0.109589 5:-0.97852 6:-0.0868114 7:-0.978564 8:-0.093199 9:-0.977266 10:-0.0909091 11:-0.251732 12:1 13:1 
8 1:-0.97786 2:-0.230326 3:-0.974114 4:-0.0684932 5:-0.973932 6:-0.0400668 7:-0.974953 8:-0.0562552 9:-0.975973 10:-0.0773152 11:-0.262142 12:0.139939 13:0.131222 
8 1:-0.979521 2:-0.24952 3:-0.97874 4:-0.116438 5:-0.978807 6:-0.0901503 7:-0.978878 8:-0.0965575 9:-0.979103 10:-0.1113 11:-0.279113 12:0.845906 13:0.838057 
8 1:-0.984501 2:-0.320537 3:-0.983007 4:-0.169521 5:-0.982498 6:-0.135225 7:-0.982462 8:-0.140218 9:-0.983382 10:-0.165675 11:-0.309632 12:0.400744 13:0.393283 
8 1:-0.968229 2:-0.134357 3:-0.969294 4:-0.0273973 5:-0.968473 6:0.00500835 7:-0.968432 8:-0.000839631 9:-0.967785 10:-0.00764656 11:-0.254831 12:0.807382 13:0.801489 
8 1:-0.990948 2:-0.452975 3:-0.991114 4:-0.321918 5:-0.990857 6:-0.285476 7:-0.990269 8:-0.277918 9:-0.989153 10:-0.26593 11:-0.240931 12:0.719829 13:0.70696 
8 1:-0.978474 2:-0.238004 3:-0.976952 4:-0.0958904 5:-0.976955 6:-0.0701169 7:-0.977021 8:-0.0764064 9:-0.976724 10:-0.0858114 11:-0.29908 12:0.256097 13:0.248658 
8 1:-0.968711 2:-0.140115 3:-0.967735 4:-0.015411 5:-0.967642 6:0.0100167 7:-0.967693 8:0.00419815 9:-0.965728 10:0.00764656 11:-0.547927 12:1 13:1 
8 1:-0.939523 2:0.0364683 3:-0.935534 4:0.15411 5:-0.935416 6:0.175292 7:-0.935491 8:0.170445 9:-0.929308 10:0.182668 11:-0.155666 12:1 13:1 
8 1:-0.952465 2:-0.0268714 3:-0.951317 4:0.0856164 5:-0.950847 6:0.110184 7:-0.950905 8:0.104954 9:-0.949476 10:0.101105 11:-0.382633 12:0.691811 13:0.681698 
8 1:-0.974536 2:-0.193858 3:-0.974699 4:-0.0736301 5:-0.974169 6:-0.0434057 7:-0.974298 8:-0.0495382 9:-0.976163 10:-0.0807137 11:-0.212125 12:0.644398 13:0.630769 
8 1:-0.963554 2:-0.0978887 3:-0.961982 4:0.0239726 5:-0.962198 6:0.0467446 7:-0.962252 8:0.0411419 9:-0.9613 10:0.0365336 11:-0.240182 12:0.735838 13:0.728507 
8 1:-0.970642 2:-0.15547 3:-0.96969 4:-0.0308219 5:-0.968069 6:0.0066778 7:-0.968108 8:0.000839631 9:-0.96648 10:0.00254885 11:-0.371057 12:-0.123782 13:-0.128205 
8 1:-0.976824 2:-0.21881 3:-0.976154 4:-0.0873288 5:-0.97615 6:-0.0617696 7:-0.975908 8:-0.0646516 9:-0.975567 10:-0.0739167 11:-0.351754 12:0.167058 13:0.160839 
3.327637036815994 1:-0.998424 2:-0.796545 3:-0.997826 4:-0.625 5:-0.997825 6:-0.594324 7:-0.998388 8:-0.657431 9:-0.99833 10:-0.665251 11:0.139742 12:1 13:1 
8 1:-0.981089 2:-0.270633 3:-0.978831 4:-0.116438 5:-0.978815 6:-0.0901503 7:-0.978845 8:-0.0965575 9:-0.9769 10:-0.0875106 11:-0.134298 12:0.486352 13:0.477504 
8 1:-0.986046 2:-0.347409 3:-0.98368 4:-0.179795 5:-0.983373 6:-0.146912 7:-0.983358 8:-0.151973 9:-0.983228 10:-0.163976 11:-0.250917 12:0.518455 13:0.503722 
8 1:-0.989919 2:-0.428023 3:-0.988839 4:-0.268836 5:-0.988495 6:-0.232053 7:-0.988597 8:-0.240974 9:-0.988484 10:-0.252336 11:-0.294708 12:0.735838 13:0.728507 
8 1:-0.973609 2:-0.184261 3:-0.972264 4:-0.0513699 5:-0.971854 6:-0.0233723 7:-0.971835 8:-0.0277078 9:-0.970462 10:-0.0280374 11:-0.36326 12:0.328307 13:0.320679 
8 1:-0.941988 2:0.0268714 3:-0.940407 4:0.133562 5:-0.940019 6:0.156928 7:-0.940072 8:0.151973 9:-0.937209 10:0.153781 11:-0.440665 12:0.779865 13:0.763314 
8 1:-0.985762 2:-0.34357 3:-0.985817 4:-0.212329 5:-0.985476 6:-0.178631 7:-0.985512 8:-0.185558 9:-0.985523 10:-0.197961 11:-0.233306 12:0.73201 13:0.726496 
8 1:-0.985914 2:-0.345489 3:-0.985224 4:-0.202055 5:-0.983797 6:-0.15192 7:-0.98347 8:-0.153652 9:-0.98285 10:-0.158879 11:-0.314628 12:0.422146 13:0.404467 
8 1:-0.974513 2:-0.193858 3:-0.97238 4:-0.0530822 5:-0.972242 6:-0.0250417 7:-0.972283 8:-0.0310663 9:-0.971237 10:-0.0348343 11:-0.348527 12:0.439657 13:0.433198 
8 1:-0.980637 2:-0.264875 3:-0.978795 4:-0.116438 5:-0.978554 6:-0.0868114 7:-0.978586 8:-0.093199 9:-0.976333 10:-0.0824129 11:-0.23854 12:0.525864 13:0.517345 
8 1:-0.994757 2:-0.577735 3:-0.993903 4:-0.407534 5:-0.993799 6:-0.372287 7:-0.993834 8:-0.380353 9:-0.993448 10:-0.381478 11:-0.370958 12:1 13:1 
8 1:-0.994555 2:-0.570058 3:-0.993309 4:-0.386986 5:-0.99176 6:-0.308848 7:-0.99184 8:-0.31822 9:-0.991555 10:-0.323704 11:-0.192209 12:0.885856 13:0.881657 
8 1:-0.963507 2:-0.0978887 3:-0.957792 4:0.0496575 5:-0.957126 6:0.0767947 7:-0.957179 8:0.0713686 9:-0.956219 10:0.0671198 11:-0.319366 12:0.604886 13:0.595142 
8 1:-0.974294 2:-0.190019 3:-0.97309 4:-0.0582192 5:-0.972095 6:-0.0250417 7:-0.972133 8:-0.0310663 9:-0.969356 10:-0.0195412 11:-0.347716 12:1 13:1 
8 1:-0.961536 2:-0.084453 3:-0.960401 4:0.0342466 5:-0.96031 6:0.0584307 7:-0.960361 8:0.0528967 9:-0.958563 10:0.0535259 11:-0.408723 12:1 13:1 
8 1:-0.974916 2:-0.197697 3:-0.973957 4:-0.0667808 5:-0.974081 6:-0.0417362 7:-0.974034 8:-0.0478589 9:-0.972919 10:-0.0501274 11:-0.286503 12:0.356024 13:0.347319 
8 1:-0.992962 2:-0.512476 3:-0.99078 4:-0.313356 5:-0.990621 6:-0.278798 7:-0.990646 8:-0.286314 9:-0.992668 10:-0.35599 11:-0.237636 12:1 13:1 
8 1:-0.969201 2:-0.143954 3:-0.967579 4:-0.0136986 5:-0.968416 6:0.00500835 7:-0.968178 8:0.000839631 9:-0.969091 10:-0.017842 11:-0.330513 12:0.841955 13:0.838057 
8 1:-0.980506 2:-0.262956 3:-0.979266 4:-0.121575 5:-0.978276 6:-0.0834725 7:-0.978305 8:-0.0898405 9:-0.976969 10:-0.0875106 11:-0.274401 12:0.256097 13:0.248658 
8 1:-0.980324 2:-0.261036 3:-0.979092 4:-0.119863 5:-0.978399 6:-0.0851419 7:-0.978435 8:-0.0915197 9:-0.978681 10:-0.106202 11:-0.144611 12:0.637425 13:0.62704 
8 1:-0.9834 2:-0.303263 3:-0.982966 4:-0.169521 5:-0.982858 6:-0.138564 7:-0.982879 8:-0.145256 9:-0.981505 10:-0.140187 11:-0.353963 12:0.818713 13:0.81352 
8 1:-0.976102 2:-0.209213 3:-0.973614 4:-0.0633562 5:-0.973157 6:-0.033389 7:-0.973194 8:-0.0394626 9:-0.973194 10:-0.0518267 11:-0.306171 12:-0.0915012 13:-0.0973642 
8 1:-0.965797 2:-0.115163 3:-0.964855 4:0.00513699 5:-0.964756 6:0.0300501 7:-0.96482 8:0.0243493 9:-0.962018 10:0.0314359 11:-0.370958 12:1 13:1 
8 1:-0.89544 2:0.18618 3:-0.894567 4:0.273973 5:-0.894504 6:0.292154 7:-0.894601 8:0.287993 9:-0.877608 10:0.316907 11:-0.420689 12:1 13:1 
8 1:-0.967595 2:-0.130518 3:-0.967177 4:-0.010274 5:-0.965995 6:0.0217028 7:-0.965669 8:0.0193115 9:-0.96359 10:0.0212404 11:-0.249756 12:0.657568 13:0.64497 
8 1:-0.971167 2:-0.161228 3:-0.966932 4:-0.00856164 5:-0.966256 6:0.0200334 7:-0.966304 8:0.0142737 9:-0.970143 10:-0.0263381 11:-0.375613 12:0.856656 13:0.85348 
8 1:-0.97882 2:-0.241843 3:-0.974552 4:-0.0719178 5:-0.974721 6:-0.048414 7:-0.974816 8:-0.054576 9:-0.976161 10:-0.0807137 11:-0.339803 12:-0.0472428 13:-0.0558069 
8 1:-0.957307 2:-0.0556622 3:-0.956533 4:0.0565068 5:-0.956401 6:0.081803 7:-0.956449 8:0.0764064 9:-0.953258 10:0.0824129 11:-0.370958 12:0.614764 13:0.56044 
8 1:-0.986078 2:-0.349328 3:-0.984777 4:-0.195205 5:-0.983395 6:-0.146912 7:-0.983433 8:-0.153652 9:-0.981958 10:-0.146984 11:-0.140342 12:0.239041 13:0.230769 
8 1:-0.982649 2:-0.291747 3:-0.980944 4:-0.142123 5:-0.98057 6:-0.110184 7:-0.980607 8:-0.116709 9:-0.978686 10:-0.106202 11:-0.240252 12:0.461893 13:0.454094 
8 1:-0.991603 2:-0.472169 3:-0.990646 4:-0.309932 5:-0.990531 6:-0.277129 7:-0.990908 8:-0.293031 9:-0.98957 10:-0.276126 11:-0.143813 12:0.641641 13:0.6337 
8 1:-0.985175 2:-0.332054 3:-0.984395 4:-0.190068 5:-0.984112 6:-0.156928 7:-0.984179 8:-0.163728 9:-0.982935 10:-0.158879 11:-0.317346 12:0.0421166 13:0.0305585 
8 1:-0.97228 2:-0.170825 3:-0.969643 4:-0.0291096 5:-0.968989 7:-0.968866 8:-0.00419815 9:-0.966532 10:0.000849618 11:-0.281713 12:0.199195 13:0.194139 
8 1:-0.958067 2:-0.0614203 3:-0.952855 4:0.0770548 5:-0.952947 6:0.100167 7:-0.953019 8:0.0948783 9:-0.951495 10:0.0909091 11:-0.40151 12:0.502922 13:0.495586 
8 1:-0.997066 2:-0.694818 3:-0.996209 4:-0.511986 5:-0.9961 6:-0.474124 7:-0.996131 8:-0.482788 9:-0.995895 10:-0.485132 11:-0.370958 12:1 13:1 
4.888666545694009 1:-0.979423 2:-0.24952 3:-0.978687 4:-0.114726 5:-0.97798 6:-0.0801336 7:-0.977898 8:-0.0848027 9:-0.977272 10:-0.0909091 11:-0.262844 12:0.107875 13:0.10143 
8 1:-0.974816 2:-0.195777 3:-0.976743 4:-0.0941781 5:-0.976585 6:-0.066778 7:-0.976629 8:-0.0730479 9:-0.975702 10:-0.075616 11:-0.291916 12:0.837795 13:0.82906 
8 1:-0.97615 2:-0.211132 3:-0.973654 4:-0.0633562 5:-0.973221 6:-0.0350584 7:-0.973321 8:-0.0411419 9:-0.971745 10:-0.039932 11:-0.206131 12:0.637425 13:0.630769 
8 1:-0.962828 2:-0.0940499 3:-0.962425 4:0.0222603 5:-0.962322 6:0.0467446 7:-0.962372 8:0.0411419 9:-0.952966 10:0.0841121 11:-0.267003 12:1 13:1 
8 1:-0.975175 2:-0.199616 3:-0.972542 4:-0.0547945 5:-0.971069 6:-0.0166945 7:-0.971118 8:-0.02267 9:-0.968409 10:-0.0127443 11:-0.212848 12:0.473824 13:0.461538 
8 1:-0.982177 2:-0.285988 3:-0.980685 4:-0.138699 5:-0.980456 6:-0.108514 7:-0.980486 8:-0.115029 9:-0.982829 10:-0.158879 11:-0.346829 12:1 13:1 
8 1:-0.967258 2:-0.126679 3:-0.965478 4:0.00171233 5:-0.964751 6:0.0300501 7:-0.964903 8:0.0243493 9:-0.962404 10:0.0297366 11:-0.399594 12:0.410816 13:0.402985 
8 1:-0.97593 2:-0.207294 3:-0.975447 4:-0.0804795 5:-0.975226 6:-0.0534224 7:-0.975369 8:-0.0596138 9:-0.973723 10:-0.0569244 11:-0.300167 12:0.506898 13:0.497645 
7.961840165970466 1:-0.966199 2:-0.119002 3:-0.965245 4:0.00342466 5:-0.963956 6:0.0367279 7:-0.963515 8:0.0344249 9:-0.961069 10:0.0382328 11:-0.229199 12:0.486352 13:0.479957 
8 1:-0.98696 2:-0.364683 3:-0.983417 4:-0.174658 5:-0.984691 6:-0.165275 7:-0.984732 8:-0.172124 9:-0.984195 10:-0.17757 11:-0.272901 12:1 13:1 
8 1:-0.988097 2:-0.387716 3:-0.983974 4:-0.183219 5:-0.983783 6:-0.15192 7:-0.983825 8:-0.15869 9:-0.982778 10:-0.157179 11:-0.370958 12:1 13:1 
8 1:-0.979926 2:-0.255278 3:-0.978629 4:-0.114726 5:-0.97834 6:-0.0851419 7:-0.978398 8:-0.0915197 9:-0.97903 10:-0.1113 11:-0.265252 12:0.19603 13:0.190283 
8 1:-0.993973 2:-0.547025 3:-0.992174 4:-0.351027 5:-0.992688 6:-0.335559 7:-0.992705 8:-0.343409 9:-0.992529 10:-0.352591 11:-0.336912 12:0.807382 13:0.794872 
8 1:-0.989916 2:-0.428023 3:-0.989017 4:-0.27226 5:-0.988654 6:-0.235392 7:-0.988747 8:-0.244332 9:-0.988712 10:-0.257434 11:-0.353953 12:0.393727 13:0.384615 
8 1:-0.98596 2:-0.345489 3:-0.984938 4:-0.19863 5:-0.985345 6:-0.175292 7:-0.985251 8:-0.180521 9:-0.984359 10:-0.180969 11:-0.379034 12:0.426626 13:0.413919 
8 1:-0.99529 2:-0.600768 3:-0.992163 4:-0.351027 5:-0.992006 6:-0.315526 7:-0.994051 8:-0.388749 9:-0.993676 10:-0.389975 11:-0.370958 12:1 13:1 
8 1:-0.977302 2:-0.222649 3:-0.976935 4:-0.0958904 5:-0.976554 6:-0.0651085 7:-0.976596 8:-0.0713686 9:-0.972171 10:-0.0433305 11:-0.361379 12:0.559731 13:0.549719 
8 1:-0.942146 2:0.024952 3:-0.941918 4:0.128425 5:-0.941518 6:0.15192 7:-0.941587 8:0.146935 9:-0.936877 10:0.15548 11:-0.29687 12:0.669798 13:0.65812 
8 1:-0.986973 2:-0.364683 3:-0.974499 4:-0.0719178 5:-0.98156 6:-0.12187 7:-0.981587 8:-0.128463 9:-0.980365 10:-0.126593 11:-0.307817 12:1 13:1 
8 1:-0.975479 2:-0.203455 3:-0.973576 4:-0.0633562 5:-0.972485 6:-0.0283806 7:-0.972613 8:-0.0344249 9:-0.971152 10:-0.0348343 11:-0.286722 12:-0.0926686 13:-0.0958904 
8 1:-0.984844 2:-0.326296 3:-0.984147 4:-0.186644 5:-0.983383 6:-0.146912 7:-0.98353 8:-0.155332 9:-0.982763 10:-0.157179 11:-0.168605 12:0.559731 13:0.547511 
8 1:-0.988804 2:-0.403071 3:-0.990068 4:-0.296233 5:-0.989771 6:-0.258765 7:-0.989816 8:-0.266163 9:-0.99057 10:-0.298216 11:-0.221943 12:0.909356 13:0.90676 
8 1:-0.990743 2:-0.449136 3:-0.988872 4:-0.268836 5:-0.989164 6:-0.245409 7:-0.989206 8:-0.252729 9:-0.988882 10:-0.260833 11:-0.197957 12:1 13:1 
8 1:-0.986679 2:-0.358925 3:-0.985021 4:-0.19863 5:-0.982978 6:-0.140234 7:-0.983017 8:-0.146935 9:-0.986136 10:-0.208156 11:-0.370958 12:1 13:1 
8 1:-0.957088 2:-0.0556622 3:-0.954619 4:0.0684932 5:-0.95334 6:0.096828 7:-0.953176 8:0.093199 9:-0.952107 10:0.0875106 11:-0.259553 12:0.592958 13:0.585799 
8 1:-0.975535 2:-0.203455 3:-0.973323 4:-0.0616438 5:-0.972325 6:-0.0267112 7:-0.972101 8:-0.0293871 9:-0.970526 10:-0.0297366 11:-0.341555 12:0.425411 13:0.416446 
8 1:-0.982212 2:-0.285988 3:-0.980441 4:-0.135274 5:-0.97962 6:-0.0984975 7:-0.979934 8:-0.108312 9:-0.979869 10:-0.119796 11:-0.290863 12:0.277683 13:0.267399 
8 1:-0.977784 2:-0.228407 3:-0.973509 4:-0.0633562 5:-0.973991 6:-0.0417362 7:-0.974027 8:-0.0478589 9:-0.97483 10:-0.0671198 11:-0.345439 12:0.383623 13:0.373219 
8 1:-0.975171 2:-0.199616 3:-0.974367 4:-0.0702055 5:-0.973319 6:-0.0350584 7:-0.973558 8:-0.0428212 9:-0.968045 10:-0.00934579 11:-0.316403 12:0.202012 13:0.196119 
8 1:-0.985135 2:-0.332054 3:-0.983345 4:-0.174658 5:-0.982835 6:-0.138564 7:-0.983039 8:-0.148615 9:-0.982559 10:-0.153781 11:-0.293535 12:-0.0969424 13:-0.101399 
8 1:-0.977115 2:-0.220729 3:-0.966672 4:-0.00684932 5:-0.965614 6:0.0250417 7:-0.965647 8:0.0193115 9:-0.968584 10:-0.0144435 11:-0.11241 12:0.818713 13:0.807692 
8 1:-0.975332 2:-0.201536 3:-0.974388 4:-0.0702055 5:-0.974461 6:-0.0450751 7:-0.974435 8:-0.0512175 9:-0.973573 10:-0.0552251 11:-0.301859 12:0.493389 13:0.487179 
8 1:-0.957753 2:-0.059501 3:-0.957003 4:0.0547945 5:-0.956533 6:0.0801336 7:-0.956566 8:0.0747271 9:-0.959258 10:0.0484282 11:-0.224019 12:0.609338 13:0.604396 
8 1:-0.984031 2:-0.31286 3:-0.984837 4:-0.196918 5:-0.98471 6:-0.165275 7:-0.984922 8:-0.175483 9:-0.982273 10:-0.150382 11:-0.303461 12:0.811313 13:0.807692 
8 1:-0.980018 2:-0.257198 3:-0.979543 4:-0.125 5:-0.978683 6:-0.0884808 7:-0.977574 8:-0.0814442 9:-0.977602 10:-0.0943076 11:-0.282905 12:-0.0156215 13:-0.025641 
8 1:-0.996207 2:-0.644914 3:-0.995629 4:-0.481164 5:-0.995407 6:-0.439065 7:-0.995438 8:-0.447523 9:-0.995155 10:-0.449448 11:-0.362037 12:0.762932 13:0.74359 
8 1:-0.960799 2:-0.0786948 3:-0.957946 4:0.0496575 5:-0.957396 6:0.0751252 7:-0.957458 8:0.0696893 9:-0.950418 10:0.0960068 11:-0.215422 12:0.774496 13:0.769231 
8 1:-0.978575 2:-0.238004 3:-0.976156 4:-0.0890411 5:-0.97596 6:-0.0601002 7:-0.976314 8:-0.0696893 9:-0.976042 10:-0.0790144 11:-0.259325 12:-0.0114907 13:-0.0150674 
8 1:-0.50719 2:0.612284 3:-0.50683 4:0.65411 5:-0.506534 6:0.662771 7:-0.506951 8:0.660789 9:-0.458022 10:0.680544 11:-0.508114 12:1 13:1 
8 1:-0.988269 2:-0.391555 3:-0.986301 4:-0.22089 5:-0.986323 6:-0.191987 7:-0.986357 8:-0.198992 9:-0.986815 10:-0.220051 11:-0.512517 12:0.137072 13:0.120879 
8 1:-0.910844 2:0.142035 3:-0.910022 4:0.234589 5:-0.90997 6:0.253756 7:-0.91007 8:0.25105 9:-0.918348 10:0.218352 11:-0.221307 12:1 13:1 
8 1:-0.978775 2:-0.239923 3:-0.977789 4:-0.104452 5:-0.976951 6:-0.0701169 7:-0.9774 8:-0.0797649 9:-0.974813 10:-0.0671198 11:-0.348254 12:0.252876 13:0.242604 
8 1:-0.981078 2:-0.270633 3:-0.978218 4:-0.109589 5:-0.97832 6:-0.0834725 7:-0.978355 8:-0.0898405 9:-0.978839 10:-0.107901 11:-0.347618 12:0.669798 13:0.65812 
8 1:-0.970517 2:-0.15547 3:-0.967976 4:-0.0171233 5:-0.966425 6:0.0200334 7:-0.966428 8:0.0142737 9:-0.961693 10:0.0348343 11:-0.28784 12:0.0565656 13:0.0483743 
8 1:-0.974802 2:-0.195777 3:-0.972688 4:-0.0547945 5:-0.972447 6:-0.0283806 7:-0.972496 8:-0.0344249 9:-0.971249 10:-0.0348343 11:-0.195017 12:1 13:1 
8 1:-0.982996 2:-0.297505 3:-0.981466 4:-0.148973 5:-0.981189 6:-0.116861 7:-0.981305 8:-0.125105 9:-0.983522 10:-0.167375 11:-0.22741 12:0.828784 13:0.824176 
8 1:-0.980995 2:-0.268714 3:-0.977555 4:-0.10274 5:-0.977437 6:-0.0751252 7:-0.977477 8:-0.0814442 9:-0.97722 10:-0.0909091 11:-0.52253 12:0.706487 13:0.692308 
8 1:-0.989001 2:-0.40691 3:-0.987296 4:-0.238014 5:-0.985469 6:-0.178631 7:-0.985494 8:-0.183879 9:-0.985129 10:-0.192863 11:-0.358097 12:0.794541 13:0.78022 
8 1:-0.989923 2:-0.428023 3:-0.988273 4:-0.256849 5:-0.987591 6:-0.215359 7:-0.987876 8:-0.225861 9:-0.987124 10:-0.226848 11:-0.314458 12:0.502922 13:0.487179 
8 1:-0.985024 2:-0.330134 3:-0.9829 4:-0.167808 5:-0.98179 6:-0.125209 7:-0.981945 8:-0.133501 9:-0.981343 10:-0.138488 11:-0.346347 12:0.369614 13:0.355993 
8 1:-0.984149 2:-0.314779 3:-0.982052 4:-0.155822 5:-0.981463 6:-0.1202 7:-0.981497 8:-0.126784 9:-0.980462 10:-0.128292 11:-0.241545 12:0.40733 13:0.384615 
8 1:-0.82691 2:0.324376 3:-0.809824 4:0.419521 5:-0.809805 6:0.434057 7:-0.809958 8:0.43073 9:-0.803654 10:0.432455 11:-0.322192 12:1 13:1 
8 1:-0.984117 2:-0.314779 3:-0.983297 4:-0.172945 5:-0.98223 6:-0.130217 7:-0.982067 8:-0.135181 9:-0.980403 10:-0.126593 11:-0.365472 12:0.866005 13:0.86014 
8 1:-0.991176 2:-0.460653 3:-0.991314 4:-0.327055 5:-0.991248 6:-0.295492 7:-0.991274 8:-0.301427 9:-0.990719 10:-0.301614 11:-0.39994 12:1 13:1 
8 1:-0.817979 2:0.337812 3:-0.786365 4:0.44863 5:-0.786411 6:0.462437 7:-0.786624 8:0.459278 9:-0.776321 10:0.463042 11:-0.297798 12:1 13:1 
8 1:-0.982815 2:-0.295585 3:-0.980645 4:-0.138699 5:-0.980107 6:-0.105175 7:-0.980228 8:-0.111671 9:-0.979638 10:-0.118097 11:-0.237571 12:0.116224 13:0.111111 
8 1:-0.988477 2:-0.395393 3:-0.988552 4:-0.263699 5:-0.988552 6:-0.233723 7:-0.988429 8:-0.237615 9:-0.987684 10:-0.237043 11:-0.24879 12:0.691811 13:0.676113 
8 1:-0.990985 2:-0.454894 3:-0.988837 4:-0.268836 5:-0.988195 6:-0.225376 7:-0.987962 8:-0.22754 9:-0.986294 10:-0.211555 11:-0.24862 12:0.243046 13:0.230769 
8 1:-0.961497 2:-0.084453 3:-0.957812 4:0.0496575 5:-0.957665 6:0.0751252 7:-0.957708 8:0.0696893 9:-0.94599 10:0.118097 11:-0.184455 12:1 13:1 
8 1:-0.98287 2:-0.295585 3:-0.98068 4:-0.138699 5:-0.980622 6:-0.110184 7:-0.98066 8:-0.116709 9:-0.979668 10:-0.118097 11:-0.259584 12:1 13:1 
8 1:-0.989847 2:-0.426104 3:-0.987987 4:-0.251712 5:-0.987333 6:-0.210351 7:-0.987389 8:-0.217464 9:-0.986443 10:-0.213254 11:-0.357166 12:1 13:1 
8 1:-0.98585 2:-0.34357 3:-0.983164 4:-0.171233 5:-0.982102 6:-0.128548 7:-0.982031 8:-0.135181 9:-0.981882 10:-0.145285 11:-0.133653 12:0.191636 13:0.179487 
8 1:-0.987452 2:-0.37428 3:-0.984516 4:-0.191781 5:-0.981326 6:-0.118531 7:-0.981364 8:-0.125105 9:-0.983024 10:-0.160578 11:-0.313644 12:1 13:1 
8 1:-0.980766 2:-0.266795 3:-0.981006 4:-0.142123 5:-0.980314 6:-0.106845 7:-0.980452 8:-0.115029 9:-0.978643 10:-0.106202 11:-0.339629 12:0.30409 13:0.293821 
8 1:-0.980076 2:-0.257198 3:-0.97918 4:-0.121575 5:-0.979324 6:-0.0951586 7:-0.979328 8:-0.101595 9:-0.97818 10:-0.101105 11:-0.338358 12:0.0150674 13:0.00641026 
8 1:-0.962534 2:-0.0921305 3:-0.96223 4:0.0239726 5:-0.962011 6:0.048414 7:-0.960335 8:0.0528967 9:-0.958661 10:0.0518267 11:-0.308847 12:0.44802 13:0.440559 
8 1:-0.988395 2:-0.393474 3:-0.987471 4:-0.241438 5:-0.987593 6:-0.215359 7:-0.987625 8:-0.220823 9:-0.986291 10:-0.211555 11:-0.173811 12:0.818713 13:0.807692 
8 1:-0.976232 2:-0.211132 3:-0.976442 4:-0.0907534 5:-0.978003 6:-0.0801336 7:-0.978456 8:-0.0915197 9:-0.979325 10:-0.114698 11:-0.268662 12:0.794541 13:0.787798 
8 1:-0.987665 2:-0.378119 3:-0.985085 4:-0.200342 5:-0.984662 6:-0.165275 7:-0.984697 8:-0.172124 9:-0.98421 10:-0.17757 11:-0.280921 12:0.263027 13:0.247863 
8 1:-0.985505 2:-0.337812 3:-0.980749 4:-0.140411 5:-0.980972 6:-0.115192 7:-0.980972 8:-0.120067 9:-0.979978 10:-0.121495 11:-0.283433 12:0.845906 13:0.838057 
8 1:-0.971402 2:-0.163148 3:-0.970765 4:-0.0393836 5:-0.969919 6:-0.0066778 7:-0.969968 8:-0.0125945 9:-0.969669 10:-0.0229397 11:-0.412863 12:0.911946 13:0.909502 
8 1:-0.964839 2:-0.107486 3:-0.962493 4:0.0222603 5:-0.962625 6:0.0450751 7:-0.962678 8:0.0394626 9:-0.960989 10:0.0382328 11:-0.350694 12:0.364055 13:0.354839 
8 1:-0.959039 2:-0.0671785 3:-0.957999 4:0.0496575 5:-0.957546 6:0.0751252 7:-0.957602 8:0.0696893 9:-0.955154 10:0.0722175 11:-0.404609 12:0.737712 13:0.732441 
8 1:-0.960041 2:-0.074856 3:-0.960212 4:0.0359589 5:-0.958639 6:0.0684474 7:-0.958641 8:0.0629723 9:-0.957239 10:0.0603229 11:-0.325441 12:0.403506 13:0.397993 
8 1:-0.972549 2:-0.174664 3:-0.971894 4:-0.0479452 5:-0.971793 6:-0.0217028 7:-0.971841 8:-0.0277078 9:-0.971941 10:-0.0416313 11:-0.276372 12:1 13:1 
8 1:-0.968459 2:-0.136276 3:-0.969168 4:-0.0256849 5:-0.967779 6:0.0100167 7:-0.967545 8:0.00587741 9:-0.956957 10:0.0620221 11:-0.34394 12:0.681184 13:0.67033 
8 1:-0.973578 2:-0.184261 3:-0.976174 4:-0.0890411 5:-0.974381 6:-0.0450751 7:-0.974417 8:-0.0512175 9:-0.972584 10:-0.046729 11:-0.227186 12:1 13:1 
8 1:-0.980565 2:-0.262956 3:-0.980429 4:-0.135274 5:-0.979191 6:-0.0934891 7:-0.979234 8:-0.099916 9:-0.974916 10:-0.0671198 11:-0.322176 12:1 13:1 
8 1:-0.983501 2:-0.305182 3:-0.983227 4:-0.172945 5:-0.982446 6:-0.133556 7:-0.982493 8:-0.140218 9:-0.982157 10:-0.148683 11:-0.302309 12:0.241382 13:0.230769 
8 1:-0.97932 2:-0.247601 3:-0.978414 4:-0.111301 5:-0.977864 6:-0.0801336 7:-0.978261 8:-0.0898405 9:-0.978464 10:-0.104503 11:-0.246504 12:0.545296 13:0.538462 
8 1:-0.992399 2:-0.495202 3:-0.991032 4:-0.320205 5:-0.99107 6:-0.290484 7:-0.990999 8:-0.29471 9:-0.990817 10:-0.305013 11:-0.297176 12:0.283282 13:0.267399 
8 1:-0.984129 2:-0.314779 3:-0.981858 4:-0.15411 5:-0.981554 6:-0.12187 7:-0.981593 8:-0.128463 9:-0.979405 10:-0.114698 11:-0.238291 12:0.533048 13:0.519231 
8 1:-0.981932 2:-0.28215 3:-0.981093 4:-0.143836 5:-0.980207 6:-0.105175 7:-0.980239 8:-0.111671 9:-0.980612 10:-0.129992 11:-0.314555 12:0.724832 13:0.72028 
8 1:-0.979406 2:-0.24952 3:-0.978178 4:-0.109589 5:-0.978314 6:-0.0834725 7:-0.978373 8:-0.0898405 9:-0.9783 10:-0.102804 11:-0.295969 12:0.152481 13:0.143135 
8 1:-0.997066 2:-0.694818 3:-0.996209 4:-0.511986 5:-0.9961 6:-0.474124 7:-0.996131 8:-0.482788 9:-0.995895 10:-0.485132 11:-0.370958 12:1 13:1 
8 1:-0.988328 2:-0.391555 3:-0.986595 4:-0.226027 5:-0.986338 6:-0.191987 7:-0.986334 8:-0.198992 9:-0.985605 10:-0.19966 11:-0.33919 12:0.370367 13:0.364548 
8 1:-0.962788 2:-0.0940499 3:-0.960716 4:0.0325342 5:-0.960227 6:0.0601002 7:-0.960249 8:0.054576 9:-0.959082 10:0.0501274 11:-0.406293 12:0.17613 13:0.169231 
8 1:-0.972717 2:-0.174664 3:-0.969455 4:-0.0291096 5:-0.969198 6:-0.00166945 7:-0.969278 8:-0.00755668 9:-0.966538 10:0.000849618 11:-0.299838 12:-0.0202105 13:-0.025641 
8 1:-0.997066 2:-0.694818 3:-0.996209 4:-0.511986 5:-0.9961 6:-0.474124 7:-0.996131 8:-0.482788 9:-0.995895 10:-0.485132 11:-0.370958 12:1 13:1 
8 1:-0.984538 2:-0.322457 3:-0.982578 4:-0.162671 5:-0.982225 6:-0.130217 7:-0.982182 8:-0.13686 9:-0.981143 10:-0.135089 11:-0.198955 12:1 13:1 
8 1:-0.983473 2:-0.305182 3:-0.983308 4:-0.172945 5:-0.983303 6:-0.145242 7:-0.983212 8:-0.150294 9:-0.982816 10:-0.157179 11:-0.375911 12:0.159486 13:0.141324 
8 1:-0.981718 2:-0.28023 3:-0.978059 4:-0.107877 5:-0.977782 6:-0.0784641 7:-0.977821 8:-0.0848027 9:-0.97939 10:-0.114698 11:-0.367649 12:0.439657 13:0.413919 
8 1:-0.931613 2:0.0710173 3:-0.930741 4:0.171233 5:-0.930683 6:0.191987 7:-0.930764 8:0.187238 9:-0.930461 10:0.179269 11:-0.370958 12:1 13:1 
8 1:-0.971386 2:-0.163148 3:-0.969455 4:-0.0291096 5:-0.969213 6:-0.00166945 7:-0.969258 8:-0.00755668 9:-0.972727 10:-0.0484282 11:-0.359299 12:0.533048 13:0.519231 
8 1:-0.993831 2:-0.543186 3:-0.99243 4:-0.359589 5:-0.992327 6:-0.325543 7:-0.992231 8:-0.328296 9:-0.991763 10:-0.330501 11:-0.0172244 12:0.598015 13:0.58042 
8 1:-0.889166 2:0.201536 3:-0.885737 4:0.294521 5:-0.885678 6:0.312187 7:-0.885786 8:0.308144 9:-0.87746 10:0.316907 11:-0.292204 12:1 13:1 
8 1:-0.933264 2:0.0633397 3:-0.932866 4:0.164384 5:-0.932241 6:0.186978 7:-0.932298 8:0.1822 9:-0.936928 10:0.15548 11:-0.41439 12:0.637425 13:0.62704 
8 1:-0.988524 2:-0.395393 3:-0.988591 4:-0.263699 5:-0.9875 6:-0.213689 7:-0.987576 8:-0.220823 9:-0.986931 10:-0.223449 11:-0.224139 12:0.807382 13:0.801489 
8 1:-0.966647 2:-0.122841 3:-0.964123 4:0.010274 5:-0.963489 6:0.0383973 7:-0.963536 8:0.0344249 9:-0.961737 10:0.0331351 11:-0.240913 12:0.453214 13:0.445145 
8 1:-0.986231 2:-0.351248 3:-0.985834 4:-0.212329 5:-0.985491 6:-0.178631 7:-0.985136 8:-0.178841 9:-0.984984 10:-0.189465 11:-0.375569 12:-0.00254118 13:-0.0131332 
8 1:-0.975894 2:-0.207294 3:-0.97434 4:-0.0702055 5:-0.974242 6:-0.0434057 7:-0.974029 8:-0.0478589 9:-0.974025 10:-0.0586236 11:-0.266653 12:0.293145 13:0.287749 
8 1:-0.974272 2:-0.190019 3:-0.971809 4:-0.0479452 5:-0.971078 6:-0.0166945 7:-0.970919 8:-0.0209908 9:-0.969618 10:-0.0212404 11:-0.22453 12:0.214991 13:0.208791 
8 1:-0.981424 2:-0.274472 3:-0.977009 4:-0.0976027 5:-0.97602 6:-0.0601002 7:-0.976052 8:-0.0663308 9:-0.975005 10:-0.068819 11:-0.245764 12:1 13:1 
8 1:-0.978915 2:-0.241843 3:-0.974937 4:-0.0753425 5:-0.974597 6:-0.0467446 7:-0.974638 8:-0.0528967 9:-0.973582 10:-0.0552251 11:-0.22007 12:0.787456 13:0.784076 
8 1:-0.957157 2:-0.0556622 3:-0.955487 4:0.0633562 5:-0.955398 6:0.0868114 7:-0.955572 8:0.0814442 9:-0.953553 10:0.0807137 11:-0.262776 12:0.794541 13:0.78022 
8 1:-0.962002 2:-0.0882917 3:-0.954886 4:0.0667808 5:-0.954619 6:0.0901503 7:-0.954655 8:0.0864819 9:-0.953723 10:0.0790144 11:-0.236849 12:0.794541 13:0.78022 
8 1:-0.954783 2:-0.0403071 3:-0.95096 4:0.0873288 5:-0.950728 6:0.110184 7:-0.950773 8:0.104954 9:-0.948804 10:0.104503 11:-0.451616 12:0.170262 13:0.163555 
8 1:-0.976824 2:-0.21881 3:-0.973437 4:-0.0616438 5:-0.97326 6:-0.0350584 7:-0.972981 8:-0.0377834 9:-0.972784 10:-0.0484282 11:-0.353218 12:0.178164 13:0.168399 
8 1:-0.978911 2:-0.241843 3:-0.977607 4:-0.10274 5:-0.977472 6:-0.0751252 7:-0.977473 8:-0.0814442 9:-0.978261 10:-0.102804 11:-0.353733 12:0.0267729 13:0.0180033 
8 1:-0.986249 2:-0.351248 3:-0.983936 4:-0.183219 5:-0.983531 6:-0.148581 7:-0.983505 8:-0.155332 9:-0.98377 10:-0.170773 11:-0.324626 12:-0.00753961 13:-0.0156833 
8 1:-0.977472 2:-0.224568 3:-0.975192 4:-0.0787671 5:-0.974308 6:-0.0434057 7:-0.974351 8:-0.0495382 9:-0.974568 10:-0.0637213 11:-0.358834 12:0.0800341 13:0.0675991 
8 1:-0.984713 2:-0.324376 3:-0.98468 4:-0.193493 5:-0.985025 6:-0.170284 7:-0.985034 8:-0.177162 9:-0.984531 10:-0.182668 11:-0.370958 12:1 13:1 
8 1:-0.984129 2:-0.314779 3:-0.980341 4:-0.135274 5:-0.98052 6:-0.110184 7:-0.980567 8:-0.116709 9:-0.980906 10:-0.13339 11:-0.387768 12:0.525864 13:0.51417 
8 1:-0.973272 2:-0.180422 3:-0.972936 4:-0.0582192 5:-0.971955 6:-0.0233723 7:-0.971258 8:-0.02267 9:-0.971188 10:-0.0348343 11:-0.347671 12:0.42928 13:0.419448 
8 1:-0.97088 2:-0.15739 3:-0.969172 4:-0.0256849 5:-0.967437 6:0.0116861 7:-0.967509 8:0.00587741 9:-0.964262 10:0.017842 11:-0.291984 12:0.258065 13:0.252336 
8 1:-0.940058 2:0.0345489 3:-0.938164 4:0.143836 5:-0.938052 6:0.165275 7:-0.937995 8:0.160369 9:-0.93596 10:0.158879 11:-0.427462 12:0.771712 13:0.767779 
8 1:-0.953511 2:-0.0345489 3:-0.95404 4:0.0702055 5:-0.954653 6:0.0901503 7:-0.954709 8:0.0848027 9:-0.953908 10:0.0790144 11:-0.212757 12:1 13:1 
8 1:-0.975899 2:-0.207294 3:-0.974613 4:-0.0736301 5:-0.974736 6:-0.048414 7:-0.974691 8:-0.0528967 9:-0.972984 10:-0.0501274 11:-0.32181 12:0.218677 13:0.208791 
8 1:-0.969502 2:-0.145873 3:-0.966875 4:-0.00856164 5:-0.965914 6:0.0233723 7:-0.965955 8:0.0176322 9:-0.96585 10:0.00594732 11:-0.283908 12:0.132285 13:0.125189 
8 1:-0.990571 2:-0.443378 3:-0.98906 4:-0.273973 5:-0.988963 6:-0.24207 7:-0.989054 8:-0.24937 9:-0.989008 10:-0.262532 11:-0.287993 12:0.496835 13:0.487179 
8 1:-0.965037 2:-0.109405 3:-0.960095 4:0.0359589 5:-0.960365 6:0.0584307 7:-0.960006 8:0.0562552 9:-0.958652 10:0.0518267 11:-0.340957 12:0.521776 13:0.51417 
8 1:-0.972806 2:-0.176583 3:-0.971446 4:-0.0445205 5:-0.970595 6:-0.0116861 7:-0.970206 8:-0.0142737 9:-0.970865 10:-0.0314359 11:-0.308151 12:0.0202097 13:0.0161002 
8 1:-0.981901 2:-0.28215 3:-0.978016 4:-0.107877 5:-0.977343 6:-0.0734558 7:-0.977377 8:-0.0797649 9:-0.976973 10:-0.0875106 11:-0.342099 12:0.559731 13:0.538462 
8 1:-0.983166 2:-0.301344 3:-0.980701 4:-0.138699 5:-0.979981 6:-0.103506 7:-0.980044 8:-0.109992 9:-0.978655 10:-0.106202 11:-0.243012 12:0.452109 13:0.440559 
8 1:-0.992048 2:-0.483685 3:-0.991741 4:-0.339041 5:-0.99207 6:-0.317195 7:-0.99208 8:-0.324937 9:-0.991578 10:-0.325404 11:-0.370958 12:1 13:1 
8 1:-0.992876 2:-0.510557 3:-0.992602 4:-0.364726 5:-0.991777 6:-0.308848 7:-0.991812 8:-0.316541 9:-0.99141 10:-0.320306 11:-0.26746 12:1 13:1 
8 1:-0.968219 2:-0.134357 3:-0.962934 4:0.0188356 5:-0.962381 6:0.0467446 7:-0.962461 8:0.0411419 9:-0.963038 10:0.0263381 11:-0.278723 12:0.282301 13:0.273504 
8 1:-0.972812 2:-0.176583 3:-0.970411 4:-0.0359589 5:-0.96987 6:-0.0066778 7:-0.969925 8:-0.0125945 9:-0.969299 10:-0.0195412 11:-0.340038 12:1 13:1 
8 1:-0.984437 2:-0.320537 3:-0.983415 4:-0.174658 5:-0.98304 6:-0.141903 7:-0.983014 8:-0.146935 9:-0.98024 10:-0.124894 11:-0.316293 12:0.243537 13:0.237826 
8 1:-0.952166 2:-0.0268714 3:-0.955052 4:0.0650685 5:-0.954591 6:0.0918197 7:-0.954646 8:0.0864819 9:-0.959364 10:0.0484282 11:-0.399907 12:1 13:1 
8 1:-0.980296 2:-0.259117 3:-0.979202 4:-0.121575 5:-0.978867 6:-0.0901503 7:-0.978922 8:-0.0965575 9:-0.980552 10:-0.128292 11:-0.2758 12:1 13:1 
8 1:-0.971092 2:-0.159309 3:-0.969669 4:-0.0308219 5:-0.968974 7:-0.967488 8:0.00587741 9:-0.965635 10:0.00764656 11:-0.235728 12:0.559731 13:0.547511 
8 1:-0.943593 2:0.0191939 3:-0.938939 4:0.140411 5:-0.936478 6:0.171953 7:-0.93655 8:0.167086 9:-0.922951 10:0.203059 11:-0.408296 12:0.641641 13:0.6337 
8 1:-0.968025 2:-0.134357 3:-0.965478 4:0.00171233 5:-0.964563 6:0.0317195 7:-0.96461 8:0.0260285 9:-0.961472 10:0.0348343 11:-0.253988 12:0.42928 13:0.408284 
8 1:-0.979978 2:-0.255278 3:-0.97959 4:-0.125 5:-0.97915 6:-0.0934891 7:-0.979185 8:-0.099916 9:-0.979352 10:-0.114698 11:-0.370958 12:1 13:1 
8 1:-0.973697 2:-0.184261 3:-0.972093 4:-0.0496575 5:-0.971336 6:-0.0183639 7:-0.971379 8:-0.0243493 9:-0.96748 10:-0.00594732 11:-0.27091 12:0.567455 13:0.56044 
8 1:-0.987747 2:-0.380038 3:-0.9869 4:-0.231164 5:-0.986866 6:-0.202003 7:-0.986904 8:-0.209068 9:-0.986064 10:-0.208156 11:-0.370958 12:1 13:1 
8 1:-0.922779 2:0.103647 3:-0.921946 4:0.200342 5:-0.921871 6:0.220367 7:-0.921947 8:0.215785 9:-0.914667 10:0.228547 11:-0.23979 12:1 13:1 
8 1:-0.974841 2:-0.195777 3:-0.972735 4:-0.0565068 5:-0.974067 6:-0.0417362 7:-0.973826 8:-0.0461797 9:-0.97314 10:-0.0518267 11:-0.330068 12:0.525864 13:0.51417 
8 1:-0.986183 2:-0.351248 3:-0.979899 4:-0.128425 5:-0.979737 6:-0.100167 7:-0.97978 8:-0.106633 9:-0.981943 10:-0.146984 11:-0.168695 12:0.657568 13:0.638009 
8 1:-0.82597 2:0.326296 3:-0.809992 4:0.419521 5:-0.809988 6:0.434057 7:-0.810143 8:0.43073 9:-0.778793 10:0.461342 11:-0.375518 12:1 13:1 
8 1:-0.987536 2:-0.3762 3:-0.986717 4:-0.22774 5:-0.986414 6:-0.193656 7:-0.986434 8:-0.200672 9:-0.985601 10:-0.19966 11:-0.282567 12:1 13:1 
8 1:-0.991369 2:-0.464491 3:-0.989554 4:-0.284247 5:-0.989331 6:-0.248748 7:-0.989358 8:-0.256087 9:-0.989804 10:-0.281223 11:-0.267956 12:0.743176 13:0.732441 
8 1:-0.972073 2:-0.168906 3:-0.969946 4:-0.0325342 5:-0.969492 6:-0.0033389 7:-0.969492 8:-0.00923594 9:-0.969318 10:-0.0195412 11:-0.308132 12:0.443548 13:0.43662 
8 1:-0.987141 2:-0.368522 3:-0.985338 4:-0.203767 5:-0.985392 6:-0.176962 7:-0.985331 8:-0.1822 9:-0.983528 10:-0.167375 11:-0.276131 12:0.21552 13:0.209598 
8 1:-0.970684 2:-0.15547 3:-0.970654 4:-0.0376712 5:-0.970515 6:-0.0116861 7:-0.97079 8:-0.0193115 9:-0.972888 10:-0.0484282 11:-0.368389 12:0.498298 13:0.487179 
8 1:-0.980698 2:-0.264875 3:-0.978201 4:-0.109589 5:-0.977599 6:-0.0767947 7:-0.97809 8:-0.0881612 9:-0.977984 10:-0.0994053 11:-0.18694 12:0.393727 13:0.384615 
8 1:-0.98297 2:-0.297505 3:-0.978798 4:-0.116438 5:-0.97474 6:-0.048414 7:-0.974826 8:-0.054576 9:-0.97479 10:-0.0671198 11:-0.302229 12:0.837795 13:0.82906 
8 1:-0.988536 2:-0.397313 3:-0.984985 4:-0.19863 5:-0.985157 6:-0.173623 7:-0.985193 8:-0.180521 9:-0.984546 10:-0.182668 11:-0.400226 12:0.762932 13:0.74359 
8 1:-0.986667 2:-0.358925 3:-0.987187 4:-0.236301 5:-0.986588 6:-0.196995 7:-0.986621 8:-0.20403 9:-0.989596 10:-0.276126 11:-0.328239 12:1 13:1 
8 1:-0.98294 2:-0.297505 3:-0.981129 4:-0.143836 5:-0.980607 6:-0.110184 7:-0.980699 8:-0.116709 9:-0.979648 10:-0.118097 11:-0.144083 12:0.728069 13:0.72028 
8 1:-0.962028 2:-0.0882917 3:-0.956586 4:0.0565068 5:-0.957466 6:0.0751252 7:-0.957519 8:0.0696893 9:-0.955829 10:0.068819 11:-0.328876 12:0.42765 13:0.42029 
8 1:-0.979646 2:-0.25144 3:-0.975774 4:-0.0839041 5:-0.97506 6:-0.0517529 7:-0.975104 8:-0.0579345 9:-0.975107 10:-0.068819 11:-0.329689 12:-0.109479 13:-0.116625 
8 1:-0.989882 2:-0.426104 3:-0.988984 4:-0.27226 5:-0.98897 6:-0.24207 7:-0.989003 8:-0.24937 9:-0.989337 10:-0.271028 11:-0.339316 12:0.73201 13:0.72028 
8 1:-0.970113 2:-0.151631 3:-0.971456 4:-0.0445205 5:-0.971299 6:-0.0183639 7:-0.970928 8:-0.0209908 9:-0.970081 10:-0.0246389 11:-0.289856 12:0.794541 13:0.787798 
8 1:-0.976557 2:-0.214971 3:-0.974235 4:-0.0702055 5:-0.974473 6:-0.0450751 7:-0.974508 8:-0.0512175 9:-0.97413 10:-0.0603229 11:-0.223158 12:0.24665 13:0.239412 
8 1:-0.982391 2:-0.289827 3:-0.983638 4:-0.178082 5:-0.982584 6:-0.135225 7:-0.982714 8:-0.143577 9:-0.977675 10:-0.0960068 11:-0.44487 12:0.456138 13:0.423077 
8 1:-0.972219 2:-0.170825 3:-0.96959 4:-0.0291096 5:-0.969033 7:-0.969077 8:-0.00587741 9:-0.967051 10:-0.00254885 11:-0.374952 12:0.574912 13:0.56044 
8 1:-0.982812 2:-0.295585 3:-0.981599 4:-0.150685 5:-0.981312 6:-0.118531 7:-0.981172 8:-0.123426 9:-0.979452 10:-0.114698 11:-0.29805 12:-0.0979218 13:-0.103048 
8 1:-0.985406 2:-0.335893 3:-0.983543 4:-0.17637 5:-0.983617 6:-0.15025 7:-0.983203 8:-0.150294 9:-0.982652 10:-0.15548 11:-0.344046 12:0.537717 13:0.526627 
8 1:-0.995699 2:-0.619962 3:-0.9939 4:-0.407534 5:-0.994023 6:-0.380634 7:-0.994069 8:-0.388749 9:-0.993696 10:-0.389975 11:-0.3583 12:0.706487 13:0.692308 
8 1:-0.976798 2:-0.216891 3:-0.973298 4:-0.0616438 5:-0.973123 6:-0.033389 7:-0.973164 8:-0.0394626 9:-0.972065 10:-0.0416313 11:-0.357172 12:0.143921 13:0.129173 
8 1:-0.993993 2:-0.548944 3:-0.993835 4:-0.405822 5:-0.993274 6:-0.353923 7:-0.993498 8:-0.368598 9:-0.993159 10:-0.372982 11:-0.370958 12:1 13:1 
8 1:-0.983357 2:-0.303263 3:-0.982114 4:-0.157534 5:-0.982024 6:-0.128548 7:-0.98168 8:-0.130143 9:-0.979898 10:-0.121495 11:-0.266063 12:0.46402 13:0.452991 
8 1:-0.868752 2:0.247601 3:-0.860282 4:0.344178 5:-0.860077 6:0.360601 7:-0.860221 8:0.356843 9:-0.856599 10:0.354291 11:-0.501527 12:0.779865 13:0.763314 
8 1:-0.975128 2:-0.199616 3:-0.976401 4:-0.0907534 5:-0.975462 6:-0.0550918 7:-0.975131 8:-0.0579345 9:-0.975969 10:-0.0773152 11:-0.23932 12:1 13:1 
8 1:-0.95634 2:-0.049904 3:-0.951991 4:0.0821918 5:-0.952297 6:0.103506 7:-0.952362 8:0.0982368 9:-0.943442 10:0.128292 11:-0.186403 12:1 13:1 
8 1:-0.986961 2:-0.364683 3:-0.988015 4:-0.251712 5:-0.987779 6:-0.218698 7:-0.987816 8:-0.225861 9:-0.987283 10:-0.228547 11:-0.33818 12:1 13:1 
8 1:-0.957829 2:-0.059501 3:-0.951261 4:0.0856164 5:-0.949967 6:0.113523 7:-0.950023 8:0.108312 9:-0.953105 10:0.0824129 11:-0.0282973 12:0.651107 13:0.64497 
8 1:-0.983064 2:-0.299424 3:-0.981965 4:-0.155822 5:-0.981596 6:-0.123539 7:-0.981545 8:-0.128463 9:-0.979743 10:-0.118097 11:-0.167309 12:0.508685 13:0.502262 
8 1:-0.960118 2:-0.074856 3:-0.957019 4:0.0547945 5:-0.956845 6:0.0784641 7:-0.956903 8:0.0730479 9:-0.950841 10:0.0943076 11:-0.278226 12:0.606568 13:0.598662 
8 1:-0.951014 2:-0.0191939 3:-0.946951 4:0.106164 5:-0.94685 6:0.128548 7:-0.946884 8:0.123426 9:-0.945447 10:0.119796 11:-0.352219 12:0.543424 13:0.526627 
8 1:-0.978874 2:-0.241843 3:-0.980286 4:-0.133562 5:-0.979218 6:-0.0934891 7:-0.979207 8:-0.099916 9:-0.979407 10:-0.114698 11:-0.542278 12:1 13:1 
8 1:-0.975007 2:-0.197697 3:-0.973375 4:-0.0616438 5:-0.973169 6:-0.033389 7:-0.973211 8:-0.0394626 9:-0.969184 10:-0.017842 11:-0.263344 12:0.422146 13:0.410802 
8 1:-0.955001 2:-0.0422265 3:-0.958275 4:0.0479452 5:-0.958175 6:0.0717863 7:-0.958236 8:0.0663308 9:-0.955493 10:0.0705183 11:-0.370958 12:1 13:1 
8 1:-0.97486 2:-0.197697 3:-0.971283 4:-0.0428082 5:-0.970593 6:-0.0116861 7:-0.970643 8:-0.0176322 9:-0.969955 10:-0.0246389 11:-0.163417 12:0.614764 13:0.605523 
8 1:-0.984783 2:-0.326296 3:-0.985368 4:-0.205479 5:-0.98439 6:-0.161937 7:-0.98456 8:-0.170445 9:-0.984131 10:-0.17757 11:-0.365684 12:0.243046 13:0.237577 
8 1:-0.970969 2:-0.159309 3:-0.967741 4:-0.015411 5:-0.966887 6:0.0166945 7:-0.966988 8:0.00923594 9:-0.968037 10:-0.00934579 11:-0.196563 12:0.383623 13:0.374185 
8 1:-0.966177 2:-0.119002 3:-0.964714 4:0.00684932 5:-0.964826 6:0.0300501 7:-0.96481 8:0.0243493 9:-0.967117 10:-0.00254885 11:-0.330126 12:0.479118 13:0.472527 
8 1:-0.964952 2:-0.109405 3:-0.9611 4:0.0308219 5:-0.96101 6:0.0550918 7:-0.961054 8:0.0495382 9:-0.960873 10:0.039932 11:-0.261714 12:1 13:1 
8 1:-0.940575 2:0.0326296 3:-0.939757 4:0.136986 5:-0.939692 6:0.158598 7:-0.939771 8:0.153652 9:-0.937337 10:0.153781 11:-0.370958 12:1 13:1 
8 1:-0.842823 2:0.297505 3:-0.842037 4:0.373288 5:-0.841963 6:0.388982 7:-0.84208 8:0.38539 9:-0.838615 10:0.383178 11:-0.152638 12:1 13:1 
8 1:-0.987756 2:-0.380038 3:-0.98613 4:-0.217466 5:-0.986076 6:-0.188648 7:-0.986113 8:-0.195634 9:-0.986136 10:-0.208156 11:-0.254233 12:0.706487 13:0.692308 
8 1:-0.980951 2:-0.268714 3:-0.97902 4:-0.118151 5:-0.978672 6:-0.0884808 7:-0.978494 8:-0.0915197 9:-0.97866 10:-0.106202 11:-0.274777 12:0.212407 13:0.20484 
8 1:-0.966944 2:-0.12476 3:-0.96389 4:0.0119863 5:-0.963476 6:0.0383973 7:-0.963494 8:0.0344249 9:-0.961349 10:0.0365336 11:-0.382756 12:0.762932 13:0.757085 
8 1:-0.981487 2:-0.276392 3:-0.984949 4:-0.19863 5:-0.984513 6:-0.163606 7:-0.984551 8:-0.170445 9:-0.983541 10:-0.169074 11:-0.370958 12:1 13:1 
8 1:-0.980966 2:-0.268714 3:-0.978623 4:-0.114726 5:-0.978094 6:-0.081803 7:-0.978138 8:-0.0881612 9:-0.978949 10:-0.109601 11:-0.256606 12:0.446841 13:0.433198 
8 1:-0.978979 2:-0.243762 3:-0.97758 4:-0.10274 5:-0.978249 6:-0.0834725 7:-0.979324 8:-0.101595 9:-0.978592 10:-0.106202 11:-0.229113 12:0.771712 13:0.767779 
8 1:-0.997066 2:-0.694818 3:-0.996209 4:-0.511986 5:-0.9961 6:-0.474124 7:-0.996131 8:-0.482788 9:-0.995895 10:-0.485132 11:-0.370958 12:1 13:1 
8 1:-0.980912 2:-0.268714 3:-0.980466 4:-0.135274 5:-0.98035 6:-0.106845 7:-0.98039 8:-0.11335 9:-0.979121 10:-0.1113 11:-0.370958 12:0.657568 13:0.615385 
8 1:-0.957479 2:-0.0575816 3:-0.955872 4:0.0616438 5:-0.955779 6:0.0851419 7:-0.955834 8:0.0797649 9:-0.955149 10:0.0722175 11:-0.347641 12:0.771712 13:0.763314 
8 1:-0.98281 2:-0.295585 3:-0.98145 4:-0.148973 5:-0.981918 6:-0.126878 7:-0.981841 8:-0.131822 9:-0.979752 10:-0.119796 11:-0.409747 12:0.159486 13:0.152276 
8 1:-0.975198 2:-0.199616 3:-0.974344 4:-0.0702055 5:-0.972658 6:-0.0300501 7:-0.972714 8:-0.0361041 9:-0.971222 10:-0.0348343 11:-0.374612 12:0.573277 13:0.567308 
8 1:-0.985888 2:-0.345489 3:-0.984237 4:-0.186644 5:-0.983483 6:-0.148581 7:-0.983512 8:-0.155332 9:-0.982779 10:-0.157179 11:-0.304492 12:0.595818 13:0.589744 
8 1:-0.980516 2:-0.262956 3:-0.978413 4:-0.111301 5:-0.978292 6:-0.0834725 7:-0.978107 8:-0.0881612 9:-0.977015 10:-0.0892099 11:-0.30078 12:-0.199437 13:-0.204013 
8 1:-0.982754 2:-0.293666 3:-0.981808 4:-0.152397 5:-0.981299 6:-0.118531 7:-0.98123 8:-0.123426 9:-0.980706 10:-0.129992 11:-0.316775 12:0.336809 13:0.329389 
8 1:-0.98071 2:-0.264875 3:-0.982896 4:-0.167808 5:-0.983091 6:-0.141903 7:-0.983231 8:-0.150294 9:-0.984288 10:-0.179269 11:-0.364448 12:0.768859 13:0.763314 
8 1:-0.993718 2:-0.537428 3:-0.99287 4:-0.371575 5:-0.992765 6:-0.337229 7:-0.9928 8:-0.345088 9:-0.992346 10:-0.345794 11:-0.370958 12:1 13:1 
8 1:-0.984675 2:-0.324376 3:-0.983831 4:-0.181507 5:-0.983884 6:-0.153589 7:-0.983924 8:-0.160369 9:-0.982889 10:-0.158879 11:-0.370958 12:1 13:1 
8 1:-0.972197 2:-0.170825 3:-0.972662 4:-0.0547945 5:-0.972391 6:-0.0267112 7:-0.97244 8:-0.0327456 9:-0.97262 10:-0.046729 11:-0.282501 12:0.807382 13:0.794872 
8 1:-0.991251 2:-0.462572 3:-0.98902 4:-0.27226 5:-0.987394 6:-0.210351 7:-0.98709 8:-0.212427 9:-0.986692 10:-0.218352 11:-0.359889 12:0.845906 13:0.838057 
8 1:-0.981138 2:-0.270633 3:-0.979481 4:-0.125 5:-0.978673 6:-0.0884808 7:-0.978711 8:-0.0948783 9:-0.976731 10:-0.0858114 11:-0.24588 12:0.364055 13:0.354839 
8 1:-0.984664 2:-0.324376 3:-0.983782 4:-0.179795 5:-0.983679 6:-0.15025 7:-0.983719 8:-0.157011 9:-0.984824 10:-0.187766 11:-0.370958 12:1 13:1 
8 1:-0.977249 2:-0.222649 3:-0.976411 4:-0.0907534 5:-0.976317 6:-0.0634391 7:-0.976365 8:-0.0696893 9:-0.974834 10:-0.0671198 11:-0.370958 12:1 13:1 
8 1:-0.995134 2:-0.59501 3:-0.994196 4:-0.419521 5:-0.994549 6:-0.400668 7:-0.99458 8:-0.4089 9:-0.994238 10:-0.410365 11:-0.448493 12:1 13:1 
8 1:-0.982772 2:-0.293666 3:-0.982458 4:-0.162671 5:-0.982123 6:-0.130217 7:-0.982159 8:-0.13686 9:-0.981453 10:-0.140187 11:-0.256034 12:0.486352 13:0.472527 
8 1:-0.996703 2:-0.673704 3:-0.995698 4:-0.484589 5:-0.995589 6:-0.447412 7:-0.995654 8:-0.457599 9:-0.995386 10:-0.459643 11:-0.370958 12:1 13:1 
8 1:-0.9816 2:-0.278311 3:-0.979448 4:-0.123288 5:-0.97933 6:-0.0951586 7:-0.979287 8:-0.101595 9:-0.978537 10:-0.104503 11:-0.238072 12:0.00360081 13:-0.002331 
8 1:-0.971814 2:-0.166987 3:-0.970622 4:-0.0376712 5:-0.970519 6:-0.0116861 7:-0.970568 8:-0.0176322 9:-0.970397 10:-0.0280374 11:-0.154078 12:1 13:1 
8 1:-0.990178 2:-0.433781 3:-0.988206 4:-0.255137 5:-0.988444 6:-0.230384 7:-0.988463 8:-0.237615 9:-0.984837 10:-0.187766 11:-0.13308 12:0.813219 13:0.807692 
8 1:-0.996043 2:-0.637236 3:-0.995188 4:-0.460616 5:-0.99508 6:-0.42404 7:-0.995113 8:-0.43241 9:-0.994811 10:-0.434155 11:-0.370958 12:1 13:1 
8 1:-0.989742 2:-0.424184 3:-0.991185 4:-0.32363 5:-0.990123 6:-0.267112 7:-0.990152 8:-0.274559 9:-0.990109 10:-0.28802 11:-0.140807 12:1 13:1 
8 1:-0.997066 2:-0.694818 3:-0.996209 4:-0.511986 5:-0.9961 6:-0.474124 7:-0.996131 8:-0.482788 9:-0.995895 10:-0.485132 11:-0.370958 12:1 13:1 
8 1:-0.991 2:-0.454894 3:-0.988341 4:-0.258562 5:-0.98847 6:-0.232053 7:-0.988472 8:-0.237615 9:-0.988214 10:-0.247239 11:-0.015669 12:0.681184 13:0.67033 
8 1:-0.952234 2:-0.0268714 3:-0.95055 4:0.0890411 5:-0.950548 6:0.111853 7:-0.950596 8:0.106633 9:-0.953057 10:0.0841121 11:-0.220148 12:0.637425 13:0.62704 
8 1:-0.980358 2:-0.261036 3:-0.977896 4:-0.106164 5:-0.977626 6:-0.0767947 7:-0.977665 8:-0.0831234 9:-0.977159 10:-0.0909091 11:-0.135797 12:0.657568 13:0.65035 
8 1:-0.985138 2:-0.332054 3:-0.983692 4:-0.179795 5:-0.98355 6:-0.148581 7:-0.98364 8:-0.157011 9:-0.983285 10:-0.163976 11:-0.291261 12:0.400744 13:0.393283 
8 1:-0.9723 2:-0.170825 3:-0.968474 4:-0.0205479 5:-0.968144 6:0.0066778 7:-0.968193 8:0.000839631 9:-0.969052 10:-0.017842 11:-0.110254 12:1 13:1 
8 1:-0.984185 2:-0.316699 3:-0.980819 4:-0.140411 5:-0.980339 6:-0.106845 7:-0.980372 8:-0.11335 9:-0.979733 10:-0.118097 11:-0.237579 12:0.333646 13:0.325606 
8 1:-0.984967 2:-0.328215 3:-0.983821 4:-0.181507 5:-0.983443 6:-0.146912 7:-0.983469 8:-0.153652 9:-0.982929 10:-0.158879 11:-0.272448 12:0.00291928 13:-0.002849 
8 1:-0.997066 2:-0.694818 3:-0.996209 4:-0.511986 5:-0.9961 6:-0.474124 7:-0.996131 8:-0.482788 9:-0.995895 10:-0.485132 11:-0.370958 12:1 13:1 
8 1:-0.984121 2:-0.314779 3:-0.982704 4:-0.164384 5:-0.982515 6:-0.135225 7:-0.982595 8:-0.141898 9:-0.979945 10:-0.121495 11:-0.306064 12:0.486352 13:0.474672 
8 1:-0.987423 2:-0.37428 3:-0.985289 4:-0.203767 5:-0.985537 6:-0.178631 7:-0.9851 8:-0.178841 9:-0.985711 10:-0.201359 11:-0.335245 12:0.159486 13:0.149798 
8 1:-0.992712 2:-0.504798 3:-0.993399 4:-0.390411 5:-0.99329 6:-0.355593 7:-0.993323 8:-0.36356 9:-0.992903 10:-0.364486 11:-0.370958 12:1 13:1 
8 1:-0.993725 2:-0.539347 3:-0.989307 4:-0.27911 5:-0.988418 6:-0.230384 7:-0.988274 8:-0.234257 9:-0.985411 10:-0.196262 11:0.0903107 12:0.456138 13:0.423077 
8 1:-0.906537 2:0.15547 3:-0.910079 4:0.234589 5:-0.908872 6:0.257095 7:-0.908963 8:0.252729 9:-0.908012 10:0.247239 11:-0.461396 12:0.774496 13:0.769231 
8 1:-0.985603 2:-0.339731 3:-0.983297 4:-0.172945 5:-0.98311 6:-0.143573 7:-0.983156 8:-0.150294 9:-0.982487 10:-0.153781 11:-0.229621 12:0.595818 13:0.589744 
8 1:-0.970387 2:-0.153551 3:-0.966254 4:-0.00342466 5:-0.966631 6:0.0183639 7:-0.966724 8:0.0125945 9:-0.965763 10:0.00764656 11:-0.298518 12:0.471677 13:0.457014 
8 1:-0.975848 2:-0.207294 3:-0.97099 4:-0.0410959 5:-0.970604 6:-0.0116861 7:-0.97065 8:-0.0176322 9:-0.969443 10:-0.0195412 11:-0.321436 12:0.412974 13:0.399625 
8 1:-0.993054 2:-0.516315 3:-0.992713 4:-0.368151 5:-0.99276 6:-0.337229 7:-0.992721 8:-0.343409 9:-0.991457 10:-0.322005 11:-0.223153 12:0.807382 13:0.801489 
8 1:-0.973344 2:-0.182342 3:-0.969744 4:-0.0308219 5:-0.969724 6:-0.00500835 7:-0.969771 8:-0.0109152 9:-0.969726 10:-0.0229397 11:-0.352816 12:0.410816 13:0.402985 
8 1:-0.986153 2:-0.349328 3:-0.975138 4:-0.0787671 5:-0.975033 6:-0.0517529 7:-0.975078 8:-0.0562552 9:-0.973187 10:-0.0518267 11:-0.370958 12:1 13:1 
8 1:-0.992852 2:-0.508637 3:-0.992084 4:-0.349315 5:-0.991459 6:-0.300501 7:-0.99113 8:-0.298069 9:-0.990475 10:-0.296517 11:-0.369172 12:0.559731 13:0.54416 
8 1:-0.926727 2:0.0882917 3:-0.92578 4:0.188356 5:-0.925712 6:0.208681 7:-0.925803 8:0.20403 9:-0.894194 10:0.281223 11:-0.494945 12:1 13:1 
8 1:-0.958202 2:-0.0614203 3:-0.958972 4:0.0428082 5:-0.957513 6:0.0751252 7:-0.957502 8:0.0696893 9:-0.956994 10:0.0620221 11:-0.42242 12:0.685522 13:0.679487 
8 1:-0.973561 2:-0.184261 3:-0.972104 4:-0.0496575 5:-0.970982 6:-0.015025 7:-0.970789 8:-0.0193115 9:-0.969685 10:-0.0229397 11:-0.347691 12:0.126395 13:0.120879 
8 1:-0.953153 2:-0.0307102 3:-0.949 4:0.0958904 5:-0.948899 6:0.118531 7:-0.948965 8:0.11335 9:-0.946415 10:0.114698 11:-0.138308 12:1 13:1 
8 1:-0.894943 2:0.1881 3:-0.894105 4:0.275685 5:-0.894153 6:0.293823 7:-0.894263 8:0.289673 9:-0.889894 10:0.291419 11:-0.260745 12:1 13:1 
8 1:-0.956891 2:-0.0537428 3:-0.953135 4:0.0753425 5:-0.953168 6:0.0984975 7:-0.953223 8:0.093199 9:-0.956164 10:0.0671198 11:-0.350257 12:0.272333 13:0.263272 
8 1:-0.975072 2:-0.199616 3:-0.973023 4:-0.0582192 5:-0.972006 6:-0.0233723 7:-0.972048 8:-0.0293871 9:-0.970631 10:-0.0297366 11:-0.238256 12:0.331639 13:0.324578 
8 1:-0.981763 2:-0.28023 3:-0.981132 4:-0.143836 5:-0.980914 6:-0.113523 7:-0.980776 8:-0.118388 9:-0.980925 10:-0.13339 11:-0.324353 12:0.217299 13:0.205955 
8 1:-0.986368 2:-0.353167 3:-0.984792 4:-0.195205 5:-0.983969 6:-0.155259 7:-0.984081 8:-0.162049 9:-0.98356 10:-0.169074 11:-0.349704 12:0.211611 13:0.194139 
8 1:-0.974939 2:-0.197697 3:-0.97368 4:-0.0650685 5:-0.9739 6:-0.0400668 7:-0.974025 8:-0.0478589 9:-0.97243 10:-0.0450297 11:-0.354966 12:0.109677 13:0.101124 
8 1:-0.959209 2:-0.0690979 3:-0.956727 4:0.0565068 5:-0.956698 6:0.0801336 7:-0.956795 8:0.0747271 9:-0.956285 10:0.0654206 11:-0.344202 12:0.206868 13:0.202279 
8 1:-0.944749 2:0.0134357 3:-0.941623 4:0.130137 5:-0.941551 6:0.15192 7:-0.941626 8:0.146935 9:-0.940101 10:0.141886 11:-0.317348 12:0.644398 13:0.630769 
8 1:-0.978078 2:-0.232246 3:-0.97392 4:-0.0667808 5:-0.973341 6:-0.0350584 7:-0.973386 8:-0.0411419 9:-0.970893 10:-0.0314359 11:-0.351478 12:0.719829 13:0.711538 
8 1:-0.989052 2:-0.40691 3:-0.984611 4:-0.193493 5:-0.984499 6:-0.163606 7:-0.984538 8:-0.170445 9:-0.983651 10:-0.169074 11:-0.341569 12:1 13:1 
8 1:-0.977288 2:-0.222649 3:-0.974835 4:-0.0753425 5:-0.974587 6:-0.0467446 7:-0.974755 8:-0.054576 9:-0.974943 10:-0.068819 11:-0.165005 12:0.743176 13:0.732441 
8 1:-0.983345 2:-0.303263 3:-0.981428 4:-0.148973 5:-0.981578 6:-0.12187 7:-0.981596 8:-0.128463 9:-0.981036 10:-0.135089 11:-0.132496 12:0.750117 13:0.74359 
8 1:-0.975033 2:-0.197697 3:-0.971434 4:-0.0445205 5:-0.971175 6:-0.0166945 7:-0.971221 8:-0.02267 9:-0.970713 10:-0.0314359 11:-0.325703 12:0.456138 13:0.440559 
8 1:-0.981006 2:-0.268714 3:-0.979683 4:-0.126712 5:-0.979646 6:-0.0984975 7:-0.979688 8:-0.104954 9:-0.975771 10:-0.075616 11:-0.359631 12:0.277089 13:0.269231 
8 1:-0.992068 2:-0.485605 3:-0.99173 4:-0.339041 5:-0.99154 6:-0.30217 7:-0.991504 8:-0.308144 9:-0.99132 10:-0.318607 11:-0.0477005 12:0.837795 13:0.82906 
8 1:-0.993258 2:-0.522073 3:-0.991376 4:-0.328767 5:-0.99196 6:-0.313856 7:-0.992333 8:-0.331654 9:-0.989425 10:-0.272727 11:-0.356503 12:1 13:1 
8 1:-0.918141 2:0.119002 3:-0.913961 4:0.224315 5:-0.913896 6:0.24374 7:-0.913993 8:0.239295 9:-0.907723 10:0.247239 11:-0.370958 12:1 13:1 
8 1:-0.961914 2:-0.0863724 3:-0.960759 4:0.0325342 5:-0.960299 6:0.0584307 7:-0.96035 8:0.0528967 9:-0.960479 10:0.0416313 11:-0.386746 12:0.219776 13:0.211045 
8 1:-0.957571 2:-0.0575816 3:-0.956477 4:0.0582192 5:-0.956173 6:0.081803 7:-0.956229 8:0.0780856 9:-0.956613 10:0.0637213 11:-0.314198 12:0.889933 13:0.88604 
8 1:-0.961648 2:-0.084453 3:-0.964929 4:0.00513699 5:-0.964798 6:0.0300501 7:-0.964857 8:0.0243493 9:-0.954512 10:0.075616 11:-0.443078 12:0.743176 13:0.72028 
8 1:-0.979279 2:-0.247601 3:-0.977271 4:-0.0993151 5:-0.977172 6:-0.0717863 7:-0.977216 8:-0.0780856 9:-0.971376 10:-0.0365336 11:-0.102287 12:1 13:1 
8 1:-0.968818 2:-0.140115 3:-0.968907 4:-0.0239726 5:-0.971351 6:-0.0183639 7:-0.97167 8:-0.0260285 9:-0.970586 10:-0.0297366 11:-0.304276 12:0.871588 13:0.866221 
8 1:-0.959205 2:-0.0690979 3:-0.95653 4:0.0582192 5:-0.956499 6:0.0801336 7:-0.956617 8:0.0747271 9:-0.957707 10:0.0586236 11:-0.337364 12:0.359608 13:0.352227 
8 1:-0.972211 2:-0.170825 3:-0.969155 4:-0.0256849 5:-0.969205 6:-0.00166945 7:-0.969341 8:-0.00755668 9:-0.968052 10:-0.00934579 11:-0.303753 12:0.253606 13:0.24894 
8 1:-0.964001 2:-0.101727 3:-0.961015 4:0.0308219 5:-0.960897 6:0.0550918 7:-0.960934 8:0.0495382 9:-0.962356 10:0.0297366 11:-0.292536 12:1 13:1 
8 1:-0.990417 2:-0.439539 3:-0.988171 4:-0.255137 5:-0.988195 6:-0.225376 7:-0.988335 8:-0.235936 9:-0.987872 10:-0.240442 11:-0.370958 12:1 13:1 
8 1:-0.962644 2:-0.0921305 3:-0.960405 4:0.0342466 5:-0.959176 6:0.0651085 7:-0.959229 8:0.0596138 9:-0.966885 10:-0.000849618 11:-0.260876 12:0.67214 13:0.665552 
8 1:-0.972523 2:-0.172745 3:-0.972403 4:-0.0530822 5:-0.972002 6:-0.0233723 7:-0.972062 8:-0.0293871 9:-0.97123 10:-0.0348343 11:-0.323092 12:0.431036 13:0.423077 
8 1:-0.974554 2:-0.193858 3:-0.972501 4:-0.0530822 5:-0.972733 6:-0.0300501 7:-0.972911 8:-0.0377834 9:-0.975351 10:-0.0722175 11:-0.206023 12:0.531017 13:0.521368 
8 1:-0.957341 2:-0.0575816 3:-0.955594 4:0.0633562 5:-0.955489 6:0.0868114 7:-0.955554 8:0.0814442 9:-0.954585 10:0.075616 11:-0.388268 12:1 13:1 
8 1:-0.975609 2:-0.205374 3:-0.971225 4:-0.0428082 5:-0.971507 6:-0.0200334 7:-0.971551 8:-0.0260285 9:-0.971186 10:-0.0348343 11:-0.301168 12:1 13:1 
8 1:-0.982816 2:-0.295585 3:-0.974315 4:-0.0702055 5:-0.973795 6:-0.0400668 7:-0.973843 8:-0.0461797 9:-0.972238 10:-0.0433305 11:-0.448281 12:0.818713 13:0.807692 
8 1:-0.986704 2:-0.360845 3:-0.985905 4:-0.214041 5:-0.985016 6:-0.170284 7:-0.985026 8:-0.177162 9:-0.984554 10:-0.182668 11:-0.261279 12:-0.0659154 13:-0.0722611 
8 1:-0.979391 2:-0.247601 3:-0.978909 4:-0.118151 5:-0.978024 6:-0.081803 7:-0.978238 8:-0.0898405 9:-0.975374 10:-0.0722175 11:-0.305975 12:0.194507 13:0.186561 
8 1:-0.963979 2:-0.101727 3:-0.960242 4:0.0359589 5:-0.960131 6:0.0601002 7:-0.960165 8:0.054576 9:-0.961035 10:0.0382328 11:-0.370958 12:1 13:1 
8 1:-0.970949 2:-0.159309 3:-0.970117 4:-0.0342466 5:-0.970029 6:-0.00834725 7:-0.970081 8:-0.0142737 9:-0.968138 10:-0.011045 11:-0.370958 12:1 13:1 
8 1:-0.974387 2:-0.191939 3:-0.973669 4:-0.0650685 5:-0.972675 6:-0.0300501 7:-0.972723 8:-0.0361041 9:-0.969407 10:-0.0195412 11:-0.393517 12:0.859914 13:0.85348 
8 1:-0.984081 2:-0.314779 3:-0.982998 4:-0.169521 5:-0.982671 6:-0.136895 7:-0.98278 8:-0.143577 9:-0.982189 10:-0.148683 11:-0.283555 12:-0.122208 13:-0.126524 
8 1:-0.855228 2:0.274472 3:-0.846416 4:0.366438 5:-0.846319 6:0.382304 7:-0.846435 8:0.378673 9:-0.844645 10:0.374681 11:-0.233742 12:0.818713 13:0.81352 
8 1:-0.974464 2:-0.191939 3:-0.972734 4:-0.0565068 5:-0.973225 6:-0.0350584 7:-0.973271 8:-0.0411419 9:-0.973814 10:-0.0569244 11:-0.331881 12:0.27485 13:0.261538 
8 1:-0.995048 2:-0.591171 3:-0.993773 4:-0.402397 5:-0.993665 6:-0.367279 7:-0.993696 8:-0.375315 9:-0.991078 10:-0.31181 11:-0.337013 12:1 13:1 
8 1:-0.989555 2:-0.418426 3:-0.988779 4:-0.267123 5:-0.987967 6:-0.222037 7:-0.988002 8:-0.229219 9:-0.987233 10:-0.228547 11:-0.281185 12:0.743176 13:0.72028 
8 1:-0.985954 2:-0.345489 3:-0.984679 4:-0.193493 5:-0.985255 6:-0.175292 7:-0.98529 8:-0.180521 9:-0.983982 10:-0.174172 11:-0.355137 12:0.333646 13:0.316239 
8 1:-0.945473 2:0.00959693 3:-0.944663 4:0.116438 5:-0.944588 6:0.138564 7:-0.944652 8:0.133501 9:-0.91251 10:0.235344 11:-0.370958 12:1 13:1 
8 1:-0.943845 2:0.0172745 3:-0.939729 4:0.136986 5:-0.939654 6:0.158598 7:-0.939706 8:0.153652 9:-0.937112 10:0.153781 11:-0.14965 12:1 13:1 
8 1:-0.992333 2:-0.493282 3:-0.990839 4:-0.315068 5:-0.990728 6:-0.282137 7:-0.991262 8:-0.301427 9:-0.990753 10:-0.303314 11:-0.137048 12:0.486352 13:0.472527 
8 1:-0.983049 2:-0.299424 3:-0.982313 4:-0.159247 5:-0.981888 6:-0.126878 7:-0.982552 8:-0.141898 9:-0.983282 10:-0.163976 11:-0.373966 12:0.506898 13:0.497645 
8 1:-0.967556 2:-0.130518 3:-0.965542 4:0.00171233 5:-0.965025 6:0.0283806 7:-0.966309 8:0.0142737 9:-0.963415 10:0.0229397 11:-0.367165 12:-0.00394767 13:-0.00998238 
8 1:-0.997066 2:-0.694818 3:-0.996209 4:-0.511986 5:-0.9961 6:-0.474124 7:-0.996131 8:-0.482788 9:-0.995895 10:-0.485132 11:-0.370958 12:1 13:1 
8 1:-0.997461 2:-0.721689 3:-0.996456 4:-0.525685 5:-0.996474 6:-0.495826 7:-0.996735 8:-0.518052 9:-0.996541 10:-0.520816 11:-0.263844 12:1 13:1 
8 1:-0.959954 2:-0.0729367 3:-0.957224 4:0.0530822 5:-0.957504 6:0.0751252 7:-0.957562 8:0.0696893 9:-0.957521 10:0.0586236 11:-0.286413 12:1 13:1 
8 1:-0.97319 2:-0.180422 3:-0.973108 4:-0.0599315 5:-0.972593 6:-0.0283806 7:-0.972474 8:-0.0327456 9:-0.971985 10:-0.0416313 11:-0.381246 12:0.339596 13:0.331104 
8 1:-0.98937 2:-0.414587 3:-0.987218 4:-0.236301 5:-0.986435 6:-0.193656 7:-0.988236 8:-0.232578 9:-0.989834 10:-0.281223 11:-0.0246092 12:0.837795 13:0.83368 
8 1:-0.831502 2:0.316699 3:-0.830791 4:0.390411 5:-0.83082 6:0.405676 7:-0.830836 8:0.402183 9:-0.809114 10:0.425658 11:-0.370958 12:1 13:1 
8 1:-0.987572 2:-0.3762 3:-0.98728 4:-0.238014 5:-0.987149 6:-0.207012 7:-0.987182 8:-0.214106 9:-0.987158 10:-0.226848 11:-0.133581 12:0.703665 13:0.698341 
8 1:-0.987333 2:-0.372361 3:-0.984973 4:-0.19863 5:-0.984921 6:-0.168614 7:-0.984908 8:-0.175483 9:-0.983226 10:-0.163976 11:-0.284423 12:0.033646 13:0.026956 
8 1:-0.971362 2:-0.163148 3:-0.969447 4:-0.0291096 5:-0.969291 6:-0.00166945 7:-0.969266 8:-0.00755668 9:-0.967025 10:-0.00254885 11:-0.326953 12:-0.0601687 13:-0.0627124 
8 1:-0.938821 2:0.0403071 3:-0.925039 4:0.190068 5:-0.924971 6:0.210351 7:-0.925063 8:0.205709 9:-0.925646 10:0.194562 11:-0.370958 12:1 13:1 
8 1:-0.986806 2:-0.362764 3:-0.98236 4:-0.160959 5:-0.982188 6:-0.130217 7:-0.982228 8:-0.13686 9:-0.981303 10:-0.138488 11:-0.322126 12:0.871588 13:0.866221 
8 1:-0.989913 2:-0.428023 3:-0.987212 4:-0.236301 5:-0.987385 6:-0.210351 7:-0.987419 8:-0.217464 9:-0.987774 10:-0.238743 11:-0.345585 12:0.506898 13:0.497645 
8 1:-0.984681 2:-0.324376 3:-0.981798 4:-0.152397 5:-0.981523 6:-0.12187 7:-0.981394 8:-0.126784 9:-0.980964 10:-0.13339 11:-0.386929 12:0.46402 13:0.452991 
8 1:-0.984908 2:-0.328215 3:-0.984516 4:-0.191781 5:-0.984939 6:-0.170284 7:-0.984772 8:-0.173804 9:-0.9851 10:-0.191164 11:-0.308716 12:0.343205 13:0.333333 
8 1:-0.981141 2:-0.270633 3:-0.979249 4:-0.121575 5:-0.978706 6:-0.0884808 7:-0.97879 8:-0.0948783 9:-0.977635 10:-0.0960068 11:-0.314217 12:0.606568 13:0.598662 
8 1:-0.980723 2:-0.264875 3:-0.981878 4:-0.15411 5:-0.982964 6:-0.140234 7:-0.983005 8:-0.146935 9:-0.983115 10:-0.162277 11:-0.262239 12:1 13:1 
8 1:-0.981993 2:-0.284069 3:-0.98082 4:-0.140411 5:-0.980016 6:-0.103506 7:-0.980046 8:-0.109992 9:-0.978785 10:-0.107901 11:-0.351698 12:0.476661 13:0.467456 
8 1:-0.984852 2:-0.326296 3:-0.98378 4:-0.179795 5:-0.983953 6:-0.155259 7:-0.984231 8:-0.165407 9:-0.982599 10:-0.15548 11:-0.263123 12:0.546781 13:0.5338 
8 1:-0.983162 2:-0.299424 3:-0.982688 4:-0.164384 5:-0.982873 6:-0.140234 7:-0.982823 8:-0.145256 9:-0.98223 10:-0.150382 11:-0.332548 12:1 13:1 
8 1:-0.974613 2:-0.193858 3:-0.971473 4:-0.0445205 5:-0.971372 6:-0.0183639 7:-0.971421 8:-0.0243493 9:-0.957715 10:0.0586236 11:-0.370958 12:1 13:1 
8 1:-0.872891 2:0.239923 3:-0.872282 4:0.321918 5:-0.871781 6:0.338898 7:-0.87185 8:0.335013 9:-0.82575 10:0.401869 11:-0.370958 12:1 13:1 
8 1:-0.988968 2:-0.40691 3:-0.987849 4:-0.248288 5:-0.987742 6:-0.217028 7:-0.987778 8:-0.224181 9:-0.98699 10:-0.223449 11:-0.370958 12:1 13:1 
8 1:-0.984612 2:-0.322457 3:-0.982187 4:-0.157534 5:-0.98218 6:-0.130217 7:-0.981546 8:-0.128463 9:-0.981239 10:-0.136788 11:-0.26934 12:0.620691 13:0.615385 
8 1:-0.976669 2:-0.216891 3:-0.977256 4:-0.0993151 5:-0.977675 6:-0.0767947 7:-0.977714 8:-0.0831234 9:-0.978495 10:-0.104503 11:-0.289247 12:1 13:1 
8 1:-0.993718 2:-0.537428 3:-0.99287 4:-0.371575 5:-0.992765 6:-0.337229 7:-0.9928 8:-0.345088 9:-0.992346 10:-0.345794 11:-0.370958 12:1 13:1 
8 1:-0.997632 2:-0.733205 3:-0.996698 4:-0.541096 5:-0.996168 6:-0.477462 7:-0.996174 8:-0.484467 9:-0.995941 10:-0.486831 11:-0.412544 12:1 13:1 
8 1:-0.926482 2:0.0902111 3:-0.914292 4:0.222603 5:-0.912621 6:0.247078 7:-0.912698 8:0.242653 9:-0.925785 10:0.194562 11:-0.294973 12:0.706487 13:0.692308 
8 1:-0.884734 2:0.213052 3:-0.876386 4:0.313356 5:-0.876261 6:0.330551 7:-0.87636 8:0.326616 9:-0.871096 10:0.328802 11:-0.370958 12:1 13:1 
8 1:-0.891263 2:0.197697 3:-0.890393 4:0.284247 5:-0.890294 6:0.30217 7:-0.890382 8:0.298069 9:-0.887646 10:0.294817 11:-0.529674 12:1 13:1 
8 1:-0.988846 2:-0.403071 3:-0.987038 4:-0.232877 5:-0.986689 6:-0.198664 7:-0.986955 8:-0.209068 9:-0.973868 10:-0.0586236 11:-0.237953 12:0.0425209 13:0.0393996 
8 1:-0.976377 2:-0.213052 3:-0.974502 4:-0.0719178 5:-0.974399 6:-0.0450751 7:-0.974444 8:-0.0512175 9:-0.974322 10:-0.0620221 11:-0.300125 12:0.321985 13:0.309262 
8 1:-0.98153 2:-0.276392 3:-0.97911 4:-0.119863 5:-0.97961 6:-0.0984975 7:-0.979354 8:-0.101595 9:-0.975638 10:-0.075616 11:-0.259042 12:0.149032 13:0.144014 
8 1:-0.977792 2:-0.228407 3:-0.97411 4:-0.0684932 5:-0.974612 6:-0.0467446 7:-0.974643 8:-0.0528967 9:-0.972847 10:-0.0484282 11:-0.370958 12:1 13:1 
8 1:-0.976031 2:-0.209213 3:-0.975247 4:-0.0787671 5:-0.975364 6:-0.0534224 7:-0.975635 8:-0.0629723 9:-0.978422 10:-0.104503 11:-0.337678 12:0.818713 13:0.807692 
8 1:-0.986214 2:-0.351248 3:-0.981239 4:-0.145548 5:-0.98155 6:-0.12187 7:-0.981733 8:-0.130143 9:-0.981658 10:-0.141886 11:0.0437046 12:1 13:1 
8 1:-0.967294 2:-0.126679 3:-0.965063 4:0.00342466 5:-0.963567 6:0.0383973 7:-0.963623 8:0.0327456 9:-0.962969 10:0.0263381 11:-0.370382 12:0.89727 13:0.893899 
8 1:-0.971535 2:-0.165067 3:-0.969179 4:-0.0256849 5:-0.968473 6:0.00500835 7:-0.968506 8:-0.000839631 9:-0.966932 10:-0.000849618 11:-0.132741 12:0.559731 13:0.551282 
8 1:-0.973317 2:-0.180422 3:-0.968546 4:-0.0205479 5:-0.968552 6:0.0033389 7:-0.968602 8:-0.00251889 9:-0.971186 10:-0.0348343 11:-0.220722 12:0.859914 13:0.85348 
8 1:-0.980588 2:-0.262956 3:-0.974007 4:-0.0667808 5:-0.972471 6:-0.0283806 7:-0.97222 8:-0.0310663 9:-0.973272 10:-0.0518267 11:-0.229481 12:0.57196 13:0.56044 
8 1:-0.986757 2:-0.360845 3:-0.985921 4:-0.214041 5:-0.984609 6:-0.165275 7:-0.984606 8:-0.170445 9:-0.983999 10:-0.174172 11:-0.275331 12:0.0411911 13:0.020979 
8 1:-0.982763 2:-0.293666 3:-0.980395 4:-0.135274 5:-0.980179 6:-0.105175 7:-0.980218 8:-0.111671 9:-0.97976 10:-0.119796 11:-0.279236 12:0.327589 13:0.316239 
8 1:-0.97959 2:-0.25144 3:-0.977793 4:-0.104452 5:-0.977558 6:-0.0767947 7:-0.97762 8:-0.0831234 9:-0.978809 10:-0.107901 11:-0.26057 12:-0.103959 13:-0.110468 
8 1:-0.986524 2:-0.357006 3:-0.984617 4:-0.193493 5:-0.985589 6:-0.180301 7:-0.985699 8:-0.187238 9:-0.98453 10:-0.182668 11:-0.236129 12:0.521776 13:0.51417 
8 1:-0.854351 2:0.276392 3:-0.853994 4:0.354452 5:-0.853958 6:0.370618 7:-0.85408 8:0.366919 9:-0.846804 10:0.371283 11:-0.370958 12:1 13:1 
8 1:-0.997066 2:-0.694818 3:-0.996209 4:-0.511986 5:-0.9961 6:-0.474124 7:-0.996131 8:-0.482788 9:-0.995895 10:-0.485132 11:-0.370958 12:1 13:1 
8 1:-0.981046 2:-0.270633 3:-0.977852 4:-0.106164 5:-0.978513 6:-0.0868114 7:-0.978582 8:-0.093199 9:-0.978617 10:-0.106202 11:-0.243349 12:0.147563 13:0.130435 
8 1:-0.986837 2:-0.362764 3:-0.984571 4:-0.191781 5:-0.985137 6:-0.171953 7:-0.985083 8:-0.178841 9:-0.98465 10:-0.184367 11:-0.304803 12:0.657568 13:0.648352 
8 1:-0.981965 2:-0.28215 3:-0.981997 4:-0.155822 5:-0.982241 6:-0.131886 7:-0.982304 8:-0.138539 9:-0.982567 10:-0.153781 11:-0.237761 12:0.876725 13:0.871795 
8 1:-0.969413 2:-0.145873 3:-0.969537 4:-0.0291096 5:-0.97219 6:-0.0250417 7:-0.972214 8:-0.0310663 9:-0.973832 10:-0.0569244 11:-0.338764 12:0.666823 13:0.65812 
8 1:-0.987829 2:-0.381958 3:-0.9862 4:-0.219178 5:-0.986309 6:-0.191987 7:-0.986554 8:-0.202351 9:-0.985674 10:-0.201359 11:-0.242163 12:0.0474171 13:0.0402258 
8 1:-0.987417 2:-0.37428 3:-0.985104 4:-0.200342 5:-0.984821 6:-0.168614 7:-0.984713 8:-0.172124 9:-0.982893 10:-0.158879 11:-0.285457 12:0.0517274 13:0.040959 
8 1:-0.993718 2:-0.537428 3:-0.99287 4:-0.371575 5:-0.992765 6:-0.337229 7:-0.9928 8:-0.345088 9:-0.992346 10:-0.345794 11:-0.370958 12:1 13:1 
8 1:-0.956728 2:-0.0537428 3:-0.955945 4:0.0599315 5:-0.953728 6:0.0951586 7:-0.953142 8:0.093199 9:-0.947415 10:0.1113 11:-0.260099 12:0.622626 13:0.615385 
8 1:-0.989566 2:-0.420345 3:-0.987226 4:-0.236301 5:-0.986806 6:-0.200334 7:-0.986552 8:-0.202351 9:-0.987994 10:-0.242141 11:-0.10515 12:0.27485 13:0.267399 
8 1:-0.988286 2:-0.391555 3:-0.98772 4:-0.246575 5:-0.987157 6:-0.207012 7:-0.987157 8:-0.212427 9:-0.98648 10:-0.214953 11:-0.280518 12:0.510812 13:0.503722 
8 1:-0.978809 2:-0.241843 3:-0.974466 4:-0.0719178 5:-0.97279 6:-0.0300501 7:-0.972581 8:-0.0344249 9:-0.971874 10:-0.039932 11:-0.326527 12:-0.0935724 13:-0.10971 
8 1:-0.989338 2:-0.414587 3:-0.98714 4:-0.236301 5:-0.987296 6:-0.208681 7:-0.987541 8:-0.220823 9:-0.985825 10:-0.203059 11:-0.356751 12:0.787456 13:0.78022 
8 1:-0.984079 2:-0.314779 3:-0.983417 4:-0.174658 5:-0.982619 6:-0.136895 7:-0.982652 8:-0.141898 9:-0.981908 10:-0.145285 11:-0.301276 12:-0.0979218 13:-0.103048 
8 1:-0.979564 2:-0.25144 3:-0.978713 4:-0.114726 5:-0.978749 6:-0.0884808 7:-0.97878 8:-0.0948783 9:-0.9771 10:-0.0892099 11:-0.370958 12:1 13:1 
8 1:-0.981986 2:-0.28215 3:-0.979517 4:-0.125 5:-0.979409 6:-0.096828 7:-0.979447 8:-0.103275 9:-0.979084 10:-0.1113 11:-0.246888 12:1 13:1 
8 1:-0.982062 2:-0.284069 3:-0.981086 4:-0.143836 5:-0.981424 6:-0.1202 7:-0.981464 8:-0.126784 9:-0.981614 10:-0.141886 11:-0.339293 12:0.845906 13:0.838057 
8 1:-0.997132 2:-0.698656 3:-0.99606 4:-0.503425 5:-0.995364 6:-0.437396 7:-0.995104 8:-0.43241 9:-0.994799 10:-0.434155 11:-0.370958 12:0.589082 13:0.56044 
8 1:-0.989536 2:-0.418426 3:-0.986878 4:-0.231164 5:-0.98608 6:-0.188648 7:-0.986109 8:-0.193955 9:-0.985177 10:-0.192863 11:-0.315695 12:0.351182 13:0.34359 
8 1:-0.981344 2:-0.274472 3:-0.979286 4:-0.121575 5:-0.976794 6:-0.0684474 7:-0.976822 8:-0.0747271 9:-0.976038 10:-0.0790144 11:-0.221046 12:0.762932 13:0.74359 
8 1:-0.980947 2:-0.268714 3:-0.978625 4:-0.114726 5:-0.978678 6:-0.0884808 7:-0.978677 8:-0.093199 9:-0.975123 10:-0.0705183 11:-0.28502 12:-0.138531 13:-0.143984 
8 1:-0.991075 2:-0.456814 3:-0.990099 4:-0.296233 5:-0.990674 6:-0.280467 7:-0.990621 8:-0.286314 9:-0.989978 10:-0.284622 11:-0.263108 12:0.845906 13:0.838057 
8 1:-0.981218 2:-0.272553 3:-0.980781 4:-0.140411 5:-0.980636 6:-0.110184 7:-0.980313 8:-0.11335 9:-0.980619 10:-0.129992 11:-0.223602 12:0.545296 13:0.538462 
8 1:-0.98008 2:-0.257198 3:-0.976936 4:-0.0958904 5:-0.976782 6:-0.0684474 7:-0.976704 8:-0.0730479 9:-0.9755 10:-0.0739167 11:-0.310044 12:0.0576052 13:0.0512821 
8 1:-0.969871 2:-0.149712 3:-0.965941 4:-0.00171233 5:-0.965785 6:0.0233723 7:-0.965837 8:0.0176322 9:-0.964224 10:0.017842 11:-0.2115 12:0.876725 13:0.871795 
8 1:-0.968463 2:-0.136276 3:-0.964619 4:0.00684932 5:-0.964217 6:0.0350584 7:-0.964255 8:0.0293871 9:-0.964704 10:0.0144435 11:-0.337974 12:0.719829 13:0.692308 
8 1:-0.988872 2:-0.403071 3:-0.988143 4:-0.255137 5:-0.986577 6:-0.196995 7:-0.986782 8:-0.205709 9:-0.986153 10:-0.209856 11:-0.274985 12:-0.208583 13:-0.218583 
8 1:-0.957612 2:-0.0575816 3:-0.956791 4:0.0565068 5:-0.956714 6:0.0801336 7:-0.956778 8:0.0747271 9:-0.953964 10:0.0790144 11:-0.370958 12:1 13:1 
8 1:-0.961024 2:-0.0806142 3:-0.962816 4:0.0188356 5:-0.962434 6:0.0450751 7:-0.962487 8:0.0411419 9:-0.967741 10:-0.00764656 11:-0.285081 12:1 13:1 
8 1:-0.96623 2:-0.119002 3:-0.961177 4:0.0291096 5:-0.961092 6:0.0534224 7:-0.961149 8:0.0495382 9:-0.955314 10:0.0722175 11:-0.238506 12:0.594489 13:0.5842 
8 1:-0.973268 2:-0.180422 3:-0.971496 4:-0.0445205 5:-0.971418 6:-0.0183639 7:-0.971089 8:-0.0209908 9:-0.969233 10:-0.0195412 11:-0.344815 12:0.268052 13:0.259981 
8 1:-0.975563 2:-0.203455 3:-0.972262 4:-0.0513699 5:-0.971705 6:-0.0217028 7:-0.971749 8:-0.0277078 9:-0.968816 10:-0.0161427 11:-0.247972 12:0.0837637 13:0.0727081 
8 1:-0.980542 2:-0.262956 3:-0.978481 4:-0.113014 5:-0.978715 6:-0.0884808 7:-0.978723 8:-0.0948783 9:-0.977768 10:-0.0960068 11:-0.265654 12:0.134302 13:0.125874 
8 1:-0.994261 2:-0.558541 3:-0.993357 4:-0.388699 5:-0.993152 6:-0.350584 7:-0.993179 8:-0.358522 9:-0.992762 10:-0.359388 11:-0.343121 12:1 13:1 
8 1:-0.980457 2:-0.262956 3:-0.97952 4:-0.125 5:-0.978414 6:-0.0851419 7:-0.978354 8:-0.0898405 9:-0.978941 10:-0.109601 11:-0.232584 12:0.146978 13:0.140679 
8 1:-0.983592 2:-0.307102 3:-0.980911 4:-0.142123 5:-0.979732 6:-0.100167 7:-0.979724 8:-0.106633 9:-0.97841 10:-0.104503 11:-0.326495 12:-0.157836 13:-0.162393 
8 1:-0.996739 2:-0.675624 3:-0.996017 4:-0.501712 5:-0.995245 6:-0.430718 7:-0.995274 8:-0.439127 9:-0.994981 10:-0.440952 11:-0.285288 12:0.657568 13:0.615385 
8 1:-0.978338 2:-0.236084 3:-0.975048 4:-0.0770548 5:-0.974941 6:-0.0500835 7:-0.974983 8:-0.0562552 9:-0.973725 10:-0.0569244 11:-0.226558 12:0.743176 13:0.72028 
8 1:-0.970683 2:-0.15547 3:-0.966991 4:-0.010274 5:-0.967275 6:0.0133556 7:-0.967313 8:0.00755668 9:-0.968831 10:-0.0161427 11:-0.220111 12:0.762932 13:0.753846 
8 1:-0.99121 2:-0.460653 3:-0.990232 4:-0.299658 5:-0.989852 6:-0.260434 7:-0.989681 8:-0.264484 9:-0.989507 10:-0.274427 11:-0.299636 12:0.500235 13:0.487179 
8 1:-0.965903 2:-0.117083 3:-0.965155 4:0.00342466 5:-0.96506 6:0.0283806 7:-0.965113 8:0.02267 9:-0.956451 10:0.0654206 11:-0.479661 12:1 13:1 
8 1:-0.980334 2:-0.261036 3:-0.979702 4:-0.126712 5:-0.979003 6:-0.0918197 7:-0.979044 8:-0.0982368 9:-0.978494 10:-0.104503 11:-0.345421 12:-0.0272953 13:-0.0526316 
8 1:-0.961239 2:-0.0825336 3:-0.955157 4:0.0650685 5:-0.954695 6:0.0901503 7:-0.954749 8:0.0848027 9:-0.954526 10:0.075616 11:-0.254168 12:1 13:1 
8 1:-0.970001 2:-0.149712 3:-0.969875 4:-0.0325342 5:-0.96842 6:0.00500835 7:-0.968469 8:-0.000839631 9:-0.96918 10:-0.017842 11:-0.342387 12:0.315136 13:0.289941 
8 1:-0.987011 2:-0.366603 3:-0.985585 4:-0.208904 5:-0.985638 6:-0.180301 7:-0.985568 8:-0.185558 9:-0.984943 10:-0.189465 11:-0.247444 12:0.028536 13:0.0194421 
8 1:-0.986662 2:-0.358925 3:-0.984466 4:-0.190068 5:-0.984426 6:-0.161937 7:-0.984479 8:-0.168766 9:-0.98359 10:-0.169074 11:-0.259455 12:-0.283071 13:-0.286255 
8 1:-0.970279 2:-0.153551 3:-0.967915 4:-0.0171233 5:-0.968112 6:0.0066778 7:-0.968111 8:0.000839631 9:-0.967728 10:-0.00764656 11:-0.209223 12:0.585131 13:0.577677 
8 1:-0.976753 2:-0.216891 3:-0.97595 4:-0.0856164 5:-0.975743 6:-0.0584307 7:-0.97579 8:-0.0646516 9:-0.976262 10:-0.0807137 11:-0.342417 12:0.375293 13:0.367756 
8 1:-0.925455 2:0.0940499 3:-0.919779 4:0.207192 5:-0.919719 6:0.227045 7:-0.919813 8:0.222502 9:-0.910967 10:0.238743 11:-0.445469 12:1 13:1 
8 1:-0.96162 2:-0.084453 3:-0.959015 4:0.0428082 5:-0.958917 6:0.066778 7:-0.958966 8:0.061293 9:-0.951056 10:0.0926083 11:-0.327693 12:1 13:1 
8 1:-0.985683 2:-0.341651 3:-0.982517 4:-0.162671 5:-0.982257 6:-0.131886 7:-0.982293 8:-0.138539 9:-0.980355 10:-0.126593 11:-0.185577 12:0.681184 13:0.67033 
8 1:-0.975112 2:-0.199616 3:-0.972159 4:-0.0513699 5:-0.97411 6:-0.0417362 7:-0.974275 8:-0.0495382 9:-0.973691 10:-0.0569244 11:-0.282712 12:0.466597 13:0.457014 
8 1:-0.97613 2:-0.211132 3:-0.974717 4:-0.0736301 5:-0.974693 6:-0.048414 7:-0.974719 8:-0.0528967 9:-0.972148 10:-0.0433305 11:-0.340941 12:0.093563 13:0.0842491 
8 1:-0.984005 2:-0.31286 3:-0.981939 4:-0.15411 5:-0.981203 6:-0.118531 7:-0.981247 8:-0.125105 9:-0.979016 10:-0.1113 11:-0.307342 12:-0.224311 13:-0.230769 
8 1:-0.989842 2:-0.426104 3:-0.988848 4:-0.268836 5:-0.989006 6:-0.24207 7:-0.989049 8:-0.24937 9:-0.988197 10:-0.247239 11:-0.289654 12:0.876725 13:0.871795 
8 1:-0.963439 2:-0.0978887 3:-0.959637 4:0.0393836 5:-0.960819 6:0.0550918 7:-0.960875 8:0.0512175 9:-0.961419 10:0.0365336 11:-0.20237 12:1 13:1 
8 1:-0.993754 2:-0.539347 3:-0.991602 4:-0.335616 5:-0.991176 6:-0.293823 7:-0.991333 8:-0.303107 9:-0.990752 10:-0.303314 11:-0.242133 12:0.57196 13:0.56044 
8 1:-0.986129 2:-0.349328 3:-0.985654 4:-0.208904 5:-0.985165 6:-0.173623 7:-0.985275 8:-0.180521 9:-0.984113 10:-0.175871 11:-0.247597 12:0.496835 13:0.487179 
8 1:-0.980248 2:-0.259117 3:-0.978239 4:-0.109589 5:-0.977787 6:-0.0784641 7:-0.977797 8:-0.0848027 9:-0.976636 10:-0.0841121 11:-0.227292 12:-0.00254118 13:-0.00699301 
8 1:-0.998192 2:-0.777351 3:-0.997206 4:-0.575342 5:-0.997313 6:-0.552588 7:-0.99694 8:-0.531486 9:-0.996756 10:-0.53441 11:-0.163553 12:1 13:1 
8 1:-0.990004 2:-0.429942 3:-0.987445 4:-0.241438 5:-0.987157 6:-0.207012 7:-0.987194 8:-0.214106 9:-0.987136 10:-0.226848 11:-0.238822 12:0.559731 13:0.538462 
8 1:-0.959923 2:-0.0729367 3:-0.955762 4:0.0616438 5:-0.953721 6:0.0951586 7:-0.953734 8:0.0898405 9:-0.951398 10:0.0909091 11:-0.298086 12:1 13:1 
8 1:-0.978773 2:-0.239923 3:-0.975097 4:-0.0770548 5:-0.974827 6:-0.048414 7:-0.975311 8:-0.0596138 9:-0.976199 10:-0.0807137 11:-0.298773 12:0.53481 13:0.526627 
8 1:-0.983213 2:-0.301344 3:-0.981591 4:-0.150685 5:-0.981491 6:-0.12187 7:-0.981533 8:-0.128463 9:-0.980308 10:-0.124894 11:-0.354731 12:1 13:1 
8 1:-0.993472 2:-0.52975 3:-0.993173 4:-0.381849 5:-0.993001 6:-0.345576 7:-0.993032 8:-0.353484 9:-0.992544 10:-0.352591 11:-0.163433 12:0.866005 13:0.86014 
8 1:-0.985068 2:-0.330134 3:-0.982119 4:-0.157534 5:-0.981858 6:-0.126878 7:-0.981872 8:-0.131822 9:-0.980425 10:-0.126593 11:-0.165454 12:0.218029 13:0.207459 
8 1:-0.839783 2:0.303263 3:-0.835849 4:0.383562 5:-0.835862 6:0.398998 7:-0.836024 8:0.395466 9:-0.837267 10:0.386576 11:-0.426396 12:0.779865 13:0.763314 
8 1:-0.977518 2:-0.226488 3:-0.975717 4:-0.0839041 5:-0.975613 6:-0.0567613 7:-0.975662 8:-0.0629723 9:-0.977342 10:-0.0926083 11:-0.148423 12:1 13:1 
8 1:-0.957077 2:-0.0556622 3:-0.953608 4:0.0736301 5:-0.953619 6:0.096828 7:-0.953673 8:0.0915197 9:-0.952217 10:0.0875106 11:-0.0657622 12:0.849664 13:0.846154 
8 1:-0.979789 2:-0.253359 3:-0.977093 4:-0.0976027 5:-0.976994 6:-0.0701169 7:-0.977028 8:-0.0764064 9:-0.977368 10:-0.0926083 11:-0.266738 12:0.614764 13:0.589744 
1.312313183727543 1:-0.993508 2:-0.53167 3:-0.992374 4:-0.357877 5:-0.992441 6:-0.328881 7:-0.992263 8:-0.329975 9:-0.987926 10:-0.240442 11:0.829617 12:0.719829 13:0.70696 
8 1:-0.989031 2:-0.40691 3:-0.987722 4:-0.246575 5:-0.987523 6:-0.213689 7:-0.987551 8:-0.220823 9:-0.987722 10:-0.237043 11:-0.348316 12:0.159486 13:0.134615 
8 1:-0.985401 2:-0.335893 3:-0.985197 4:-0.202055 5:-0.985095 6:-0.171953 7:-0.985129 8:-0.178841 9:-0.984168 10:-0.17757 11:-0.370958 12:0.743176 13:0.72028 
8 1:-0.986519 2:-0.357006 3:-0.985644 4:-0.208904 5:-0.985331 6:-0.175292 7:-0.985369 8:-0.1822 9:-0.98441 10:-0.180969 11:-0.354778 12:0.525864 13:0.507692 
8 1:-0.977616 2:-0.226488 3:-0.974656 4:-0.0736301 5:-0.973543 6:-0.0367279 7:-0.974053 8:-0.0478589 9:-0.975425 10:-0.0722175 11:-0.312571 12:0.0991411 13:0.0865385 
8 1:-0.976716 2:-0.216891 3:-0.976561 4:-0.0924658 5:-0.9765 6:-0.0651085 7:-0.976536 8:-0.0713686 9:-0.974684 10:-0.0654206 11:-0.270432 12:1 13:1 
8 1:-0.974033 2:-0.1881 3:-0.969767 4:-0.0308219 5:-0.969839 6:-0.0066778 7:-0.969889 8:-0.0125945 9:-0.970352 10:-0.0280374 11:-0.30547 12:0.647784 13:0.638009 
8 1:-0.990045 2:-0.431862 3:-0.985513 4:-0.207192 5:-0.985411 6:-0.176962 7:-0.985436 8:-0.183879 9:-0.984492 10:-0.182668 11:-0.370958 12:1 13:1 
8 1:-0.996407 2:-0.65643 3:-0.994318 4:-0.422945 5:-0.993756 6:-0.370618 7:-0.993723 8:-0.376994 9:-0.993326 10:-0.37808 11:-0.370958 12:1 13:1 
8 1:-0.98955 2:-0.418426 3:-0.986731 4:-0.22774 5:-0.986195 6:-0.190317 7:-0.986206 8:-0.195634 9:-0.985606 10:-0.19966 11:-0.345277 12:0.706487 13:0.692308 
8 1:-0.992687 2:-0.502879 3:-0.991214 4:-0.325342 5:-0.990631 6:-0.278798 7:-0.990663 8:-0.286314 9:-0.990328 10:-0.293118 11:-0.256002 12:0.691811 13:0.681698 
8 1:-0.972568 2:-0.174664 3:-0.971315 4:-0.0428082 5:-0.971056 6:-0.0166945 7:-0.971102 8:-0.02267 9:-0.971474 10:-0.0365336 11:-0.443058 12:0.598015 13:0.589744 
8 1:-0.970886 2:-0.15739 3:-0.967693 4:-0.015411 5:-0.966944 6:0.015025 7:-0.966989 8:0.00923594 9:-0.967573 10:-0.00594732 11:-0.323513 12:0.859914 13:0.856887 
8 1:-0.968257 2:-0.136276 3:-0.966817 4:-0.00856164 5:-0.966344 6:0.0200334 7:-0.966405 8:0.0142737 9:-0.964776 10:0.0144435 11:-0.389986 12:0.0754342 13:0.0652386 
8 1:-0.962774 2:-0.0921305 3:-0.958555 4:0.0462329 5:-0.957604 6:0.0751252 7:-0.957655 8:0.0696893 9:-0.959326 10:0.0484282 11:-0.281706 12:0.837795 13:0.82906 
8 1:-0.950133 2:-0.0153551 3:-0.950109 4:0.0907534 5:-0.950011 6:0.113523 7:-0.950074 8:0.108312 9:-0.949623 10:0.101105 11:-0.424254 12:0.719829 13:0.692308 
8 1:-0.985741 2:-0.341651 3:-0.983599 4:-0.178082 5:-0.983367 6:-0.146912 7:-0.983404 8:-0.153652 9:-0.981853 10:-0.145285 11:-0.322045 12:0.550558 13:0.541735 
8 1:-0.98343 2:-0.305182 3:-0.982431 4:-0.160959 5:-0.980397 6:-0.108514 7:-0.980436 8:-0.115029 9:-0.979074 10:-0.1113 11:-0.345908 12:0.288796 13:0.271255 
8 1:-0.969822 2:-0.149712 3:-0.969168 4:-0.0256849 5:-0.968165 6:0.0066778 7:-0.968211 8:0.000839631 9:-0.96796 10:-0.00934579 11:-0.368129 12:0.453214 13:0.445145 
8 1:-0.987847 2:-0.381958 3:-0.985993 4:-0.215753 5:-0.985291 6:-0.175292 7:-0.985289 8:-0.180521 9:-0.984917 10:-0.189465 11:-0.19516 12:0.19871 13:0.183673 
8 1:-0.985794 2:-0.34357 3:-0.984038 4:-0.184932 5:-0.983961 6:-0.155259 7:-0.983049 8:-0.148615 9:-0.983119 10:-0.162277 11:-0.250915 12:0.909356 13:0.90676 
8 1:-0.984261 2:-0.316699 3:-0.982832 4:-0.167808 5:-0.982626 6:-0.136895 7:-0.982656 8:-0.141898 9:-0.98255 10:-0.153781 11:-0.12368 12:0.576996 13:0.569231 
8 1:-0.972406 2:-0.172745 3:-0.973274 4:-0.0599315 5:-0.974469 6:-0.0450751 7:-0.974357 8:-0.0495382 9:-0.972992 10:-0.0501274 11:-0.362312 12:0.573277 13:0.567308 
8 1:-0.995411 2:-0.606526 3:-0.990105 4:-0.296233 5:-0.990429 6:-0.27379 7:-0.990438 8:-0.281276 9:-0.990047 10:-0.286321 11:-0.370958 12:1 13:1 
8 1:-0.971719 2:-0.165067 3:-0.97416 4:-0.0684932 5:-0.974016 6:-0.0417362 7:-0.97406 8:-0.0478589 9:-0.976896 10:-0.0875106 11:-0.311909 12:0.807382 13:0.794872 
8 1:-0.997066 2:-0.694818 3:-0.996209 4:-0.511986 5:-0.9961 6:-0.474124 7:-0.996131 8:-0.482788 9:-0.995895 10:-0.485132 11:-0.370958 12:1 13:1 
8 1:-0.992469 2:-0.497121 3:-0.991069 4:-0.320205 5:-0.990227 6:-0.270451 7:-0.990256 8:-0.276238 9:-0.989276 10:-0.269329 11:-0.289225 12:0.579743 13:0.570662 
8 1:-0.902803 2:0.166987 3:-0.902011 4:0.256849 5:-0.902026 6:0.275459 7:-0.90213 8:0.271201 9:-0.908882 10:0.24384 11:-0.370958 12:1 13:1 
8 1:-0.981066 2:-0.270633 3:-0.977484 4:-0.10274 5:-0.976873 6:-0.0684474 7:-0.976893 8:-0.0747271 9:-0.975444 10:-0.0722175 11:-0.329777 12:0.853244 13:0.846154 
8 1:-0.989849 2:-0.426104 3:-0.987884 4:-0.25 5:-0.987135 6:-0.207012 7:-0.987275 8:-0.215785 9:-0.986594 10:-0.216653 11:-0.17215 12:0.106253 13:0.0986791 
8 1:-0.997066 2:-0.694818 3:-0.996209 4:-0.511986 5:-0.9961 6:-0.474124 7:-0.996131 8:-0.482788 9:-0.995895 10:-0.485132 11:-0.370958 12:1 13:1 
8 1:-0.954237 2:-0.0383877 3:-0.953354 4:0.0753425 5:-0.953229 6:0.0984975 7:-0.95324 8:0.093199 9:-0.962816 10:0.0263381 11:-0.506668 12:0.743176 13:0.72028 
8 1:-0.991977 2:-0.481766 3:-0.991189 4:-0.32363 5:-0.99178 6:-0.308848 7:-0.991132 8:-0.298069 9:-0.990722 10:-0.301614 11:-0.357355 12:0.637425 13:0.62704 
8 1:-0.945433 2:0.00959693 3:-0.940887 4:0.131849 5:-0.94076 6:0.155259 7:-0.940805 8:0.150294 9:-0.944833 10:0.123195 11:-0.270337 12:0.630174 13:0.615385 
8 1:-0.995908 2:-0.629559 3:-0.992988 4:-0.376712 5:-0.992866 6:-0.340568 7:-0.992713 8:-0.343409 9:-0.992251 10:-0.344095 11:-0.370958 12:1 13:1 
8 1:-0.984086 2:-0.314779 3:-0.982075 4:-0.155822 5:-0.981969 6:-0.126878 7:-0.98201 8:-0.133501 9:-0.97918 10:-0.112999 11:-0.222239 12:1 13:1 
8 1:-0.989292 2:-0.412668 3:-0.988149 4:-0.255137 5:-0.988252 6:-0.227045 7:-0.988289 8:-0.234257 9:-0.985213 10:-0.192863 11:-0.290771 12:1 13:1 
8 1:-0.9859 2:-0.345489 3:-0.982553 4:-0.162671 5:-0.98246 6:-0.133556 7:-0.98299 8:-0.146935 9:-0.984136 10:-0.17757 11:-0.211199 12:0.683909 13:0.676113 
8 1:-0.959386 2:-0.0690979 3:-0.957043 4:0.0547945 5:-0.956947 6:0.0784641 7:-0.957002 8:0.0730479 9:-0.953148 10:0.0824129 11:-0.345452 12:1 13:1 
8 1:-0.971657 2:-0.165067 3:-0.970723 4:-0.0393836 5:-0.969857 6:-0.0066778 7:-0.9699 8:-0.0125945 9:-0.969154 10:-0.017842 11:-0.179714 12:1 13:1 
8 1:-0.994151 2:-0.554702 3:-0.99474 4:-0.440068 5:-0.99489 6:-0.415693 7:-0.992088 8:-0.324937 9:-0.991428 10:-0.320306 11:-0.167857 12:1 13:1 
8 1:-0.980902 2:-0.268714 3:-0.979126 4:-0.119863 5:-0.9778 6:-0.0784641 7:-0.977938 8:-0.0864819 9:-0.977591 10:-0.0943076 11:-0.337914 12:0.0435527 13:0.0339893 
8 1:-0.994435 2:-0.566219 3:-0.991923 4:-0.344178 5:-0.99146 6:-0.300501 7:-0.991484 8:-0.308144 9:-0.990891 10:-0.306712 11:-0.338085 12:0.866005 13:0.86014 
1.507443414661562 1:-0.996824 2:-0.679463 3:-0.996654 4:-0.537671 5:-0.996198 6:-0.479132 7:-0.996228 8:-0.487825 9:-0.995889 10:-0.485132 11:-0.0146409 12:0.853244 13:0.846154 
8 1:-0.973827 2:-0.18618 3:-0.971879 4:-0.0479452 5:-0.971777 6:-0.0217028 7:-0.971827 8:-0.0277078 9:-0.974769 10:-0.0671198 11:-0.41152 12:0.818713 13:0.807692 
8 1:-0.988229 2:-0.389635 3:-0.986761 4:-0.229452 5:-0.985686 6:-0.18197 7:-0.98572 8:-0.188917 9:-0.98387 10:-0.172472 11:-0.0519031 12:0.762932 13:0.753846 
8 1:-0.99326 2:-0.522073 3:-0.994067 4:-0.414384 5:-0.993166 6:-0.350584 7:-0.993193 8:-0.358522 9:-0.992763 10:-0.359388 11:-0.370958 12:1 13:1 
8 1:-0.986118 2:-0.349328 3:-0.985414 4:-0.205479 5:-0.984818 6:-0.166945 7:-0.984689 8:-0.172124 9:-0.984081 10:-0.175871 11:-0.296639 12:0.0043138 13:-0.00178891 
8 1:-0.985928 2:-0.345489 3:-0.985067 4:-0.200342 5:-0.984963 6:-0.170284 7:-0.984999 8:-0.177162 9:-0.983417 10:-0.165675 11:-0.370958 12:1 13:1 
8 1:-0.974952 2:-0.197697 3:-0.971472 4:-0.0445205 5:-0.971079 6:-0.0166945 7:-0.971695 8:-0.0260285 9:-0.971409 10:-0.0365336 11:-0.264033 12:0.093563 13:0.0815155 
8 1:-0.987248 2:-0.370441 3:-0.986157 4:-0.217466 5:-0.985863 6:-0.183639 7:-0.985898 8:-0.190596 9:-0.986905 10:-0.22175 11:-0.164741 12:0.471677 13:0.457014 
8 1:-0.983949 2:-0.31286 3:-0.982546 4:-0.162671 5:-0.981914 6:-0.126878 7:-0.981902 8:-0.133501 9:-0.981482 10:-0.140187 11:-0.33086 12:-0.232754 13:-0.253561 
8 1:-0.983411 2:-0.303263 3:-0.980995 4:-0.142123 5:-0.98016 6:-0.105175 7:-0.980212 8:-0.111671 9:-0.980824 10:-0.131691 11:-0.342793 12:0.0474171 13:0.0402258 
8 1:-0.978389 2:-0.236084 3:-0.971525 4:-0.0445205 5:-0.971464 6:-0.0200334 7:-0.971507 8:-0.0260285 9:-0.973097 10:-0.0518267 11:-0.373678 12:1 13:1 
8 1:-0.991377 2:-0.464491 3:-0.991073 4:-0.320205 5:-0.990584 6:-0.278798 7:-0.990733 8:-0.287993 9:-0.990348 10:-0.293118 11:-0.257222 12:0.828784 13:0.819005 
8 1:-0.984517 2:-0.322457 3:-0.983673 4:-0.178082 5:-0.983731 6:-0.15192 7:-0.983772 8:-0.15869 9:-0.982725 10:-0.157179 11:-0.370958 12:1 13:1 
8 1:-0.975549 2:-0.203455 3:-0.971252 4:-0.0428082 5:-0.970875 6:-0.015025 7:-0.970924 8:-0.0209908 9:-0.972782 10:-0.0484282 11:-0.254436 12:0.477646 13:0.469496 
8 1:-0.97871 2:-0.239923 3:-0.976468 4:-0.0907534 5:-0.97671 6:-0.066778 7:-0.976761 8:-0.0730479 9:-0.976369 10:-0.0824129 11:-0.234776 12:0.240695 13:0.230769 
8 1:-0.991335 2:-0.464491 3:-0.990329 4:-0.303082 5:-0.989675 6:-0.257095 7:-0.989719 8:-0.264484 9:-0.988936 10:-0.260833 11:-0.247679 12:0.138885 13:0.12744 
8 1:-0.991464 2:-0.46833 3:-0.990796 4:-0.313356 5:-0.990852 6:-0.285476 7:-0.990863 8:-0.291352 9:-0.990362 10:-0.293118 11:-0.308716 12:0.513386 13:0.487179 
8 1:-0.985641 2:-0.339731 3:-0.984796 4:-0.195205 5:-0.984695 6:-0.165275 7:-0.984856 8:-0.173804 9:-0.98388 10:-0.172472 11:-0.370958 12:1 13:1 
8 1:-0.9927 2:-0.504798 3:-0.990658 4:-0.309932 5:-0.989294 6:-0.248748 7:-0.989297 8:-0.256087 9:-0.989134 10:-0.26593 11:-0.274369 12:0.403506 13:0.384615 
8 1:-0.98925 2:-0.412668 3:-0.988119 4:-0.253425 5:-0.986255 6:-0.190317 7:-0.986325 8:-0.198992 9:-0.98601 10:-0.206457 11:-0.352428 12:0.456138 13:0.448909 
8 1:-0.971155 2:-0.161228 3:-0.970316 4:-0.0359589 5:-0.969294 6:-0.00166945 7:-0.969371 8:-0.00755668 9:-0.968249 10:-0.011045 11:-0.301523 12:0.283282 13:0.276018 
8 1:-0.919383 2:0.115163 3:-0.918563 4:0.210616 5:-0.918484 6:0.230384 7:-0.918566 8:0.225861 9:-0.919335 10:0.214953 11:-0.370958 12:1 13:1 
8 1:-0.955432 2:-0.0441459 3:-0.962463 4:0.0222603 5:-0.962392 6:0.0467446 7:-0.962446 8:0.0411419 9:-0.973447 10:-0.0535259 11:-0.341183 12:1 13:1 
8 1:-0.993254 2:-0.522073 3:-0.993554 4:-0.395548 5:-0.993206 6:-0.352254 7:-0.992926 8:-0.350126 9:-0.992829 10:-0.361088 11:-0.266893 12:0.823892 13:0.819005 
8 1:-0.922329 2:0.105566 3:-0.921539 4:0.202055 5:-0.921491 6:0.222037 7:-0.921585 8:0.217464 9:-0.904509 10:0.255735 11:-0.370958 12:1 13:1 
8 1:-0.989742 2:-0.424184 3:-0.991185 4:-0.32363 5:-0.990123 6:-0.267112 7:-0.990152 8:-0.274559 9:-0.990109 10:-0.28802 11:-0.140807 12:1 13:1 
8 1:-0.987677 2:-0.378119 3:-0.985959 4:-0.214041 5:-0.985399 6:-0.176962 7:-0.985435 8:-0.183879 9:-0.985334 10:-0.196262 11:-0.190392 12:0.456138 13:0.440559 
8 1:-0.987209 2:-0.370441 3:-0.98754 4:-0.243151 5:-0.986683 6:-0.198664 7:-0.986766 8:-0.205709 9:-0.987268 10:-0.228547 11:-0.298224 12:0.743176 13:0.738134 
8 1:-0.952331 2:-0.0268714 3:-0.934736 4:0.155822 5:-0.93456 6:0.178631 7:-0.934524 8:0.173804 9:-0.941637 10:0.136788 11:-0.370958 12:1 13:1 
8 1:-0.988006 2:-0.385797 3:-0.986332 4:-0.22089 5:-0.985578 6:-0.180301 7:-0.985654 8:-0.187238 9:-0.971315 10:-0.0348343 11:-0.252977 12:0.853244 13:0.849906 
8 1:-0.973431 2:-0.182342 3:-0.972045 4:-0.0496575 5:-0.971426 6:-0.0183639 7:-0.971379 8:-0.0243493 9:-0.964883 10:0.0127443 11:-0.284561 12:0.833412 13:0.82906 
8 1:-0.989896 2:-0.428023 3:-0.988035 4:-0.251712 5:-0.988051 6:-0.223706 7:-0.988193 8:-0.232578 9:-0.987026 10:-0.225149 11:-0.374338 12:0.13322 13:0.120879 
8 1:-0.966573 2:-0.120921 3:-0.965745 5:-0.96566 6:0.0250417 7:-0.965716 8:0.0193115 9:-0.963488 10:0.0229397 11:-0.370958 12:1 13:1 
8 1:-0.989937 2:-0.428023 3:-0.988832 4:-0.268836 5:-0.988404 6:-0.230384 7:-0.98852 8:-0.239295 9:-0.98798 10:-0.242141 11:-0.313789 12:0.147563 13:0.139785 
8 1:-0.9874 2:-0.372361 3:-0.986087 4:-0.217466 5:-0.985938 6:-0.185309 7:-0.985971 8:-0.192275 9:-0.984278 10:-0.179269 11:-0.253675 12:0.40525 13:0.395604 
8 1:-0.983972 2:-0.31286 3:-0.980672 4:-0.138699 5:-0.980357 6:-0.106845 7:-0.980499 8:-0.115029 9:-0.979605 10:-0.118097 11:-0.178502 12:-0.176292 13:-0.183432 
8 1:-0.979872 2:-0.255278 3:-0.979229 4:-0.121575 5:-0.977668 6:-0.0767947 7:-0.977747 8:-0.0831234 9:-0.976544 10:-0.0841121 11:-0.349177 12:0.197865 13:0.188034 
8 1:-0.960177 2:-0.074856 3:-0.965758 5:-0.96567 6:0.0250417 7:-0.965728 8:0.0193115 9:-0.965909 10:0.00594732 11:-0.370958 12:1 13:1 
8 1:-0.935964 2:0.0518234 3:-0.93731 4:0.14726 5:-0.934353 6:0.178631 7:-0.933971 8:0.175483 9:-0.942099 10:0.13339 11:-0.521104 12:0.637425 13:0.615385 
8 1:-0.978641 2:-0.239923 3:-0.976559 4:-0.0924658 5:-0.976428 6:-0.0651085 7:-0.976402 8:-0.0696893 9:-0.976646 10:-0.0841121 11:-0.330788 12:0.641641 13:0.6337 
8 1:-0.986876 2:-0.362764 3:-0.983609 4:-0.178082 5:-0.983405 6:-0.146912 7:-0.983437 8:-0.153652 9:-0.982906 10:-0.158879 11:-0.24402 12:0.266218 13:0.255583 
8 1:-0.983657 2:-0.307102 3:-0.982281 4:-0.159247 5:-0.981347 6:-0.1202 7:-0.981274 8:-0.125105 9:-0.980182 10:-0.124894 11:-0.278976 12:0.108852 13:0.0994371 
8 1:-0.997066 2:-0.694818 3:-0.996209 4:-0.511986 5:-0.9961 6:-0.474124 7:-0.996131 8:-0.482788 9:-0.995895 10:-0.485132 11:-0.370958 12:1 13:1 
8 1:-0.975698 2:-0.205374 3:-0.969962 4:-0.0325342 5:-0.969043 7:-0.969088 8:-0.00587741 9:-0.969892 10:-0.0246389 11:-0.183608 12:0.876725 13:0.871795 
8 1:-0.97915 2:-0.245681 3:-0.97994 4:-0.130137 5:-0.979834 6:-0.101836 7:-0.979876 8:-0.108312 9:-0.978571 10:-0.106202 11:-0.370958 12:1 13:1 
8 1:-0.986541 2:-0.357006 3:-0.986279 4:-0.22089 5:-0.985444 6:-0.176962 7:-0.985552 8:-0.185558 9:-0.984782 10:-0.186066 11:-0.298814 12:0.383623 13:0.368836 
8 1:-0.98783 2:-0.381958 3:-0.986422 4:-0.222603 5:-0.986334 6:-0.191987 7:-0.986483 8:-0.200672 9:-0.98604 10:-0.206457 11:-0.321188 12:0.0837637 13:0.0727081 
8 1:-0.994242 2:-0.558541 3:-0.992591 4:-0.363014 5:-0.992693 6:-0.335559 7:-0.992822 8:-0.346767 9:-0.993949 10:-0.40017 11:-0.139464 12:0.383623 13:0.340659 
8 1:-0.978945 2:-0.243762 3:-0.978258 4:-0.109589 5:-0.978087 6:-0.081803 7:-0.97813 8:-0.0881612 9:-0.979481 10:-0.116398 11:-0.248477 12:0.647784 13:0.638009 
8 1:-0.998098 2:-0.769674 3:-0.996618 4:-0.535959 5:-0.996638 6:-0.505843 7:-0.996556 8:-0.507976 9:-0.996348 10:-0.51062 11:-0.288036 12:0.691811 13:0.676113 
8 1:-0.993718 2:-0.537428 3:-0.99287 4:-0.371575 5:-0.992765 6:-0.337229 7:-0.9928 8:-0.345088 9:-0.992346 10:-0.345794 11:-0.370958 12:1 13:1 
8 1:-0.97233 2:-0.170825 3:-0.969762 4:-0.0308219 5:-0.969664 6:-0.00500835 7:-0.969719 8:-0.0109152 9:-0.951405 10:0.0909091 11:-0.370958 12:1 13:1 
8 1:-0.990236 2:-0.435701 3:-0.989904 4:-0.292808 5:-0.989749 6:-0.258765 7:-0.989684 8:-0.264484 9:-0.989566 10:-0.274427 11:-0.402641 12:0.637425 13:0.615385 
8 1:-0.933917 2:0.0614203 3:-0.929704 4:0.174658 5:-0.92942 6:0.196995 7:-0.929493 8:0.192275 9:-0.925727 10:0.194562 11:-0.281445 12:0.67897 13:0.672668 
8 1:-0.989284 2:-0.412668 3:-0.987594 4:-0.243151 5:-0.988871 6:-0.240401 7:-0.989272 8:-0.254408 9:-0.988721 10:-0.257434 11:-0.345163 12:0.657568 13:0.648352 
8 1:-0.985588 2:-0.339731 3:-0.984241 4:-0.186644 5:-0.98376 6:-0.15192 7:-0.983802 8:-0.15869 9:-0.983469 10:-0.167375 11:-0.322011 12:0.576996 13:0.569231 
8 1:-0.978143 2:-0.234165 3:-0.976599 4:-0.0924658 5:-0.976987 6:-0.0701169 7:-0.977023 8:-0.0764064 9:-0.976637 10:-0.0841121 11:-0.255915 12:0.439657 13:0.427549 
8 1:-0.934943 2:0.0575816 3:-0.932138 4:0.166096 5:-0.931215 6:0.190317 7:-0.931299 8:0.185558 9:-0.931195 10:0.175871 11:-0.459374 12:1 13:1 
8 1:-0.986331 2:-0.353167 3:-0.98525 4:-0.203767 5:-0.985145 6:-0.173623 7:-0.985183 8:-0.178841 9:-0.985045 10:-0.191164 11:-0.212475 12:1 13:1 
8 1:-0.996823 2:-0.679463 3:-0.994849 4:-0.445205 5:-0.993951 6:-0.378965 7:-0.993922 8:-0.383711 9:-0.993541 10:-0.384877 11:-0.251976 12:0.486352 13:0.457014 
8 1:-0.985705 2:-0.341651 3:-0.985043 4:-0.200342 5:-0.985012 6:-0.170284 7:-0.985052 8:-0.177162 9:-0.974718 10:-0.0654206 11:-0.433316 12:0.859914 13:0.85348 
8 1:-0.997066 2:-0.694818 3:-0.996209 4:-0.511986 5:-0.9961 6:-0.474124 7:-0.996131 8:-0.482788 9:-0.995895 10:-0.485132 11:-0.370958 12:1 13:1 
8 1:-0.974141 2:-0.190019 3:-0.971272 4:-0.0428082 5:-0.971064 6:-0.0166945 7:-0.971112 8:-0.02267 9:-0.969312 10:-0.0195412 11:-0.192491 12:0.479118 13:0.472527 
8 1:-0.987607 2:-0.378119 3:-0.984947 4:-0.19863 5:-0.984294 6:-0.160267 7:-0.984222 8:-0.165407 9:-0.983068 10:-0.162277 11:-0.0597117 12:0.377968 13:0.373219 
8 1:-0.958512 2:-0.0633397 3:-0.942942 4:0.123288 5:-0.951537 6:0.106845 7:-0.95157 8:0.101595 9:-0.954096 10:0.0773152 11:-0.222766 12:1 13:1 
8 1:-0.983001 2:-0.297505 3:-0.980228 4:-0.133562 5:-0.980506 6:-0.108514 7:-0.980519 8:-0.115029 9:-0.979981 10:-0.121495 11:-0.263476 12:-0.103391 13:-0.115385 
8 1:-0.981318 2:-0.274472 3:-0.980464 4:-0.135274 5:-0.980361 6:-0.106845 7:-0.980405 8:-0.11335 9:-0.979488 10:-0.116398 11:-0.459726 12:1 13:1 
8 1:-0.937846 2:0.0441459 3:-0.911597 4:0.231164 5:-0.911514 6:0.250417 7:-0.911605 8:0.246012 9:-0.908358 10:0.24554 11:-0.370958 12:1 13:1 
8 1:-0.974608 2:-0.193858 3:-0.968372 4:-0.0205479 5:-0.968582 6:0.0033389 7:-0.968393 8:-0.000839631 9:-0.968605 10:-0.0144435 11:-0.256854 12:0.713313 13:0.70696 
8 1:-0.950924 2:-0.0191939 3:-0.945381 4:0.113014 5:-0.945257 6:0.135225 7:-0.945313 8:0.130143 9:-0.944868 10:0.121495 11:-0.435403 12:0.579743 13:0.56044 
8 1:-0.966386 2:-0.120921 3:-0.958443 4:0.0462329 5:-0.958353 6:0.0701169 7:-0.95841 8:0.0646516 9:-0.943669 10:0.128292 11:-0.370958 12:1 13:1 
8 1:-0.992323 2:-0.493282 3:-0.989726 4:-0.287671 5:-0.987541 6:-0.213689 7:-0.987543 8:-0.220823 9:-0.987121 10:-0.226848 11:-0.370958 12:0.743176 13:0.72028 
8 1:-0.920426 2:0.111324 3:-0.920679 4:0.203767 5:-0.910905 6:0.252087 7:-0.910987 8:0.247691 9:-0.924829 10:0.197961 11:-0.350213 12:1 13:1 
8 1:-0.98252 2:-0.291747 3:-0.982548 4:-0.162671 5:-0.982352 6:-0.131886 7:-0.982296 8:-0.138539 9:-0.981891 10:-0.145285 11:-0.333856 12:0.359212 13:0.353846 
8 1:-0.988987 2:-0.40691 3:-0.987058 4:-0.234589 5:-0.986581 6:-0.196995 7:-0.986617 8:-0.20403 9:-0.987306 10:-0.230246 11:-0.308343 12:1 13:1 
8 1:-0.990033 2:-0.429942 3:-0.991492 4:-0.332192 5:-0.984569 6:-0.163606 7:-0.984593 8:-0.170445 9:-0.983588 10:-0.169074 11:-0.370958 12:1 13:1 
8 1:-0.984905 2:-0.328215 3:-0.982798 4:-0.166096 5:-0.982805 6:-0.138564 7:-0.982897 8:-0.145256 9:-0.981704 10:-0.143585 11:-0.244459 12:0.480164 13:0.474672 
8 1:-0.940406 2:0.0326296 3:-0.947916 4:0.101027 5:-0.947349 6:0.126878 7:-0.947415 8:0.121746 9:-0.947603 10:0.109601 11:-0.355823 12:0.811313 13:0.807692 
8 1:-0.984929 2:-0.328215 3:-0.982511 4:-0.162671 5:-0.981742 6:-0.125209 7:-0.981777 8:-0.131822 9:-0.977027 10:-0.0892099 11:-0.306931 12:0.400744 13:0.384615 
8 1:-0.984861 2:-0.328215 3:-0.982262 4:-0.159247 5:-0.981619 6:-0.123539 7:-0.981553 8:-0.128463 9:-0.980838 10:-0.131691 11:-0.35345 12:0.60776 13:0.60114 
8 1:-0.98427 2:-0.316699 3:-0.98066 4:-0.138699 5:-0.979678 6:-0.100167 7:-0.979756 8:-0.106633 9:-0.976564 10:-0.0841121 11:-0.288901 12:-0.0935724 13:-0.100688 
8 1:-0.940658 2:0.0326296 3:-0.939483 4:0.138699 5:-0.93941 6:0.160267 7:-0.939491 8:0.155332 9:-0.936285 10:0.157179 11:-0.370958 12:1 13:1 
8 1:-0.983147 2:-0.299424 3:-0.981635 4:-0.150685 5:-0.98145 6:-0.1202 7:-0.98149 8:-0.126784 9:-0.982206 10:-0.150382 11:-0.234581 12:0.167891 13:0.160839 
8 1:-0.916754 2:0.12476 3:-0.913971 4:0.224315 5:-0.913895 6:0.24374 7:-0.913986 8:0.239295 9:-0.907973 10:0.247239 11:-0.370958 12:1 13:1 
8 1:-0.989675 2:-0.422265 3:-0.985892 4:-0.214041 5:-0.985727 6:-0.18197 7:-0.987725 8:-0.224181 9:-0.985906 10:-0.204758 11:-0.271521 12:0.691811 13:0.681698 
8 1:-0.964281 2:-0.103647 3:-0.957053 4:0.0547945 5:-0.956983 6:0.0784641 7:-0.957038 8:0.0730479 9:-0.954792 10:0.0739167 11:-0.177337 12:0.90661 13:0.903846 
8 1:-0.98988 2:-0.426104 3:-0.988022 4:-0.251712 5:-0.988176 6:-0.225376 7:-0.988212 8:-0.232578 9:-0.982623 10:-0.15548 11:-0.350517 12:0.486352 13:0.464883 
8 1:-0.97534 2:-0.201536 3:-0.972932 4:-0.0582192 5:-0.970382 6:-0.0100167 7:-0.970418 8:-0.015953 9:-0.96867 10:-0.0144435 11:-0.172089 12:1 13:1 
8 1:-0.995021 2:-0.589251 3:-0.994533 4:-0.431507 5:-0.993474 6:-0.360601 7:-0.993221 8:-0.360202 9:-0.992727 10:-0.357689 11:-0.370958 12:0.537717 13:0.51417 
8 1:-0.972647 2:-0.174664 3:-0.970156 4:-0.0342466 5:-0.969111 7:-0.969228 8:-0.00755668 9:-0.965558 10:0.00764656 11:-0.302609 12:0.606568 13:0.598662 
8 1:-0.973429 2:-0.182342 3:-0.970028 4:-0.0325342 5:-0.9696 6:-0.00500835 7:-0.969639 8:-0.0109152 9:-0.969425 10:-0.0195412 11:-0.35967 12:1 13:1 
8 1:-0.993718 2:-0.537428 3:-0.99287 4:-0.371575 5:-0.992765 6:-0.337229 7:-0.9928 8:-0.345088 9:-0.992346 10:-0.345794 11:-0.370958 12:1 13:1 
8 1:-0.980719 2:-0.264875 3:-0.977562 4:-0.10274 5:-0.976905 6:-0.0701169 7:-0.976942 8:-0.0747271 9:-0.976639 10:-0.0841121 11:-0.218265 12:0.383623 13:0.368836 
8 1:-0.973874 2:-0.18618 3:-0.970183 4:-0.0342466 5:-0.970421 6:-0.0100167 7:-0.970534 8:-0.0176322 9:-0.96937 10:-0.0195412 11:-0.295261 12:0.531017 13:0.521368 
8 1:-0.988997 2:-0.40691 3:-0.98618 4:-0.219178 5:-0.98467 6:-0.165275 7:-0.984706 8:-0.172124 9:-0.983825 10:-0.172472 11:-0.209073 12:1 13:1 
8 1:-0.988478 2:-0.395393 3:-0.985569 4:-0.208904 5:-0.984976 6:-0.170284 7:-0.985115 8:-0.178841 9:-0.984619 10:-0.184367 11:-0.268754 12:0.748417 13:0.74359 
8 1:-0.983641 2:-0.307102 3:-0.983183 4:-0.171233 5:-0.982999 6:-0.141903 7:-0.982964 8:-0.146935 9:-0.982979 10:-0.160578 11:-0.230477 12:0.439657 13:0.433198 
8 1:-0.979273 2:-0.247601 3:-0.978072 4:-0.107877 5:-0.977929 6:-0.0801336 7:-0.9778 8:-0.0848027 9:-0.977385 10:-0.0926083 11:-0.290762 12:0.0454336 13:0.0384615 
8 1:-0.968685 2:-0.138196 3:-0.962434 4:0.0222603 5:-0.962315 6:0.0467446 7:-0.962369 8:0.0411419 9:-0.961026 10:0.0382328 11:-0.441154 12:1 13:1 
8 1:-0.926517 2:0.0902111 3:-0.916076 4:0.217466 5:-0.91599 6:0.238731 7:-0.916076 8:0.234257 9:-0.92857 10:0.184367 11:-0.190815 12:0.691811 13:0.65812 
8 1:-0.959473 2:-0.0710173 3:-0.951705 4:0.0821918 5:-0.950042 6:0.113523 7:-0.950099 8:0.108312 9:-0.950138 10:0.097706 11:-0.35959 12:1 13:1 
8 1:-0.967216 2:-0.126679 3:-0.964347 4:0.00856164 5:-0.963243 6:0.0400668 7:-0.963277 8:0.0361041 9:-0.963155 10:0.0246389 11:-0.340712 12:0.165323 13:0.157895 
8 1:-0.9766 2:-0.214971 3:-0.972938 4:-0.0582192 5:-0.973426 6:-0.0367279 7:-0.97372 8:-0.0445004 9:-0.971668 10:-0.0382328 11:-0.394283 12:0.0282342 13:0.020979 
8 1:-0.980346 2:-0.261036 3:-0.979983 4:-0.130137 5:-0.979707 6:-0.100167 7:-0.979749 8:-0.106633 9:-0.979297 10:-0.112999 11:-0.272276 12:0.762932 13:0.753846 
8 1:-0.973675 2:-0.184261 3:-0.971449 4:-0.0445205 5:-0.971037 6:-0.015025 7:-0.971005 8:-0.0209908 9:-0.970246 10:-0.0263381 11:-0.449809 12:0.647784 13:0.638009 
8 1:-0.984976 2:-0.330134 3:-0.98413 4:-0.184932 5:-0.98403 6:-0.155259 7:-0.984071 8:-0.162049 9:-0.983044 10:-0.160578 11:-0.370958 12:1 13:1 
8 1:-0.998821 2:-0.836852 3:-0.998464 4:-0.690068 5:-0.998352 6:-0.647746 7:-0.998381 8:-0.657431 9:-0.998292 10:-0.661852 11:-0.370958 12:1 13:1 
8 1:-0.980643 2:-0.264875 3:-0.980413 4:-0.135274 5:-0.980232 6:-0.105175 7:-0.98028 8:-0.111671 9:-0.981484 10:-0.140187 11:-0.244061 12:0.486352 13:0.476268 
8 1:-0.989826 2:-0.426104 3:-0.989813 4:-0.289384 5:-0.989991 6:-0.263773 7:-0.990029 8:-0.271201 9:-0.989227 10:-0.26763 11:-0.304112 12:0.853244 13:0.849906 
8 1:-0.976233 2:-0.211132 3:-0.972295 4:-0.0513699 5:-0.972194 6:-0.0250417 7:-0.972246 8:-0.0310663 9:-0.972688 10:-0.046729 11:-0.162594 12:1 13:1 
8 1:-0.986863 2:-0.362764 3:-0.985665 4:-0.210616 5:-0.985186 6:-0.173623 7:-0.98514 8:-0.178841 9:-0.984886 10:-0.187766 11:-0.183452 12:0.665012 13:0.65812 
